%YAML:1.0
my_svm: !!opencv-ml-svm
   svm_type: C_SVC
   kernel: { type:RBF, gamma:5.3830000000000000e+000 }
   C: 2.6699999999999999e+000
   term_criteria: { epsilon:1.1920928955078125e-007, iterations:1000 }
   var_all: 64
   var_count: 64
   class_count: 10
   class_labels: !!opencv-matrix
      rows: 1
      cols: 10
      dt: i
      data: [ 0, 1, 2, 3, 4, 5, 6, 7, 8, 9 ]
   sv_total: 1662
   support_vectors:
      - [ 1.59334004e-001, 2.65260577e-001, 2.45603576e-001, 0., 0., 0.,
          0., 0., 0., 1.49894580e-001, 8.14113468e-002, 1.15923792e-001,
          7.46416897e-002, 1.19278982e-001, 0., 3.01834065e-002,
          1.74274549e-001, 4.39155661e-002, 0., 5.10897785e-002,
          1.51774183e-001, 9.90395024e-002, 9.53183398e-002,
          1.92744404e-001, 1.19694658e-001, 4.05264981e-002, 0., 0.,
          1.35649502e-001, 2.65334219e-001, 1.62389740e-001,
          1.29376680e-001, 0., 5.13353199e-002, 0., 1.28200531e-001,
          1.28319502e-001, 1.64061025e-001, 1.64421022e-001,
          2.43885428e-001, 1.08422667e-001, 7.80670196e-002,
          1.39351606e-001, 9.45018828e-002, 1.19904034e-001,
          8.26408640e-002, 1.39015615e-001, 0., 1.14319168e-001,
          1.41694576e-001, 1.31639719e-001, 2.02874526e-001,
          5.26042245e-002, 0., 8.63690823e-002, 1.54926658e-001,
          1.09094843e-001, 1.85126245e-001, 2.33270079e-001,
          1.53889030e-001, 1.41496420e-001, 2.83346828e-002, 0.,
          1.10260159e-001 ]
      - [ 1.91216812e-001, 2.27184102e-001, 1.33780956e-001,
          1.17252141e-001, 0., 0., 0., 0., 1.29285246e-001,
          8.10068026e-002, 4.72001620e-002, 0., 0., 2.51430478e-002, 0.,
          1.97560862e-001, 2.00941995e-001, 1.16307372e-002, 0.,
          4.07860018e-002, 0., 0., 8.05296525e-002, 1.75972551e-001,
          1.27026007e-001, 3.23535092e-002, 0., 0., 0., 1.84765622e-001,
          2.13032365e-001, 2.37289190e-001, 1.17296681e-001,
          3.61888707e-002, 5.88098951e-002, 0., 2.08257452e-001,
          1.80152580e-001, 1.62200883e-001, 2.66528308e-001,
          1.36354461e-001, 1.04485050e-001, 9.18994695e-002, 0.,
          1.22880496e-001, 6.56760707e-002, 9.35367048e-002,
          1.08211257e-001, 1.78842232e-001, 1.23233192e-001,
          8.91472250e-002, 8.13092962e-002, 8.70583802e-002,
          6.76116273e-002, 0., 1.06549077e-001, 2.83561319e-001,
          2.66580254e-001, 1.35774672e-001, 1.28122419e-001,
          1.46297753e-001, 4.58868667e-002, 0., 1.33355409e-001 ]
      - [ 2.54659474e-001, 1.43572628e-001, 2.18029290e-001,
          1.28607973e-001, 5.30539602e-002, 8.18432495e-003, 0., 0.,
          1.12244850e-002, 5.96674494e-002, 8.31182599e-002,
          5.04244342e-002, 1.09082825e-001, 0., 0., 0., 2.12584585e-001,
          8.20740983e-002, 4.27609198e-002, 0., 1.61094248e-001,
          1.09247468e-001, 1.29620612e-001, 1.40178844e-001,
          8.56616125e-002, 9.73643288e-002, 1.41879842e-001,
          1.09660208e-001, 1.79611042e-001, 2.07037523e-001,
          1.65867388e-001, 1.56812325e-001, 5.27382642e-003, 0., 0., 0.,
          1.01023927e-001, 2.65311301e-001, 2.48005986e-001,
          1.01729907e-001, 0., 1.77458934e-002, 1.27055004e-001,
          1.50241420e-001, 0., 6.89684749e-002, 8.84871185e-002,
          6.10625520e-002, 7.95039013e-002, 2.10790157e-001,
          1.32778868e-001, 1.30081668e-001, 3.31579596e-002, 0.,
          7.99945965e-002, 1.75016031e-001, 1.24212682e-001,
          2.73628742e-001, 1.71615705e-001, 1.96052939e-001,
          8.17619860e-002, 0., 0., 1.48698106e-001 ]
      - [ 1.38645336e-001, 2.49876827e-001, 1.34261027e-001,
          1.48984537e-001, 0., 0., 0., 0., 0., 1.95289746e-001,
          4.59415913e-002, 0., 0., 0., 0., 1.90098986e-001,
          1.89970240e-001, 3.46826017e-002, 0., 0., 1.52172372e-001,
          9.51969549e-002, 8.14712718e-002, 1.16287157e-001,
          1.99227631e-001, 9.19428840e-002, 0., 2.52730455e-002,
          1.79844126e-001, 1.66976228e-001, 1.62388444e-001,
          2.11305916e-001, 4.96734381e-002, 0., 3.20319608e-002,
          1.18176758e-001, 1.88214809e-001, 1.19859017e-001,
          1.36345312e-001, 2.53728360e-001, 8.65580961e-002,
          1.68368414e-001, 1.05479650e-001, 5.91072030e-002,
          5.91823235e-002, 0., 6.99541271e-002, 1.80616871e-001,
          1.23196967e-001, 1.31799415e-001, 1.35745391e-001,
          1.49643943e-001, 0., 0., 0., 1.74258485e-001, 1.88237593e-001,
          2.39105120e-001, 1.60231039e-001, 1.30493939e-001,
          1.40048385e-001, 0., 6.35527596e-002, 1.66249722e-001 ]
      - [ 2.47673281e-002, 1.05055623e-001, 3.08118552e-001,
          1.32972449e-001, 0., 0., 0., 0., 0., 1.54580072e-001,
          1.37954056e-001, 1.22708455e-001, 0., 0., 5.72991110e-002,
          1.73358962e-001, 1.60858512e-001, 0., 0., 5.84788322e-002,
          1.83596715e-001, 9.50345024e-002, 9.44964066e-002, 0.,
          1.19906917e-001, 1.87719733e-001, 0., 0., 2.04536796e-001,
          1.89856946e-001, 1.55884698e-001, 1.66139930e-001, 0., 0., 0.,
          0., 2.42753491e-001, 2.23066524e-001, 1.32787272e-001,
          1.71887860e-001, 0., 9.81593411e-003, 6.59988672e-002,
          1.83602020e-001, 1.05890006e-001, 1.63468778e-001,
          8.46799687e-002, 1.17586493e-001, 1.19016558e-001,
          1.81805030e-001, 1.68848768e-001, 1.70454428e-001,
          1.36880158e-002, 1.99846812e-002, 0., 0., 1.71925947e-001,
          2.19897524e-001, 2.05984473e-001, 2.12572992e-001,
          1.36880158e-002, 0., 0., 0. ]
      - [ 2.70726889e-001, 1.68740094e-001, 1.23780586e-001,
          1.27793074e-001, 0., 0., 0., 0., 2.81984717e-001,
          1.10450573e-001, 0., 3.54367010e-002, 0., 0., 0.,
          1.42042369e-001, 1.50339305e-001, 4.27330397e-002, 0., 0., 0.,
          1.08570226e-001, 1.42951354e-001, 2.37511009e-001, 0., 0., 0.,
          0., 1.36963964e-001, 1.26938999e-001, 2.24179626e-001,
          2.33088210e-001, 1.41028762e-001, 0., 6.18748516e-002,
          1.28818035e-001, 5.74734583e-002, 1.13991357e-001,
          1.59567609e-001, 2.29711473e-001, 1.32624432e-001,
          1.00139752e-001, 8.44858140e-002, 7.11661056e-002, 0.,
          5.62969223e-002, 5.61102293e-002, 2.05082819e-001,
          1.62604645e-001, 2.06959039e-001, 9.95489359e-002,
          1.51602075e-001, 2.77206581e-002, 0., 1.58020500e-002,
          1.27205893e-001, 2.27318451e-001, 2.24893674e-001,
          1.75166950e-001, 1.57652006e-001, 0., 0., 2.69281622e-002, 0. ]
      - [ 2.12881342e-001, 2.17237443e-001, 1.87030330e-001,
          1.23169817e-001, 0., 0., 0., 6.41636252e-002, 1.87133223e-001,
          1.74642429e-001, 1.16664588e-001, 0., 0., 0., 5.30863255e-002,
          4.49984446e-002, 1.61786675e-001, 2.83227768e-002, 0., 0.,
          8.08066949e-002, 1.52920410e-001, 1.23895638e-001,
          1.30699247e-001, 1.76667064e-001, 3.00886594e-002, 0., 0.,
          1.60430640e-001, 1.64180607e-001, 2.15004519e-001,
          1.47296295e-001, 8.23119730e-002, 7.60823563e-002,
          1.04125850e-001, 1.67825699e-001, 1.61326513e-001,
          1.16195664e-001, 1.96480215e-001, 1.76081002e-001,
          6.82029054e-002, 1.28311053e-001, 0., 1.32555932e-001,
          9.04717445e-002, 1.26211673e-001, 1.70408249e-001,
          6.71468228e-002, 8.29872042e-002, 0., 1.17752232e-001,
          1.43987104e-001, 1.25840202e-001, 1.23358676e-002,
          1.31608814e-001, 1.57669410e-001, 1.61444902e-001,
          1.49556622e-001, 1.44916803e-001, 1.78884760e-001,
          1.26413614e-001, 2.75970902e-002, 1.27046540e-001,
          1.90175474e-001 ]
      - [ 1.33636549e-001, 2.28226110e-001, 1.61049262e-001,
          1.65903792e-001, 1.64324448e-001, 0., 0., 0., 0.,
          2.19491944e-001, 7.59194568e-002, 1.37428910e-001,
          5.75198792e-002, 1.03950739e-001, 8.59484449e-002, 0., 0.,
          4.54787947e-002, 5.59377447e-002, 1.45747289e-001,
          9.20712799e-002, 1.05727404e-001, 1.43536210e-001,
          1.00458376e-001, 1.38804033e-001, 0., 0., 0., 2.18221113e-001,
          1.73578382e-001, 1.70716509e-001, 1.80046991e-001, 0., 0.,
          3.66616286e-002, 1.06875829e-001, 2.20584363e-001,
          2.28729278e-001, 1.50484994e-001, 1.32189035e-001, 0.,
          7.28548467e-002, 1.15894265e-001, 9.56992507e-002,
          1.02373354e-001, 2.04689711e-001, 1.55607358e-001, 0.,
          1.36878788e-001, 1.10316359e-001, 1.47585824e-001,
          2.10123599e-001, 8.26171413e-002, 0., 0., 0., 1.55959845e-001,
          1.51059046e-001, 2.35948324e-001, 2.29853764e-001,
          2.45803352e-002, 0., 4.03619967e-002, 0. ]
      - [ 2.02429444e-001, 1.72201246e-001, 1.27331734e-001,
          1.00476854e-001, 1.08452685e-001, 1.53134957e-001, 0.,
          1.49854302e-001, 1.59104228e-001, 4.61453944e-002,
          5.11820726e-002, 1.33982198e-002, 0., 1.48952961e-001,
          8.49054828e-002, 1.32533029e-001, 0., 0., 0., 0.,
          1.49890274e-001, 1.26895621e-001, 1.21294543e-001,
          1.95969269e-001, 0., 0., 0., 0., 1.83004260e-001,
          1.75623998e-001, 1.93406865e-001, 2.33454823e-001,
          1.30351871e-001, 8.27932507e-002, 0., 0., 2.02107668e-001,
          2.10559174e-001, 1.62669986e-001, 1.60501674e-001,
          1.42127037e-001, 0., 0., 0., 1.91338614e-001, 1.60202786e-001,
          6.09396510e-002, 9.25714150e-002, 1.88620090e-001,
          1.53789610e-001, 1.01179115e-001, 1.67622954e-001, 0., 0., 0.,
          0., 2.51378775e-001, 2.00308278e-001, 1.28663659e-001,
          2.00173378e-001, 8.21477175e-002, 0., 0., 0. ]
      - [ 2.03486383e-001, 1.32681251e-001, 1.98431268e-001,
          1.93826407e-001, 2.54184380e-002, 0., 1.89521834e-002, 0.,
          8.34907070e-002, 1.05128773e-001, 1.50316879e-001,
          4.16807197e-002, 8.49078819e-002, 0., 9.02169198e-002, 0.,
          1.48754805e-001, 6.64141169e-003, 0., 0., 4.47177440e-002,
          1.97348624e-001, 1.02536201e-001, 1.60703242e-001,
          6.39306158e-002, 0., 0., 7.90916756e-002, 2.00343758e-001,
          1.90370739e-001, 1.90840349e-001, 1.42432839e-001,
          8.74619633e-002, 1.11770354e-001, 1.55879080e-001,
          1.72687799e-001, 1.54405013e-001, 1.35930285e-001,
          1.52436852e-001, 1.43442526e-001, 1.69904515e-001,
          1.17691435e-001, 1.25999004e-001, 1.34404898e-001,
          1.75007015e-001, 3.87346484e-002, 0., 0., 2.03446180e-001,
          1.10871881e-001, 1.13271989e-001, 1.26054242e-001,
          1.67890057e-001, 5.31442575e-002, 1.52173862e-002,
          1.22239873e-001, 1.70872137e-001, 2.24389449e-001,
          1.49865955e-001, 1.97874829e-001, 1.45263866e-001, 0., 0.,
          4.91788052e-002 ]
      - [ 2.62658805e-001, 1.40093550e-001, 1.65658757e-001,
          1.62677586e-001, 1.27029181e-001, 9.09327194e-002, 0., 0.,
          1.33180827e-001, 2.17184067e-001, 1.59798563e-001,
          9.12570581e-002, 0., 0., 0., 0., 1.08809851e-001, 0., 0.,
          1.18675649e-001, 1.59025073e-001, 1.03504285e-001,
          1.01612382e-001, 1.30810529e-001, 1.34531558e-001, 0.,
          2.22578086e-002, 1.20951526e-001, 1.71402410e-001,
          1.93213627e-001, 1.85091838e-001, 1.62118837e-001,
          9.88816172e-002, 1.22237146e-001, 1.00145228e-001,
          8.98984373e-002, 1.25145301e-001, 1.66982755e-001,
          2.00494915e-001, 1.81439683e-001, 4.41060588e-002,
          7.63624310e-002, 3.52963582e-002, 7.46332332e-002,
          5.63237593e-002, 1.60332128e-001, 6.29117787e-002,
          1.64648578e-001, 0., 1.83236390e-001, 1.87452123e-001,
          1.55622780e-001, 0., 0., 0., 0., 1.34173051e-001,
          2.00771898e-001, 2.47855172e-001, 1.90695137e-001,
          3.73163223e-002, 0., 0., 0. ]
      - [ 2.36424103e-001, 1.80229992e-001, 1.63205087e-001,
          1.73286229e-001, 0., 0., 0., 0., 1.65587440e-001,
          1.96539968e-001, 1.27983794e-001, 7.76192769e-002, 0., 0., 0.,
          3.86491716e-002, 1.18875675e-001, 6.18324103e-003, 0.,
          1.21048465e-001, 1.39598802e-001, 8.86177123e-002,
          1.08597897e-001, 1.42357215e-001, 1.48187712e-001,
          8.26572701e-002, 0., 1.02022424e-001, 1.82899773e-001,
          1.61951244e-001, 1.23158418e-001, 2.28420675e-001,
          6.39389828e-002, 0., 8.20982605e-002, 1.60308465e-001,
          1.84862658e-001, 1.78344339e-001, 1.52732939e-001,
          1.47150621e-001, 4.79850993e-002, 6.96887150e-002,
          8.84117782e-002, 2.01131821e-001, 5.83458692e-002,
          1.32401004e-001, 1.63688496e-001, 3.32227312e-002,
          1.47520140e-001, 6.99721947e-002, 1.83780402e-001,
          1.67628393e-001, 4.24534548e-003, 0., 2.03695763e-002,
          1.22970931e-001, 1.63214371e-001, 1.80606261e-001,
          2.01819956e-001, 1.95108339e-001, 1.62222590e-002, 0.,
          1.00971898e-002, 1.27689198e-001 ]
      - [ 1.30252823e-001, 1.99356094e-001, 2.35026509e-001,
          1.47719532e-001, 0., 8.78875926e-002, 0., 8.96260813e-002,
          9.06143337e-002, 6.61263168e-002, 0., 1.05961896e-001,
          7.47916475e-002, 1.14994422e-001, 9.82444957e-002,
          5.87586313e-002, 1.91403493e-001, 3.10628526e-002, 0.,
          4.41564545e-002, 9.40891206e-002, 1.06317118e-001, 0.,
          8.79989415e-002, 1.02980182e-001, 1.97946936e-001, 0.,
          3.49386260e-002, 1.36546850e-001, 1.71873569e-001,
          1.89128920e-001, 1.92761958e-001, 1.18839785e-001, 0.,
          3.11926305e-002, 1.34644270e-001, 1.34627566e-001,
          1.34657338e-001, 2.42892206e-001, 2.46588871e-001,
          9.00608450e-002, 0., 7.34772757e-002, 1.18810587e-001,
          1.15029968e-001, 7.42274150e-002, 8.54820088e-002,
          1.67424127e-001, 1.79425254e-001, 1.85891792e-001,
          1.19447067e-001, 1.11056469e-001, 0., 0., 3.67325568e-003, 0.,
          3.02966654e-001, 1.72413096e-001, 1.60114571e-001,
          2.08961964e-001, 0., 0., 0., 0. ]
      - [ 2.97915667e-001, 1.12484418e-001, 1.15328744e-001,
          1.53072506e-001, 1.12270124e-001, 2.49206591e-002,
          4.15579751e-002, 6.38016462e-002, 2.67114520e-001,
          8.77902582e-002, 5.66491075e-002, 8.40648562e-002, 0., 0., 0.,
          1.74451210e-002, 9.79117900e-002, 0., 0., 1.27978370e-001,
          4.52218615e-002, 9.42262337e-002, 4.63411510e-002,
          2.24684104e-001, 1.05445564e-001, 0., 0., 0., 1.80311233e-001,
          1.38902783e-001, 2.21893594e-001, 2.04790697e-001,
          1.25339881e-001, 4.67454195e-002, 0., 0., 1.41377091e-001,
          2.41486862e-001, 1.49797052e-001, 1.83014959e-001,
          1.31081298e-001, 0., 0., 0., 0., 1.79303765e-001,
          1.78924412e-001, 1.35828450e-001, 0., 2.88153112e-001,
          1.04322381e-001, 0., 0., 0., 0., 0., 1.26939520e-001,
          3.15028787e-001, 1.63227692e-001, 1.47435263e-001, 0., 0., 0.,
          0. ]
      - [ 1.62545115e-001, 2.60655820e-001, 2.30333656e-001, 0., 0., 0.,
          0., 0., 1.49825305e-001, 1.17542751e-001, 1.50266618e-001, 0.,
          0., 4.92952242e-002, 0., 0., 1.52294978e-001, 2.18152571e-002,
          3.62582877e-002, 1.59671232e-001, 9.91572216e-002,
          7.74754733e-002, 4.99844030e-002, 8.68330449e-002,
          1.82948530e-001, 1.11196898e-001, 6.25972599e-002,
          5.89677207e-002, 1.69645190e-001, 1.73838541e-001,
          1.99332193e-001, 1.62732467e-001, 0., 7.74092749e-002,
          1.33307472e-001, 1.42764479e-001, 9.60650668e-002,
          1.26666993e-001, 1.62898615e-001, 2.18319237e-001,
          1.10841215e-001, 1.18590415e-001, 1.39622808e-001,
          1.34886622e-001, 9.52907130e-002, 6.94810748e-002,
          7.64747113e-002, 1.46009922e-001, 1.56565085e-001,
          1.31575808e-001, 1.81761399e-001, 1.85157984e-001, 0., 0.,
          8.18651840e-002, 1.40108436e-001, 1.35477290e-001,
          1.98427081e-001, 2.21545160e-001, 2.13294268e-001, 0., 0., 0.,
          0. ]
      - [ 2.08525151e-001, 1.29963666e-001, 2.88004935e-001,
          1.46316558e-001, 0., 0., 0., 3.75376865e-002, 1.38288409e-001,
          1.47873417e-001, 1.80194303e-001, 0., 0., 0., 0., 0.,
          1.74930200e-001, 1.29989132e-001, 0., 0., 0., 0.,
          5.43146916e-002, 1.34691313e-001, 2.19636038e-001,
          1.32786006e-001, 1.71208292e-001, 7.26395994e-002,
          9.22026411e-002, 9.57492366e-002, 1.47083774e-001,
          1.81455806e-001, 8.67723953e-003, 0., 0., 1.49494156e-001,
          2.08853230e-001, 1.53030977e-001, 2.20449135e-001,
          1.31866395e-001, 5.32810204e-002, 6.89854920e-002,
          5.23698255e-002, 1.76730588e-001, 1.80046812e-001,
          1.06272623e-001, 8.71769041e-002, 1.32883713e-001,
          1.11288145e-001, 2.41268918e-001, 5.81206530e-002, 0., 0., 0.,
          6.14540949e-002, 1.65944993e-001, 1.61479518e-001,
          1.59057170e-001, 1.82375744e-001, 1.19191170e-001,
          6.94886595e-002, 9.66466963e-002, 1.02103829e-001,
          1.56224638e-001 ]
      - [ 2.39823326e-001, 1.72485948e-001, 2.11610764e-001,
          1.52326882e-001, 0., 4.98575605e-002, 3.53886001e-002, 0.,
          1.87096402e-001, 2.15005144e-001, 1.34026438e-001,
          9.44182053e-002, 0., 0., 0., 5.34036122e-002, 0., 0., 0.,
          1.12154499e-001, 9.75972936e-002, 1.56131461e-001,
          1.25653967e-001, 1.30906984e-001, 1.54149339e-001, 0., 0.,
          1.12370439e-001, 1.18330345e-001, 1.82122037e-001,
          2.31108218e-001, 1.90225169e-001, 1.41494676e-001,
          5.70676550e-002, 8.48164186e-002, 5.03779836e-002,
          1.03895359e-001, 1.41931653e-001, 1.44908056e-001,
          2.03294054e-001, 1.41170219e-001, 5.43828718e-002,
          8.22893456e-002, 9.54226255e-002, 0., 0., 9.95138586e-002,
          2.08800584e-001, 1.34553134e-001, 1.91872761e-001,
          2.03117535e-001, 9.39121544e-002, 0., 0., 5.29307760e-002, 0.,
          1.68019280e-001, 1.78696454e-001, 2.48670921e-001,
          1.70483902e-001, 0., 0., 9.27426293e-003, 0. ]
      - [ 1.73121527e-001, 1.25134796e-001, 2.06766516e-001,
          1.13871194e-001, 0., 0., 0., 0., 5.72118126e-002, 0.,
          5.97075783e-002, 3.98882963e-002, 8.90662223e-002,
          7.15945214e-002, 1.29739285e-001, 1.63492411e-001,
          3.19328755e-001, 4.52478416e-002, 0., 0., 9.00651813e-002, 0.,
          1.10828072e-001, 0., 2.54283458e-001, 0., 0., 1.40922233e-001,
          1.27972603e-001, 1.11811720e-001, 9.62584317e-002,
          1.17858663e-001, 1.08498327e-001, 0., 0., 1.43782824e-001,
          1.47090271e-001, 1.12867802e-001, 2.35215783e-001,
          1.71303406e-001, 1.61793083e-001, 1.92999437e-001,
          7.58071095e-002, 0., 9.28212106e-002, 6.67171851e-002,
          7.11949095e-002, 1.30531222e-001, 1.44570574e-001,
          1.75676733e-001, 2.09846720e-001, 0., 1.96670387e-002,
          3.31498608e-002, 5.49825244e-002, 1.52172551e-001,
          2.62193650e-001, 2.17663184e-001, 1.45982087e-001,
          1.79465309e-001, 7.45373666e-002, 0., 2.63762977e-002,
          1.32057548e-001 ]
      - [ 2.48966977e-001, 2.25014076e-001, 8.61975178e-002,
          1.51696011e-001, 0., 0., 0., 0., 2.28349373e-001,
          1.57627314e-001, 8.11519846e-002, 0., 0., 0., 0.,
          1.41908765e-001, 1.68494329e-001, 7.95998052e-002, 0., 0.,
          1.16141826e-001, 1.34464577e-001, 0., 1.59765437e-001,
          1.51474684e-001, 0., 0., 4.11105976e-002, 1.62878469e-001,
          1.23821154e-001, 1.84522673e-001, 2.12228715e-001,
          1.43428445e-001, 0., 2.62853056e-002, 0., 1.13825500e-001,
          1.89946443e-001, 1.84880808e-001, 2.09314406e-001,
          1.13913707e-001, 7.71285295e-002, 9.81660336e-002,
          8.64945948e-002, 0., 0., 1.56352192e-001, 1.45838797e-001,
          1.72468498e-001, 2.32581854e-001, 1.10125594e-001,
          1.02758266e-001, 0., 0., 1.05781704e-002, 0., 2.69399077e-001,
          2.38359153e-001, 1.87464565e-001, 1.20829664e-001, 0., 0., 0.,
          0. ]
      - [ 2.22638950e-001, 2.06099868e-001, 2.53610402e-001,
          1.47753790e-001, 0., 0., 0., 1.27484072e-002, 2.05909796e-002,
          1.07925192e-001, 1.64830297e-001, 1.13730058e-001,
          4.19856794e-003, 0., 0., 0., 1.28567994e-001, 0., 0.,
          1.33302525e-001, 1.03408217e-001, 1.25503257e-001,
          8.89456421e-002, 6.95685670e-002, 1.15553908e-001,
          7.07161054e-002, 3.46160531e-002, 8.73441026e-002,
          1.82253629e-001, 1.50646940e-001, 2.72031814e-001,
          1.73224449e-001, 1.13957144e-001, 5.82719184e-002,
          8.35670903e-002, 7.72492960e-002, 1.57603964e-001,
          1.47959173e-001, 1.63319170e-001, 2.76065677e-001,
          1.25605434e-001, 5.55488132e-002, 1.09235212e-001,
          1.25124335e-001, 0., 0., 1.15691833e-001, 1.38606265e-001, 0.,
          1.65645659e-001, 1.45369768e-001, 1.32367596e-001, 0., 0.,
          3.01876329e-002, 1.28528342e-001, 2.74846703e-001,
          1.06114537e-001, 1.19430825e-001, 2.52171844e-001,
          5.17758764e-002, 0., 0., 0. ]
      - [ 2.58756280e-001, 2.04138756e-001, 1.18945062e-001,
          1.00078031e-001, 9.10852775e-002, 1.23696394e-001, 0.,
          1.16840698e-001, 2.90482610e-001, 0., 0., 0., 0., 0., 0.,
          6.47787526e-002, 8.56157690e-002, 1.01843178e-002, 0.,
          1.33938357e-001, 5.91819435e-002, 9.09340456e-002, 0.,
          2.20518336e-001, 8.03446472e-002, 0., 0., 0., 1.42468244e-001,
          2.03893095e-001, 2.08891034e-001, 2.21434563e-001,
          1.87938467e-001, 6.62177205e-002, 1.14571691e-001,
          5.84844314e-002, 1.11100443e-001, 1.56166926e-001,
          1.54182091e-001, 1.66698888e-001, 1.84790015e-001,
          7.81486481e-002, 1.67903621e-002, 0., 0., 0., 1.40613869e-001,
          1.71313792e-001, 1.22729577e-001, 1.73025265e-001,
          2.00051129e-001, 0., 0., 1.87670067e-002, 0., 0.,
          2.36469045e-001, 2.08579317e-001, 1.88093707e-001,
          2.00597897e-001, 0., 0., 0., 0. ]
      - [ 2.09588781e-001, 2.87514836e-001, 2.22863376e-001, 0., 0., 0.,
          0., 0., 0., 1.46288216e-001, 5.46222925e-002, 0., 0., 0., 0.,
          0., 1.69054717e-001, 0., 0., 0., 1.24383911e-001,
          6.57394901e-002, 9.03543010e-002, 7.17032105e-002,
          1.84047461e-001, 1.36791706e-001, 0., 0., 1.65535510e-001,
          1.68873653e-001, 2.64835507e-001, 1.86150417e-001,
          8.20083767e-002, 0., 0., 1.41563863e-001, 2.99501475e-002,
          1.90598905e-001, 2.50079393e-001, 1.77033514e-001,
          1.48026645e-001, 1.29659310e-001, 9.09214318e-002,
          5.35382703e-002, 7.85701200e-002, 9.32501853e-002, 0.,
          1.06534049e-001, 1.57468513e-001, 1.79632559e-001,
          1.13966405e-001, 7.96310678e-002, 0., 0., 8.77854526e-002,
          1.85172930e-001, 1.86716914e-001, 2.50627786e-001,
          1.56412974e-001, 1.44752696e-001, 1.44392118e-001, 0., 0.,
          9.00130793e-002 ]
      - [ 1.77954808e-001, 2.00810254e-001, 2.63119370e-001,
          1.26921639e-001, 0., 0., 0., 3.69021669e-002, 1.13263786e-001,
          1.21385053e-001, 2.02117711e-001, 0., 0., 0., 0., 0.,
          1.26587883e-001, 3.74334790e-002, 0., 0., 1.23818912e-001,
          1.74247041e-001, 1.24985486e-001, 0., 0., 0., 0., 0.,
          1.87837988e-001, 2.01871157e-001, 2.31918007e-001,
          1.25059515e-001, 1.26600906e-001, 7.81300962e-002,
          6.37758523e-002, 8.54487196e-002, 1.13637552e-001,
          1.68968782e-001, 2.19415456e-001, 2.12669790e-001,
          1.08817779e-001, 1.16311736e-001, 1.06855758e-001,
          5.72653264e-002, 0., 7.46261254e-002, 1.62747324e-001,
          1.59530252e-001, 0., 1.67844966e-001, 1.07679427e-001,
          1.63265139e-001, 1.87223494e-001, 2.78364774e-002,
          9.87989176e-003, 6.29304275e-002, 1.86412230e-001,
          1.99675784e-001, 1.76534086e-001, 2.64389575e-001,
          2.80291401e-002, 0., 0., 0. ]
      - [ 1.83030009e-001, 2.87525386e-001, 1.78984240e-001,
          1.22247010e-001, 2.47354414e-002, 0., 4.90780920e-003, 0.,
          2.06347946e-002, 1.18563354e-001, 8.82957131e-002, 0., 0., 0.,
          0., 0., 1.93562433e-001, 6.61050677e-002, 9.36357398e-003,
          1.01813354e-001, 8.51216689e-002, 8.59329253e-002,
          6.66554794e-002, 7.87650570e-002, 1.01922832e-001,
          1.68691412e-001, 0., 0., 2.59828925e-001, 1.82023764e-001,
          1.58137426e-001, 1.62449211e-001, 0., 0., 0., 0.,
          7.62954727e-002, 3.34031314e-001, 1.48840472e-001,
          1.83763653e-001, 0., 7.79183283e-002, 1.19252250e-001,
          1.30645588e-001, 0., 1.12329260e-001, 1.23186283e-001,
          1.06617384e-001, 1.39796183e-001, 9.25419107e-002,
          1.88805655e-001, 1.44999415e-001, 4.57741879e-002, 0.,
          7.78821781e-002, 2.04661310e-001, 6.39240295e-002,
          1.73681363e-001, 2.41805822e-001, 2.58445352e-001,
          2.69076452e-002, 0., 0., 2.39576716e-002 ]
      - [ 2.59995520e-001, 1.50985554e-001, 1.61529750e-001,
          1.43769056e-001, 1.09414466e-001, 0., 4.97770421e-002,
          5.85555173e-002, 2.06974119e-001, 8.10036734e-002,
          7.11991638e-002, 0., 4.41063903e-002, 1.11698501e-001, 0.,
          2.72772461e-002, 0., 0., 2.81973276e-002, 0., 7.43830875e-002,
          1.58027440e-001, 1.26178235e-001, 1.67768791e-001,
          1.43734932e-001, 0., 0., 0., 1.75098643e-001, 1.92596629e-001,
          1.60952866e-001, 2.86676407e-001, 4.84847687e-002, 0., 0.,
          1.14697352e-001, 4.44379002e-002, 2.67009139e-001,
          2.10593089e-001, 1.67341202e-001, 7.11108837e-003, 0., 0., 0.,
          0., 1.95766136e-001, 1.72779262e-001, 0., 1.18954040e-001,
          8.74813721e-002, 1.43584087e-001, 1.68921396e-001,
          2.65391190e-002, 0., 1.43440571e-002, 1.10510096e-001,
          1.85880393e-001, 1.93676680e-001, 2.61522263e-001,
          1.19788393e-001, 0., 3.56577151e-002, 1.33531004e-001,
          1.26973510e-001 ]
      - [ 2.55092651e-001, 3.34419727e-001, 1.30896270e-001,
          8.87720510e-002, 0., 1.21214781e-002, 0., 0., 0.,
          5.37886508e-002, 3.34650837e-002, 0., 1.10272542e-002, 0., 0.,
          0., 2.36596346e-001, 1.33992806e-002, 0., 0., 5.73716499e-002,
          8.31319317e-002, 0., 5.37410788e-002, 7.92490914e-002,
          9.68334302e-002, 3.84620838e-002, 0., 1.57166496e-001,
          2.75734186e-001, 1.83684647e-001, 2.00659767e-001, 0., 0., 0.,
          0., 1.57999650e-001, 1.34577245e-001, 3.14680815e-001,
          2.56366402e-001, 4.58537899e-002, 8.49868953e-002,
          5.45605123e-002, 0., 1.03079274e-001, 0., 6.80278093e-002, 0.,
          0., 8.05988014e-002, 1.35243312e-001, 9.87942144e-002, 0., 0.,
          8.30443576e-002, 1.88166425e-001, 2.34565109e-001,
          1.93868324e-001, 2.68447191e-001, 2.08425149e-001, 0., 0.,
          6.72151446e-002, 8.84246081e-002 ]
      - [ 1.78486750e-001, 2.10661009e-001, 2.12172136e-001,
          2.14821592e-001, 0., 0., 0., 0., 0., 1.59846425e-001,
          1.35321647e-001, 1.30311996e-001, 0., 0., 5.69936866e-003, 0.,
          1.20770447e-001, 3.11097242e-002, 4.75192629e-002,
          1.30312249e-001, 1.03457376e-001, 1.13321222e-001,
          9.79504138e-002, 5.51873296e-002, 1.90529600e-001,
          7.69295692e-002, 3.10704578e-002, 0., 2.23712385e-001,
          1.95495278e-001, 1.49251238e-001, 2.16634393e-001,
          4.81311418e-002, 0., 1.46694690e-001, 1.08148649e-001,
          1.24559000e-001, 1.72012225e-001, 1.22204922e-001,
          2.88216919e-001, 6.03323393e-002, 3.52918580e-002, 0., 0.,
          8.36347193e-002, 1.18161902e-001, 1.24573283e-001,
          1.02763422e-001, 1.22922651e-001, 1.23464495e-001,
          1.58796161e-001, 0., 0., 0., 3.37563716e-002, 2.33538941e-001,
          1.52972609e-001, 1.78882048e-001, 1.70268625e-001,
          2.15870723e-001, 9.01149306e-003, 0., 0., 1.64942890e-001 ]
      - [ 1.59776762e-001, 1.57552019e-001, 1.48837537e-001,
          2.29163051e-001, 0., 2.34072004e-002, 0., 0., 0.,
          1.87882647e-001, 1.15572624e-001, 1.00224324e-001, 0., 0.,
          6.07393263e-003, 1.29183352e-001, 1.63655668e-001,
          8.58983770e-003, 0., 0., 1.54979870e-001, 1.00225419e-001,
          8.91318470e-002, 1.71139553e-001, 1.43475294e-001,
          1.98228359e-002, 0., 0., 1.25883505e-001, 2.22810671e-001,
          2.05695406e-001, 1.50239110e-001, 0., 4.83075641e-002,
          1.47525951e-001, 1.76191732e-001, 4.61834110e-002,
          2.00186700e-001, 1.34860978e-001, 1.94629431e-001,
          1.72390237e-001, 2.79110800e-002, 0., 0., 1.31618917e-001,
          1.48593232e-001, 1.08625017e-001, 1.30189374e-001,
          1.80920199e-001, 1.12068176e-001, 1.49932548e-001,
          1.44683972e-001, 0., 0., 0., 2.08840236e-001, 1.99146464e-001,
          1.39240786e-001, 1.75743535e-001, 1.95981473e-001,
          1.42796874e-001, 0., 7.01357331e-003, 1.27797708e-001 ]
      - [ 2.02715948e-001, 1.85827479e-001, 1.54661626e-001,
          1.82401955e-001, 1.33034497e-001, 0., 0., 3.92764471e-002,
          1.20202728e-001, 1.27893150e-001, 9.96211022e-002,
          1.29692882e-001, 0., 0., 0., 1.96112506e-002, 1.24519646e-001,
          6.22816160e-002, 0., 0., 0., 1.16825379e-001, 1.74700305e-001,
          1.88246787e-001, 0., 0., 0., 0., 1.84562236e-001,
          2.09708229e-001, 2.38384932e-001, 1.37918040e-001, 0., 0.,
          1.57005236e-001, 1.22318268e-001, 1.67232350e-001,
          1.74547136e-001, 1.95533633e-001, 1.88841537e-001,
          1.35312319e-001, 0., 0., 0., 1.26602039e-001, 1.57743916e-001,
          1.47847995e-001, 0., 1.72627494e-001, 1.73697621e-001,
          1.25604093e-001, 1.14903972e-001, 0., 0., 2.61148382e-002,
          1.35380998e-001, 1.99821651e-001, 1.91157401e-001,
          1.92702651e-001, 2.10162535e-001, 1.35559663e-001, 0., 0., 0. ]
      - [ 7.39658475e-002, 1.60084501e-001, 2.70327151e-001,
          1.73054948e-001, 0., 0., 0., 0., 3.75689641e-002,
          9.99243334e-002, 1.01436608e-001, 4.24310490e-002, 0., 0.,
          1.16048388e-001, 1.58701181e-001, 1.89366221e-001,
          2.13720202e-002, 0., 5.42435944e-002, 1.51907176e-001,
          1.07401893e-001, 8.91857967e-002, 5.06556146e-002,
          1.30615711e-001, 2.00369313e-001, 0., 0., 1.84904397e-001,
          2.36774698e-001, 1.38465434e-001, 1.89977810e-001, 0.,
          2.11188514e-002, 0., 1.34735644e-001, 1.70930907e-001,
          2.23958150e-001, 1.92289159e-001, 1.33166716e-001,
          1.67233676e-001, 1.00537099e-001, 0., 0., 8.75978172e-002,
          1.14727952e-001, 7.29644969e-002, 1.70490425e-002,
          1.41888842e-001, 1.35893658e-001, 8.65959600e-002,
          1.33390516e-001, 4.08313647e-002, 0., 4.22054492e-002,
          1.87206060e-001, 1.63883194e-001, 2.11047530e-001,
          2.17614189e-001, 1.56616628e-001, 1.31435081e-001,
          9.81545225e-002, 9.52212960e-002, 1.33301750e-001 ]
      - [ 1.58904046e-001, 2.42638871e-001, 2.36747876e-001,
          1.32688880e-001, 0., 0., 0., 0., 1.31493926e-001,
          1.66957647e-001, 1.47086248e-001, 4.39369418e-002, 0.,
          2.99606789e-002, 0., 0., 5.81772551e-002, 0., 0.,
          1.25396967e-001, 1.33534387e-001, 9.38125104e-002,
          8.69737640e-002, 8.41757953e-002, 1.46029115e-001,
          1.11269683e-001, 0., 0., 2.19151914e-001, 1.44665480e-001,
          2.00315088e-001, 2.09232226e-001, 1.14670113e-001, 0.,
          1.04698032e-001, 0., 2.38192663e-001, 1.98714390e-001,
          8.39452520e-002, 1.42575011e-001, 1.88694626e-001,
          8.45823288e-002, 5.60731478e-002, 1.55982956e-001,
          8.74025747e-002, 7.57406652e-002, 9.90538299e-002,
          1.42341420e-001, 1.59349605e-001, 1.10558711e-001,
          1.09793648e-001, 8.64921734e-002, 1.37573212e-001,
          5.02988659e-002, 1.14554875e-001, 1.16820969e-001,
          1.30984858e-001, 2.14349762e-001, 1.63042858e-001,
          1.88376173e-001, 1.31047189e-001, 0., 4.86678220e-002,
          1.18965112e-001 ]
      - [ 2.66248435e-001, 2.41953298e-001, 1.44599646e-001,
          1.15971468e-001, 0., 0., 0., 0., 0., 7.98380375e-002, 0., 0.,
          0., 0., 5.30604459e-002, 2.33466089e-001, 1.81548253e-001,
          4.00939882e-002, 0., 0., 6.65242299e-002, 4.10923176e-002,
          6.91710413e-002, 1.28372446e-001, 9.98967141e-002,
          5.83018102e-002, 0., 4.53313962e-002, 1.59249783e-001,
          1.54530615e-001, 1.22821987e-001, 3.38500977e-001, 0., 0., 0.,
          3.16105820e-002, 1.14973314e-001, 1.46525800e-001,
          1.68204889e-001, 3.89433444e-001, 8.22601393e-002, 0., 0., 0.,
          6.20529875e-002, 9.83334184e-002, 0., 0., 1.42684534e-001,
          7.20315427e-002, 6.72606230e-002, 7.18533099e-002, 0., 0.,
          5.69426492e-002, 2.77888358e-001, 2.73486406e-001,
          1.44981131e-001, 1.40419662e-001, 1.88319370e-001,
          3.61151099e-002, 0., 7.79661983e-002, 7.88964331e-002 ]
      - [ 7.08558708e-002, 2.61702091e-001, 2.30472490e-001,
          1.33898556e-001, 1.01375483e-001, 8.61019567e-002,
          1.37146199e-002, 0., 0., 2.04679742e-001, 1.46857709e-001, 0.,
          0., 0., 0., 0., 1.37434214e-001, 3.66538623e-003, 0.,
          1.44011930e-001, 9.71928462e-002, 1.08099893e-001,
          1.22039936e-001, 0., 1.39229819e-001, 1.47482485e-001,
          3.02516613e-002, 0., 1.89128205e-001, 2.42750615e-001,
          1.98165208e-001, 1.21953584e-001, 1.31464243e-001,
          9.73412767e-002, 1.24706134e-001, 1.16365366e-001,
          1.10580474e-001, 1.29813358e-001, 1.68384001e-001,
          2.63899386e-001, 1.06770890e-002, 0., 1.20963104e-001,
          2.37712339e-002, 3.17318849e-002, 8.48711953e-002,
          1.62513152e-001, 9.27065238e-002, 1.86110795e-001,
          1.40389144e-001, 1.21949621e-001, 1.16514593e-001, 0., 0.,
          1.65536236e-002, 1.83143243e-001, 1.36005893e-001,
          2.41208404e-001, 1.22312486e-001, 1.64334238e-001,
          1.65012479e-001, 0., 0., 6.00983091e-002 ]
      - [ 2.24969313e-001, 1.35783941e-001, 1.35116339e-001,
          1.43029854e-001, 1.23295270e-001, 0., 0., 5.81406988e-002,
          8.67414176e-002, 0., 0., 0., 8.22858438e-002, 1.44742027e-001,
          1.55037150e-001, 8.96499008e-002, 2.37578541e-001,
          6.39449358e-002, 0., 5.62318936e-002, 0., 9.74361375e-002,
          5.73373921e-002, 1.39670059e-001, 2.18272388e-001, 0., 0., 0.,
          1.40761614e-001, 1.29349574e-001, 1.73739031e-001,
          2.05825940e-001, 0., 0., 0., 0., 1.02700993e-001,
          2.37667784e-001, 1.86437413e-001, 2.18382448e-001,
          1.49930432e-001, 1.13180317e-001, 9.17087197e-002,
          1.30901396e-001, 2.43261158e-002, 6.95177317e-002,
          1.18356839e-001, 1.57254353e-001, 2.03495204e-001,
          1.85464591e-001, 1.66740179e-001, 4.37747389e-002, 0.,
          2.90084630e-002, 1.61249451e-002, 1.57669067e-001,
          2.60651231e-001, 2.15902314e-001, 1.77105039e-001,
          1.41347140e-001, 0., 0., 0., 4.18395549e-002 ]
      - [ 2.55709112e-001, 1.28111720e-001, 1.16711132e-001,
          1.08116880e-001, 2.23345444e-001, 1.11678997e-002,
          5.98653499e-003, 0., 1.77322924e-001, 8.49981308e-002,
          9.94782522e-002, 1.39927775e-001, 0., 0., 1.62616242e-002, 0.,
          1.82364449e-001, 1.63439643e-002, 6.63244128e-002,
          1.14862204e-001, 6.65188506e-002, 8.66559744e-002,
          1.48497969e-001, 1.29328012e-001, 1.28435910e-001,
          2.36172341e-002, 0., 0., 1.79926351e-001, 2.30766848e-001,
          1.79089591e-001, 1.27788290e-001, 1.24376975e-001,
          3.69580202e-002, 0., 1.49883643e-001, 2.07763001e-001,
          1.79965764e-001, 2.23975569e-001, 1.28095061e-001, 0., 0.,
          1.26246661e-002, 0., 2.21161768e-001, 1.09733373e-001,
          1.16914503e-001, 0., 1.20144282e-002, 1.68472216e-001,
          2.38763034e-001, 0., 7.11922999e-003, 0., 0., 0.,
          1.56124100e-001, 2.71601170e-001, 2.41884843e-001,
          1.46396652e-001, 4.06081341e-002, 0., 0., 0. ]
      - [ 1.90823317e-001, 2.04151914e-001, 1.98278010e-001,
          1.68287039e-001, 5.04325815e-002, 0., 0., 0., 1.18186712e-001,
          1.81870282e-001, 1.63469702e-001, 1.20861992e-001,
          9.06021148e-003, 0., 8.62751342e-003, 9.39368643e-003, 0., 0.,
          0., 0., 9.07388180e-002, 1.31024554e-001, 2.01156199e-001,
          1.67338371e-001, 0., 0., 0., 0., 1.14395350e-001,
          2.17362031e-001, 2.05631196e-001, 2.07038552e-001,
          9.04777870e-002, 1.09420337e-001, 8.38364288e-002,
          1.64308593e-001, 2.13668242e-001, 1.47567689e-001,
          1.14323348e-001, 1.79103792e-001, 5.20764962e-002,
          7.98908100e-002, 8.70681256e-002, 1.63460940e-001,
          1.97692946e-001, 2.04150155e-002, 3.60545926e-002,
          1.24436997e-001, 1.59363538e-001, 1.10871777e-001,
          1.24380425e-001, 8.36589858e-002, 1.05917975e-001, 0.,
          2.33306456e-002, 2.12689981e-001, 1.80838928e-001,
          1.50345996e-001, 1.13401771e-001, 1.71974108e-001,
          1.22277178e-001, 4.37213816e-002, 6.33775592e-002,
          1.46764338e-001 ]
      - [ 2.25861698e-001, 1.28491282e-001, 1.39826849e-001,
          1.10873833e-001, 1.40278086e-001, 0., 0., 0., 1.63665906e-001,
          9.07793790e-002, 6.57202825e-002, 0., 0., 0., 5.28500555e-003,
          2.03379080e-001, 2.45753810e-001, 1.85721815e-002, 0., 0., 0.,
          8.75722840e-002, 1.01970650e-001, 2.28843510e-001,
          1.26967311e-001, 0., 0., 0., 1.31967932e-001, 1.67896584e-001,
          1.96037173e-001, 1.61109641e-001, 6.43456280e-002, 0., 0., 0.,
          2.33617052e-001, 1.65593147e-001, 1.48948893e-001,
          2.11817324e-001, 6.13077618e-002, 1.46535203e-001,
          9.12624151e-002, 1.39648691e-001, 0., 1.31993860e-001,
          8.62916857e-002, 1.49924889e-001, 1.20080486e-001,
          2.38060161e-001, 1.31410807e-001, 1.28394321e-001, 0.,
          3.06706261e-002, 3.37356292e-002, 8.49196538e-002,
          2.38673389e-001, 2.33358443e-001, 1.70379698e-001,
          1.86393917e-001, 0., 0., 0., 0. ]
      - [ 1.70084193e-001, 1.39400482e-001, 1.18813977e-001,
          1.81121722e-001, 1.28841788e-001, 0., 0., 0., 1.51914001e-001,
          1.23406097e-001, 1.05219409e-001, 1.05650879e-001,
          1.29982993e-001, 0., 7.14914948e-002, 1.77182451e-001,
          1.46602854e-001, 9.36495811e-002, 6.60766289e-002,
          1.42817453e-001, 1.63308412e-001, 1.44288644e-001,
          8.90584216e-002, 8.31256583e-002, 7.29249418e-002,
          7.31961280e-002, 5.96677735e-002, 0., 2.58791655e-001,
          1.34853885e-001, 1.43194705e-001, 9.47918221e-002,
          1.27404854e-001, 0., 0., 0., 1.91965938e-001, 1.85288921e-001,
          2.51065075e-001, 1.28706291e-001, 1.25843674e-001,
          3.59626091e-003, 0., 0., 1.26756638e-001, 1.66845590e-001,
          1.17023215e-001, 1.27810404e-001, 1.48700178e-001,
          1.21226050e-001, 1.55594438e-001, 1.16804145e-001, 0., 0., 0.,
          2.49426179e-002, 2.57571280e-001, 1.73872113e-001,
          1.58082515e-001, 2.24062219e-001, 0., 0., 0., 1.55198768e-001 ]
      - [ 2.43282616e-001, 2.20638722e-001, 2.29733169e-001, 0., 0., 0.,
          0., 0., 2.28605837e-001, 9.68813226e-002, 0., 0., 0., 0., 0.,
          7.64228255e-002, 1.37028009e-001, 0., 0., 0., 7.02158287e-002,
          9.91991609e-002, 1.29791006e-001, 1.32666305e-001,
          1.35718003e-001, 0., 0., 2.33354680e-002, 2.85884123e-002,
          1.94830686e-001, 2.52000242e-001, 2.17255369e-001,
          1.25049368e-001, 0., 6.66680560e-002, 1.38365045e-001,
          1.38376221e-001, 1.47144899e-001, 1.67077050e-001,
          2.37035170e-001, 1.88810393e-001, 6.50664195e-002,
          7.54452571e-002, 8.69021192e-002, 1.05895653e-001, 0.,
          1.18165314e-001, 1.55613184e-001, 1.78397015e-001,
          1.17418692e-001, 1.15206949e-001, 1.15633160e-001,
          7.52067864e-002, 0., 3.22968736e-002, 1.41390935e-001,
          2.88986981e-001, 1.41657472e-001, 1.48735419e-001,
          1.40524149e-001, 1.56163886e-001, 0., 0., 0. ]
      - [ 2.15613246e-001, 2.05388859e-001, 2.07041845e-001,
          7.93382451e-002, 1.30423397e-001, 0., 0., 0., 8.49867910e-002,
          2.06202447e-001, 8.62868577e-002, 1.22493386e-001,
          5.80616035e-002, 0., 0., 0., 1.29254103e-001, 0., 0.,
          9.68950316e-002, 1.49639666e-001, 1.16183802e-001,
          1.12685390e-001, 1.11945994e-001, 1.68388784e-001,
          5.58602586e-002, 0., 1.26701802e-001, 1.75898045e-001,
          1.51561171e-001, 1.87211201e-001, 2.01427415e-001, 0., 0., 0.,
          0., 0., 3.39983076e-001, 1.71685189e-001, 1.21477418e-001, 0.,
          0., 0., 0., 9.87770855e-002, 2.83292800e-001, 6.84849545e-003,
          0., 1.04649447e-001, 7.86034986e-002, 1.69420511e-001,
          2.01682240e-001, 4.92363237e-002, 0., 0., 1.09275833e-001,
          1.55748546e-001, 1.31211013e-001, 2.32489213e-001,
          2.03566313e-001, 4.07314487e-002, 8.56094360e-002,
          9.27828923e-002, 0. ]
      - [ 1.17654413e-001, 2.92163283e-001, 1.36491567e-001,
          8.29428434e-002, 1.18924432e-001, 0., 0., 0., 1.60564080e-001,
          1.43098503e-001, 7.94582814e-002, 5.86567894e-002,
          1.20621413e-001, 0., 0., 1.46382591e-002, 1.71434119e-001, 0.,
          0., 0., 1.80903062e-001, 1.30430102e-001, 8.22879001e-002,
          1.31742954e-001, 1.71039656e-001, 1.90702304e-002, 0.,
          1.22621074e-001, 1.88033164e-001, 1.75488949e-001,
          1.64852113e-001, 1.70491919e-001, 0., 0., 0., 0.,
          1.14088714e-001, 2.76655287e-001, 2.40518197e-001,
          8.62621590e-002, 0., 0., 0., 0., 0., 2.66383022e-001,
          8.28545839e-002, 0., 1.07333332e-001, 7.94062167e-002,
          1.10922433e-001, 2.30833799e-001, 3.75878140e-002, 0., 0.,
          1.68188363e-001, 1.37929350e-001, 1.61249027e-001,
          1.57025516e-001, 2.62118399e-001, 2.22232677e-002,
          3.22246924e-002, 1.85361922e-001, 0. ]
      - [ 6.69615939e-002, 3.43718231e-001, 1.23251557e-001,
          1.27496675e-001, 0., 0., 0., 0., 0., 2.11506426e-001,
          1.12895876e-001, 0., 0., 2.06165947e-002, 1.85905863e-002, 0.,
          2.02226937e-001, 2.80073006e-002, 0., 0., 1.71635598e-001,
          1.45936564e-001, 8.68191496e-002, 7.56523982e-002,
          1.42964080e-001, 1.65779054e-001, 0., 0., 2.13515133e-001,
          1.84881255e-001, 1.64366454e-001, 1.43763289e-001, 0., 0., 0.,
          0., 1.27232611e-001, 1.22011833e-001, 3.50227982e-001, 0., 0.,
          0., 2.35211775e-002, 1.28194824e-001, 2.05049403e-002,
          1.11828618e-001, 1.79468110e-001, 8.28398764e-002,
          6.56826422e-002, 1.04446262e-001, 8.91269743e-002,
          1.58889458e-001, 1.25414982e-001, 0., 5.07235378e-002,
          2.05701128e-001, 1.38935611e-001, 1.63876176e-001,
          1.42541558e-001, 2.43316785e-001, 0., 0., 2.32174639e-002,
          2.20540822e-001 ]
      - [ 2.38946721e-001, 2.65165508e-001, 1.20141380e-001,
          9.28469598e-002, 0., 0., 0., 0., 2.33707115e-001,
          9.65221301e-002, 7.85383135e-002, 0., 0., 0., 0., 0.,
          1.35220766e-001, 7.58426730e-003, 0., 0., 0., 0.,
          1.34922937e-001, 2.28052869e-001, 0., 0., 0., 0.,
          8.71667415e-002, 1.25982895e-001, 2.45122358e-001,
          2.39762291e-001, 2.77630743e-002, 0., 0., 0., 1.38366178e-001,
          1.82180583e-001, 2.57688433e-001, 1.41491979e-001,
          1.93681702e-001, 2.57679839e-002, 0., 0., 9.55790430e-002,
          8.90697539e-002, 1.68849647e-001, 2.05360502e-001,
          2.49913797e-001, 1.06604844e-001, 9.32604522e-002, 0.,
          3.73640507e-002, 1.41385436e-001, 6.82630837e-002,
          2.69024875e-002, 2.72240490e-001, 2.05186397e-001,
          1.49192899e-001, 1.91355973e-001, 0., 0., 0., 0. ]
      - [ 1.70663610e-001, 1.39627829e-001, 2.05288067e-001,
          1.82593331e-001, 1.30756736e-001, 0., 0., 0., 1.18743390e-001,
          1.35317385e-001, 1.26694858e-001, 1.46123156e-001,
          9.02352408e-002, 9.19135585e-002, 6.81999847e-002, 0.,
          6.32107258e-002, 3.56105268e-002, 0., 1.30669996e-001,
          1.77318558e-001, 1.28516927e-001, 8.79543573e-002,
          1.54490396e-001, 0., 1.09041966e-002, 3.15422341e-002,
          1.30624428e-001, 2.39556089e-001, 1.33975297e-001,
          1.27977550e-001, 2.09306091e-001, 0., 0., 0., 0.,
          2.31528148e-001, 2.88801879e-001, 1.20051861e-001,
          7.90447816e-002, 5.08037433e-002, 0., 0., 0., 2.12441012e-001,
          2.05652595e-001, 0., 5.96979111e-002, 0., 8.61687586e-002,
          1.02325439e-001, 2.55925417e-001, 0., 0., 0., 0.,
          1.32144555e-001, 1.38145730e-001, 2.40595505e-001,
          2.53332734e-001, 2.05031782e-002, 0., 4.25517149e-002,
          1.29091382e-001 ]
      - [ 2.74696022e-001, 1.62396297e-001, 1.18475609e-001,
          2.06184223e-001, 2.83830632e-002, 0., 0., 0., 2.07173437e-001,
          1.43050611e-001, 1.08724236e-001, 1.09593704e-001, 0., 0., 0.,
          2.65960936e-002, 0., 1.15914522e-002, 9.62024275e-003,
          1.24417089e-001, 6.15177043e-002, 8.93452391e-002,
          1.02545291e-001, 1.94673374e-001, 1.31007865e-001, 0., 0.,
          1.24753930e-001, 1.47990689e-001, 1.54318526e-001,
          1.94359958e-001, 2.42121652e-001, 1.93376228e-001,
          2.87562069e-002, 0., 5.92850931e-002, 2.24668503e-001,
          1.54243827e-001, 1.44100159e-001, 2.12858871e-001,
          7.40251094e-002, 0., 0., 9.40057412e-002, 2.03567386e-001,
          7.54802302e-002, 1.69405583e-002, 7.28659481e-002,
          1.39125898e-001, 1.42744213e-001, 2.30575353e-001, 0., 0., 0.,
          0., 1.87051687e-002, 2.09504515e-001, 2.02022344e-001,
          2.30697334e-001, 1.47778496e-001, 0., 0., 0., 5.06640878e-003 ]
      - [ 1.93324253e-001, 2.16453418e-001, 1.53889254e-001,
          5.32931127e-002, 1.33683518e-001, 0., 0., 0., 1.94581702e-001,
          1.18217960e-001, 8.73427391e-002, 6.15871288e-002, 0., 0., 0.,
          1.29195079e-001, 1.40421197e-001, 3.61487782e-003,
          2.43947189e-002, 0., 0., 8.71271938e-002, 1.34577751e-001,
          2.15565965e-001, 1.27631247e-001, 0., 0., 0., 1.27050281e-001,
          1.94395214e-001, 1.06045343e-001, 2.76158392e-001,
          1.81946591e-001, 9.56406817e-003, 0., 0., 2.50407070e-001,
          1.15246512e-001, 1.78639084e-001, 1.98503569e-001,
          9.07484889e-002, 3.43705192e-002, 0., 1.93085536e-001,
          9.19777229e-002, 1.01810053e-001, 0., 8.86891782e-002,
          2.14499757e-001, 1.32693857e-001, 1.65114716e-001,
          1.29189417e-001, 0., 3.24154869e-002, 1.23672681e-002,
          1.26779675e-001, 2.47121975e-001, 1.94007173e-001,
          1.58889040e-001, 1.96250558e-001, 0., 0., 0., 0. ]
      - [ 2.41215900e-001, 1.53643981e-001, 1.45417467e-001,
          8.34140405e-002, 1.74762890e-001, 2.53794864e-002, 0., 0.,
          1.33147344e-001, 1.09263137e-001, 6.12002946e-002, 0.,
          1.47636935e-001, 9.66556445e-002, 0., 0., 1.59394011e-001, 0.,
          0., 0., 1.41705960e-001, 9.49042663e-002, 1.62750795e-001,
          1.16838686e-001, 1.61296219e-001, 0., 0., 0., 2.08792150e-001,
          1.51078925e-001, 1.52579442e-001, 1.90978900e-001, 0., 0.,
          2.80958097e-002, 1.90844193e-001, 1.21609658e-001,
          1.89238742e-001, 1.77484035e-001, 1.63458750e-001,
          1.43335849e-001, 1.27342403e-001, 1.01586722e-001,
          7.00065419e-002, 7.74194300e-002, 1.66418523e-001,
          1.28792569e-001, 1.36581317e-001, 1.13689348e-001,
          1.48773804e-001, 1.64065704e-001, 2.04825267e-001,
          6.95372047e-003, 0., 0., 1.00491427e-001, 1.07328825e-001,
          2.09132135e-001, 1.96407244e-001, 2.37649500e-001,
          5.53392693e-002, 0., 7.54890777e-003, 1.14440471e-001 ]
      - [ 1.75833493e-001, 1.79704636e-001, 2.12358966e-001,
          9.99500751e-002, 0., 0., 5.30520789e-002, 0., 2.10634768e-001,
          1.20515317e-001, 1.04276985e-001, 0., 9.53392461e-002, 0.,
          9.98885743e-003, 1.69567749e-001, 1.64629877e-001,
          2.65470818e-002, 5.83902560e-002, 1.43749833e-001, 0.,
          9.57607478e-002, 5.95158152e-002, 1.53846264e-001,
          1.73695624e-001, 0., 0., 0., 1.70675009e-001, 1.25523135e-001,
          1.85196027e-001, 2.08465919e-001, 1.47721618e-001, 0., 0.,
          1.46822467e-001, 1.09080598e-001, 1.71400532e-001,
          1.66270629e-001, 2.44154006e-001, 2.64317784e-002,
          6.68994337e-002, 4.21935283e-002, 1.70400470e-001,
          9.67898816e-002, 8.22762996e-002, 4.70715128e-002,
          1.68735102e-001, 1.70780316e-001, 1.85617730e-001,
          1.88160628e-001, 0., 0., 0., 4.92790639e-002, 2.49665938e-002,
          2.87006080e-001, 1.63574845e-001, 1.45507365e-001,
          2.07366690e-001, 0., 0., 0., 0. ]
      - [ 3.08001727e-001, 1.69965625e-001, 1.01360083e-001,
          1.40915051e-001, 0., 0., 0., 1.71561763e-002, 0.,
          1.49423286e-001, 0., 0., 2.44511850e-002, 0., 0., 0.,
          1.87822968e-001, 3.78747657e-003, 0., 0., 0., 1.34006575e-001,
          8.95041153e-002, 1.52543902e-001, 1.29465684e-001,
          1.42164022e-001, 2.43199226e-002, 0., 1.35205641e-001,
          1.65429041e-001, 1.44982502e-001, 2.48082504e-001, 0., 0., 0.,
          0., 1.70565501e-001, 1.95073992e-001, 2.48056650e-001,
          1.65418863e-001, 0., 2.00319231e-001, 1.19265288e-001, 0.,
          9.00702029e-002, 1.08823299e-001, 1.33479923e-001,
          1.13798894e-001, 1.74581721e-001, 2.34738082e-001,
          9.89918485e-002, 7.83792362e-002, 1.13410771e-001, 0., 0.,
          1.40769109e-001, 1.82138190e-001, 3.01451117e-001,
          1.07964374e-001, 1.52850643e-001, 1.34929195e-001, 0., 0., 0. ]
      - [ 2.61245370e-001, 2.07006797e-001, 1.41626120e-001,
          1.36604592e-001, 0., 0., 0., 4.65154015e-002, 1.80852726e-001,
          1.70172170e-001, 7.97323361e-002, 0., 0., 0., 0., 0., 0.,
          5.30787334e-002, 5.42357564e-002, 1.38959140e-001,
          9.46503058e-002, 8.17395076e-002, 6.74796999e-002,
          7.18103796e-002, 2.02787459e-001, 0., 0., 0., 1.44284278e-001,
          1.71240628e-001, 1.99902639e-001, 2.56311238e-001,
          1.69534430e-001, 0., 0., 0., 1.75812334e-001, 1.61799461e-001,
          2.10702583e-001, 2.05439329e-001, 5.68153262e-002,
          5.57671487e-002, 8.49639326e-002, 9.74034294e-002,
          1.41322315e-001, 0., 8.48450363e-002, 1.37446463e-001,
          1.17921323e-001, 2.16747582e-001, 1.84826896e-001,
          3.45950425e-002, 0., 0., 0., 0., 2.69535512e-001,
          2.15157613e-001, 2.65227735e-001, 7.47294053e-002, 0., 0., 0.,
          0. ]
      - [ 2.21621126e-001, 2.98596829e-001, 1.29364476e-001, 0., 0., 0.,
          0., 0., 1.30686462e-001, 1.20192125e-001, 8.23766217e-002, 0.,
          4.29588147e-002, 0., 1.33383088e-002, 0., 1.41672537e-001,
          3.22119556e-002, 0., 0., 0., 8.48415494e-002, 9.55330357e-002,
          1.91806048e-001, 1.33633509e-001, 0., 0., 0., 1.42859206e-001,
          1.61127433e-001, 1.60810992e-001, 2.72910267e-001, 0.,
          2.88054515e-002, 0., 2.05307469e-001, 9.96589363e-002,
          1.27764016e-001, 2.74461031e-001, 1.28267169e-001,
          1.33058444e-001, 1.59859821e-001, 1.05226338e-001, 0.,
          1.31009772e-001, 2.17968766e-002, 1.64332792e-001, 0.,
          7.35154897e-002, 1.53568700e-001, 1.39567032e-001, 0.,
          1.33617774e-001, 3.64401527e-002, 7.88583010e-002,
          1.75745577e-001, 2.07231790e-001, 1.80926353e-001,
          2.37752870e-001, 1.67984620e-001, 0., 0., 1.46449611e-001,
          1.38718307e-001 ]
      - [ 9.99689326e-002, 1.52132794e-001, 2.92741865e-001,
          1.95103854e-001, 4.57626861e-003, 0., 0., 0., 4.86382097e-002,
          9.55774635e-002, 1.27018750e-001, 1.77531198e-001,
          1.47222012e-001, 6.43380955e-002, 1.16844624e-002, 0.,
          9.54021737e-002, 0., 0., 1.58060655e-001, 1.79793313e-001,
          1.03651926e-001, 7.07924068e-002, 7.44589046e-002,
          8.95235240e-002, 1.39099166e-001, 0., 3.86111848e-002,
          2.65849590e-001, 1.48165822e-001, 1.28654703e-001,
          1.72215149e-001, 0., 0., 0., 0., 2.48119131e-001,
          1.54536426e-001, 2.10532546e-001, 9.87023264e-002, 0.,
          6.79814443e-002, 2.04648808e-001, 4.24443074e-002,
          1.24698043e-001, 1.19751878e-001, 1.21282026e-001,
          9.40788239e-002, 1.18939020e-001, 1.32560372e-001,
          1.60418257e-001, 1.71521142e-001, 1.23277038e-001, 0.,
          5.29719256e-002, 1.20444328e-001, 1.15556113e-001,
          1.51432544e-001, 1.72765583e-001, 2.74535924e-001,
          1.21076684e-002, 0., 0., 1.65967494e-002 ]
      - [ 2.21395120e-001, 1.99635088e-001, 1.50653258e-001,
          1.40200108e-001, 1.22881725e-001, 0., 0., 4.31415588e-002,
          2.04440266e-001, 1.50359020e-001, 1.48451433e-001,
          1.10920005e-001, 0., 0., 0., 4.39575426e-002, 1.58762589e-001,
          3.40077244e-002, 6.58229664e-002, 1.04540847e-001,
          1.45139903e-001, 7.72675201e-002, 8.79996344e-002,
          1.87944651e-001, 1.22502156e-001, 0., 0., 1.11677356e-001,
          1.51375309e-001, 1.68569654e-001, 1.74336687e-001,
          1.56800300e-001, 1.61404356e-001, 0., 4.53581586e-002, 0.,
          1.29060596e-001, 2.17053995e-001, 1.53710887e-001,
          2.04836637e-001, 9.95120257e-002, 0., 1.42532829e-002, 0.,
          1.31216109e-001, 1.09969869e-001, 1.98428258e-002,
          1.96630165e-001, 2.02120930e-001, 1.82635054e-001,
          1.69984832e-001, 2.41286904e-002, 0., 0., 0., 1.99735928e-002,
          1.87297568e-001, 2.51086593e-001, 2.18715146e-001,
          1.39912874e-001, 0., 0., 8.13761447e-003, 0. ]
      - [ 5.25701828e-002, 1.85705468e-001, 1.91620082e-001,
          2.46309847e-001, 0., 0., 0., 0., 0., 0., 1.70673847e-001,
          1.01995952e-001, 1.70211345e-001, 6.83946982e-002,
          6.45002201e-002, 6.25143051e-002, 1.21795490e-001,
          1.51187181e-002, 5.20430990e-002, 0., 2.20541567e-001,
          1.65535495e-001, 9.67425629e-002, 0., 0., 0., 0.,
          6.95582703e-002, 2.75070727e-001, 1.74325213e-001,
          1.22758947e-001, 1.15882479e-001, 0., 0., 5.30823953e-002,
          1.94868922e-001, 1.47858202e-001, 2.63238549e-001,
          1.50672689e-001, 1.22564003e-001, 4.96257357e-002, 0.,
          6.65478557e-002, 2.27561176e-001, 1.46361351e-001,
          1.42264381e-001, 8.33101049e-002, 0., 0., 9.81480926e-002,
          1.55192092e-001, 1.61383912e-001, 1.67440891e-001, 0.,
          4.73423637e-002, 1.15583465e-001, 1.15236953e-001,
          1.54504314e-001, 1.87141374e-001, 1.93774566e-001,
          1.89963818e-001, 0., 2.37721447e-002, 1.21775314e-001 ]
      - [ 2.75713563e-001, 1.80458084e-001, 7.31513426e-002,
          1.33450106e-001, 7.26998299e-002, 8.80236700e-002,
          1.06021047e-001, 0., 1.50619984e-001, 9.10567418e-002,
          1.18072622e-001, 1.45738631e-001, 0., 0., 0., 7.84776285e-002,
          1.72002867e-001, 0., 0., 0., 1.30655929e-001, 1.20156050e-001,
          1.27992913e-001, 1.71195343e-001, 1.19954214e-001, 0., 0.,
          1.37016952e-001, 1.56611398e-001, 1.44298032e-001,
          1.52968735e-001, 2.20659450e-001, 0., 0., 0., 5.16044274e-002,
          1.94767654e-001, 2.14379683e-001, 1.87320441e-001,
          1.86745808e-001, 0., 0., 0., 7.24835619e-002, 1.90003857e-001,
          1.07874312e-001, 9.39462334e-002, 1.47037715e-001,
          1.19255498e-001, 1.41384780e-001, 1.84440985e-001,
          1.33864492e-001, 0., 0., 6.35089166e-003, 0., 2.22544432e-001,
          1.91224843e-001, 2.46604279e-001, 1.53875664e-001, 0., 0.,
          6.35089166e-003, 1.32318795e-001 ]
      - [ 1.37681112e-001, 2.38311127e-001, 1.43966228e-001,
          1.73524499e-001, 1.74338192e-001, 2.14190260e-002, 0.,
          7.53581449e-002, 2.08721496e-002, 2.05694720e-001, 0.,
          2.97604334e-002, 3.72698829e-002, 1.35938833e-002, 0.,
          2.30050124e-002, 1.47542760e-001, 0., 0., 1.24804735e-001,
          8.35355297e-002, 1.18158117e-001, 9.47526693e-002,
          8.80195722e-002, 0., 1.61631569e-001, 0., 0., 2.18064234e-001,
          1.39519691e-001, 2.58714080e-001, 1.51230440e-001,
          1.46131694e-001, 6.43210262e-002, 0., 1.00760415e-001,
          2.39733413e-001, 1.34152815e-001, 1.45699963e-001,
          1.95100129e-001, 7.15908827e-003, 9.35496464e-002,
          1.03113689e-001, 1.12117700e-001, 1.01822004e-001,
          4.74050157e-002, 1.19951606e-001, 0., 0., 1.32554293e-001,
          2.13818461e-001, 1.81843311e-001, 0., 0., 1.22239748e-002,
          1.53547719e-001, 6.10824674e-002, 1.56321809e-001,
          3.23107272e-001, 2.26117224e-001, 0., 0., 0., 0. ]
      - [ 1.28461733e-001, 4.84767705e-002, 2.32134670e-001,
          1.41073570e-001, 1.80223018e-001, 5.99149764e-002,
          6.63434416e-002, 0., 0., 0., 8.47999454e-002, 2.59956509e-001,
          5.40972352e-002, 9.36546773e-002, 9.11580324e-002,
          3.69417891e-002, 8.40375349e-002, 7.20330477e-002,
          8.28650743e-002, 0., 1.97692454e-001, 1.45112172e-001,
          8.92833993e-002, 1.79902792e-001, 4.02221009e-002,
          1.21092368e-002, 2.39380039e-002, 1.41291156e-001,
          1.84665486e-001, 1.57064825e-001, 1.73407406e-001,
          1.54419586e-001, 0., 0., 2.69559231e-002, 1.56156138e-001,
          1.53994694e-001, 2.11001158e-001, 2.03147501e-001,
          1.24207161e-001, 0., 1.89324524e-002, 1.28861099e-001,
          6.45364746e-002, 9.77570489e-002, 1.90264031e-001,
          1.09542497e-001, 9.54995304e-002, 1.85186997e-001,
          9.84999835e-002, 1.47201777e-001, 1.06040411e-001,
          1.06587462e-001, 0., 3.90377790e-002, 1.93591267e-001,
          1.39279723e-001, 1.05218641e-001, 2.15674952e-001,
          2.00019240e-001, 1.24940977e-001, 0., 1.97743010e-002,
          1.33607641e-001 ]
      - [ 2.20077381e-001, 3.08046639e-001, 0., 0., 0., 0., 0., 0.,
          1.12125345e-001, 0., 0., 0., 0., 0., 0., 5.20249419e-002,
          2.41595879e-001, 4.15673014e-003, 0., 0., 0., 1.34408265e-001,
          8.37740749e-002, 8.49540085e-002, 1.29795581e-001,
          1.41330913e-001, 1.04118809e-001, 0., 1.38955191e-001,
          1.71947360e-001, 1.55595139e-001, 1.89094245e-001, 0.,
          1.07533149e-001, 1.38166845e-001, 0., 1.39332414e-001,
          9.42701474e-002, 2.63783514e-001, 1.94536641e-001,
          2.07566336e-001, 9.74242836e-002, 1.13106154e-001, 0., 0.,
          7.96155259e-002, 8.99005160e-002, 7.22570494e-002,
          1.28489763e-001, 1.40894741e-001, 0., 9.63531137e-002,
          1.36162922e-001, 0., 6.74354210e-002, 2.04054087e-001,
          2.64499456e-001, 1.59610897e-001, 1.82904676e-001,
          1.71621203e-001, 1.39798328e-001, 4.42565568e-002,
          8.79848972e-002, 2.11793602e-001 ]
      - [ 1.33844972e-001, 2.12685809e-001, 1.90735936e-001,
          1.31954312e-001, 0., 4.27649170e-002, 1.16477229e-001,
          1.25602871e-001, 4.15868089e-002, 1.20800890e-001,
          1.11736864e-001, 0., 0., 0., 0., 1.71787217e-001,
          1.85654864e-001, 0., 0., 0., 8.41292813e-002, 9.95328650e-002,
          8.70463252e-002, 1.75845161e-001, 6.26552776e-002,
          1.85753480e-001, 0., 0., 1.22634232e-001, 2.08431214e-001,
          1.98148727e-001, 1.84295654e-001, 1.02449670e-001, 0., 0.,
          1.32144511e-001, 1.32982403e-001, 2.24834010e-001,
          1.52163550e-001, 2.21206307e-001, 5.94740827e-003,
          5.00115426e-003, 8.03373083e-002, 1.73928395e-001,
          9.17825550e-002, 9.72056314e-002, 0., 1.73273429e-001,
          2.11297959e-001, 1.56765178e-001, 1.02963902e-001,
          8.57507512e-002, 1.28274053e-001, 0., 3.42141762e-002,
          1.03720166e-002, 2.50497103e-001, 2.41878197e-001,
          1.48785666e-001, 1.26079246e-001, 1.27824426e-001, 0., 0., 0. ]
      - [ 1.57144621e-001, 2.17727989e-001, 2.61155725e-001, 0., 0., 0.,
          0., 0., 1.53111964e-001, 1.79357439e-001, 1.59485474e-001, 0.,
          0., 0., 2.64121257e-002, 7.99902007e-002, 0., 0., 0., 0.,
          7.53612816e-002, 1.37875125e-001, 2.14387774e-001,
          1.51911408e-001, 2.15221904e-002, 0., 0., 0., 1.79199979e-001,
          1.65059015e-001, 2.23479360e-001, 2.19198301e-001, 0., 0., 0.,
          1.29191637e-001, 8.75147581e-002, 1.53947696e-001,
          2.10469767e-001, 2.50381976e-001, 0., 0., 0., 1.18463799e-001,
          6.35971129e-002, 1.05602078e-001, 1.21995062e-001,
          2.17351481e-001, 1.69679165e-001, 1.41296372e-001,
          9.47523862e-002, 1.48804799e-001, 0., 0., 8.20068829e-003,
          1.21077761e-001, 2.27993697e-001, 1.70429111e-001,
          1.95540071e-001, 1.30866989e-001, 1.30971983e-001, 0.,
          6.35222578e-003, 1.59483269e-001 ]
      - [ 2.36570954e-001, 2.26445585e-001, 8.16677883e-002,
          1.05922669e-001, 1.39546826e-001, 0., 3.74961421e-002, 0.,
          1.96716934e-001, 0., 0., 0., 0., 0., 1.61768407e-001,
          1.01672024e-001, 2.00862005e-001, 7.91515484e-002, 0.,
          3.40261832e-002, 0., 9.91812199e-002, 1.43085539e-001,
          1.71290323e-001, 2.06181884e-001, 0., 0., 0., 1.43179968e-001,
          1.57263398e-001, 2.01548964e-001, 2.10846096e-001, 0., 0., 0.,
          0., 0., 1.92429930e-001, 2.40776658e-001, 2.41400003e-001, 0.,
          0., 1.15640163e-001, 7.82876611e-002, 0., 9.61387753e-002,
          9.27144065e-002, 1.68425202e-001, 1.94662482e-001,
          4.70172092e-002, 1.38990253e-001, 1.40140861e-001, 0., 0.,
          2.13281196e-002, 1.72159582e-001, 2.28959486e-001,
          1.78719059e-001, 1.40033945e-001, 2.00474173e-001, 0., 0., 0.,
          1.61993250e-001 ]
      - [ 1.79362714e-001, 1.88081503e-001, 1.61449030e-001,
          1.72317699e-001, 3.72669548e-002, 8.68651271e-002, 0.,
          1.18586063e-001, 1.96788743e-001, 0., 0., 0., 1.38067529e-001,
          9.56345946e-002, 0., 1.55326262e-001, 6.32489994e-002, 0., 0.,
          0., 0., 1.34348646e-001, 1.67106256e-001, 1.18425332e-001,
          1.40725553e-001, 0., 0., 0., 9.55489948e-002, 1.75176248e-001,
          2.44560510e-001, 2.74022043e-001, 0., 0., 0., 0.,
          9.86817107e-002, 1.69337884e-001, 2.06901819e-001,
          2.77031064e-001, 4.48345244e-002, 0., 0., 0., 3.22948359e-002,
          6.34514838e-002, 1.91692054e-001, 2.02706814e-001,
          2.02077061e-001, 1.44024849e-001, 0., 1.41037136e-001, 0., 0.,
          0., 1.38931543e-001, 2.75662243e-001, 1.94924414e-001,
          1.54152155e-001, 1.50722966e-001, 0., 0., 0., 0. ]
      - [ 2.44806558e-001, 2.05789164e-001, 1.12245701e-001,
          1.28158391e-001, 4.52938303e-002, 0., 8.42027217e-002,
          1.05293445e-001, 2.15082094e-001, 7.93031827e-002, 0., 0., 0.,
          0., 9.66662541e-002, 1.15705110e-001, 1.52001679e-001, 0., 0.,
          3.13659050e-002, 0., 0., 1.63616955e-001, 1.97192878e-001, 0.,
          0., 0., 0., 0., 2.03055799e-001, 2.24664822e-001,
          2.03079060e-001, 0., 0., 0., 3.32358815e-002, 1.29983678e-001,
          1.38054416e-001, 2.52655178e-001, 2.44010642e-001,
          7.32262135e-002, 1.00012921e-001, 2.50410922e-002,
          5.57918362e-002, 0., 1.09088100e-001, 1.51808336e-001,
          2.35440865e-001, 1.34906158e-001, 1.48262590e-001,
          1.27546668e-001, 7.53215104e-002, 1.35893270e-001,
          7.04125315e-002, 7.56547824e-002, 8.24947134e-002,
          2.38732338e-001, 2.32546806e-001, 1.40996158e-001,
          1.25684828e-001, 1.56342983e-001, 0., 0., 1.06349871e-001 ]
      - [ 1.82825223e-001, 1.89102441e-001, 1.80219918e-001,
          1.31577089e-001, 1.59457102e-001, 8.61085355e-002, 0.,
          5.37446775e-002, 7.89008513e-002, 8.54546055e-002,
          1.21992677e-001, 2.18279064e-001, 0., 0., 0., 0.,
          1.71604112e-001, 1.43057993e-002, 8.55732709e-003, 0.,
          1.89458236e-001, 1.44142047e-001, 1.15785465e-001,
          1.18407212e-001, 1.20346636e-001, 1.97976734e-002, 0.,
          1.27704009e-001, 1.99053735e-001, 2.05944046e-001,
          1.53594717e-001, 1.24201782e-001, 0., 0., 0., 0.,
          2.49612898e-001, 2.18068659e-001, 1.63686156e-001,
          1.15149245e-001, 0., 0., 0., 1.20474383e-001, 1.44769490e-001,
          1.81729645e-001, 1.16564825e-001, 0., 1.16170503e-001,
          7.48850629e-002, 8.78163204e-002, 2.40392178e-001,
          7.39872605e-002, 0., 0., 1.21953748e-001, 1.38058707e-001,
          1.03166133e-001, 2.42057487e-001, 2.45922148e-001,
          3.87962870e-002, 0., 3.79367396e-002, 1.20464385e-001 ]
      - [ 2.81241477e-001, 1.01465330e-001, 1.12432741e-001,
          8.24813843e-002, 1.22748710e-001, 1.57981321e-001,
          1.07211666e-002, 5.25444336e-002, 1.98148876e-001,
          1.20934136e-001, 5.89893386e-002, 7.06264600e-002, 0.,
          7.47559443e-002, 8.56813639e-002, 6.17869645e-002,
          1.29937097e-001, 0., 3.67847122e-002, 1.77989393e-001,
          9.18965116e-002, 6.75821006e-002, 7.78594762e-002,
          8.85230303e-002, 2.10864678e-001, 4.30414975e-002,
          2.08920706e-002, 1.75475076e-001, 1.25649095e-001,
          2.11705267e-001, 1.11927792e-001, 2.07910582e-001, 0.,
          7.33170435e-002, 3.59228104e-002, 2.06578568e-001,
          8.22165981e-002, 1.77015677e-001, 2.12660864e-001,
          1.22967914e-001, 0., 3.98011096e-002, 1.21264860e-001,
          1.31808460e-001, 9.66545269e-002, 1.20892450e-001,
          8.13611522e-002, 1.50827974e-001, 1.20486915e-001,
          1.75018117e-001, 1.73725471e-001, 1.47313654e-001, 0., 0., 0.,
          2.72489619e-002, 1.75077885e-001, 2.02350259e-001,
          2.45601505e-001, 1.81204438e-001, 0., 0., 0., 3.36246863e-002 ]
      - [ 1.44094557e-001, 2.01149926e-001, 2.05754593e-001,
          1.93489000e-001, 5.14243916e-002, 0., 0., 0., 0.,
          4.09777388e-002, 1.40208945e-001, 1.59862086e-001,
          6.29031584e-002, 0., 0., 5.00413328e-002, 1.75415918e-001, 0.,
          0., 0., 1.22433372e-001, 2.14432076e-001, 8.60306323e-002,
          1.15271084e-001, 2.68150587e-002, 1.24312796e-001,
          6.79943562e-002, 0., 2.34465227e-001, 2.20459700e-001,
          1.51435509e-001, 8.60462636e-002, 0., 0., 0., 0.,
          2.23668173e-001, 1.98553070e-001, 2.32093826e-001,
          9.07202438e-002, 0., 0., 5.81413209e-002, 1.82784587e-001,
          1.21612519e-001, 1.20439067e-001, 1.37450650e-001,
          4.93194386e-002, 1.42738357e-001, 9.84089375e-002,
          1.59416646e-001, 1.71085566e-001, 1.21911786e-001, 0.,
          1.87480561e-002, 1.83245003e-001, 1.26341924e-001,
          2.03905329e-001, 1.99048340e-001, 1.30597651e-001,
          1.74224257e-001, 3.38077173e-002, 4.16220129e-002,
          1.26190707e-001 ]
      - [ 1.88255355e-001, 1.67127788e-001, 1.97982267e-001,
          2.17326611e-001, 0., 0., 0., 0., 8.52918476e-002,
          1.32458821e-001, 1.23039685e-001, 1.06233127e-001,
          1.78922474e-001, 2.56612543e-002, 0., 7.48988912e-002,
          6.39327765e-002, 4.71534673e-003, 5.93180135e-002,
          1.30760089e-001, 1.32945463e-001, 1.15499027e-001,
          1.27338290e-001, 8.18103403e-002, 1.30098999e-001, 0., 0.,
          1.24611519e-001, 1.51685774e-001, 1.23632498e-001,
          2.27484405e-001, 1.85664430e-001, 1.08217560e-001, 0., 0., 0.,
          2.48550788e-001, 1.72236681e-001, 1.56482786e-001,
          2.04778522e-001, 0., 2.26140097e-002, 7.33950511e-002,
          2.10209176e-001, 1.41424537e-001, 9.66806114e-002,
          7.30772465e-002, 6.77997321e-002, 0., 1.70061544e-001,
          2.65007615e-001, 0., 9.71251633e-003, 0., 0., 7.86418915e-002,
          1.47016659e-001, 2.53524095e-001, 2.19712898e-001,
          1.62560433e-001, 9.71251633e-003, 0., 0., 0. ]
      - [ 1.22828044e-001, 2.28794724e-001, 1.39275700e-001,
          2.32090950e-001, 0., 0., 0., 0., 0., 0., 8.02299455e-002,
          1.17675930e-001, 8.56946930e-002, 3.85754667e-002,
          2.70965882e-002, 0., 1.23498827e-001, 0., 4.92199399e-002,
          5.64573221e-002, 2.19261900e-001, 8.50513205e-002,
          1.02694415e-001, 0., 8.43669847e-002, 1.27779454e-001,
          5.82654066e-002, 1.77280784e-001, 1.68331683e-001,
          2.32975587e-001, 1.52608827e-001, 1.87958717e-001, 0., 0.,
          4.05105278e-002, 1.85231805e-001, 1.35052130e-001,
          2.43930116e-001, 1.58087045e-001, 8.46738517e-002,
          6.93642646e-002, 3.70763578e-002, 1.43342406e-001,
          2.22320125e-001, 1.18613824e-001, 0., 7.01519772e-002, 0., 0.,
          1.64553538e-001, 1.82420224e-001, 1.92993462e-001,
          1.26641870e-001, 0., 0., 1.55120343e-001, 1.19051911e-001,
          1.63626000e-001, 2.08292350e-001, 2.79856801e-001,
          3.44297774e-002, 0., 0., 2.62796767e-002 ]
      - [ 2.77477741e-001, 1.94548011e-001, 1.28119946e-001,
          1.20036907e-001, 1.16784297e-001, 0., 0., 7.44595677e-002, 0.,
          2.83431083e-001, 0., 0., 0., 0., 0., 0., 1.37104109e-001, 0.,
          1.38277367e-001, 6.97279945e-002, 9.32993069e-002,
          8.70456249e-002, 4.81312908e-002, 1.13610052e-001,
          2.33169243e-001, 7.58545706e-003, 0., 9.16986763e-002,
          1.55831605e-001, 1.52352348e-001, 1.87922254e-001,
          2.21638948e-001, 1.50460809e-001, 0., 0., 7.30574057e-002,
          1.39970288e-001, 1.25216097e-001, 1.74154565e-001,
          2.45144099e-001, 0., 1.00269087e-001, 8.43015686e-002,
          1.69516113e-002, 0., 8.96402970e-002, 6.63471073e-002,
          1.94762975e-001, 1.94196448e-001, 1.76627263e-001,
          1.57110140e-001, 0., 0., 0., 2.77068242e-002, 3.90218012e-002,
          2.57517248e-001, 1.72734842e-001, 2.25162655e-001,
          1.46670714e-001, 0., 0., 5.28304745e-003, 0. ]
      - [ 2.45721146e-001, 2.54764110e-001, 1.20832197e-001,
          1.18479438e-001, 1.18932016e-001, 0., 0., 7.09369555e-002,
          2.61380941e-001, 1.21781699e-001, 4.32014279e-002, 0., 0., 0.,
          0., 1.66819151e-002, 1.78713188e-001, 0., 6.44066632e-002,
          1.31482556e-001, 8.50539878e-002, 1.00722015e-001,
          8.27885643e-002, 0., 2.02912241e-001, 8.73296559e-002, 0., 0.,
          2.45771766e-001, 1.04575180e-001, 1.52825862e-001,
          1.80856839e-001, 1.79759428e-001, 8.71124417e-002, 0.,
          8.03560764e-002, 3.93854044e-002, 1.62914395e-001,
          2.05930993e-001, 2.35945448e-001, 4.52358983e-002,
          7.20390901e-002, 1.11029953e-001, 4.40303609e-002, 0., 0.,
          6.20921189e-003, 2.00802892e-001, 1.35069698e-001,
          1.47181377e-001, 1.78257555e-001, 1.21752068e-001, 0., 0., 0.,
          5.45871072e-002, 1.79235473e-001, 2.15167686e-001,
          1.83203176e-001, 2.27884203e-001, 0., 0., 0., 0. ]
      - [ 1.62230670e-001, 2.26558790e-001, 1.93005949e-001,
          1.94117546e-001, 3.97878326e-003, 0., 0., 0., 0.,
          1.17339425e-001, 2.20188662e-001, 1.39776140e-001,
          2.93600261e-002, 0., 0., 2.79553011e-002, 6.40928075e-002, 0.,
          2.40210500e-002, 1.75100788e-001, 1.40738383e-001,
          1.18884586e-001, 9.86651182e-002, 4.25750427e-002,
          7.41773844e-002, 1.18309401e-001, 6.25634193e-002,
          1.68036118e-001, 1.72922611e-001, 1.46409601e-001,
          1.15725495e-001, 2.24973097e-001, 7.36548752e-002, 0., 0.,
          1.26264900e-001, 1.78139687e-001, 2.10402086e-001,
          1.45340964e-001, 1.86203808e-001, 0., 8.85200780e-003,
          5.09532280e-002, 1.84575871e-001, 1.23666830e-001,
          8.57136250e-002, 1.70021206e-001, 8.18500295e-002,
          1.65144950e-001, 1.31865859e-001, 1.21005081e-001,
          2.08071321e-001, 1.37829091e-002, 0., 0., 1.70108676e-001,
          1.20454818e-001, 1.64657429e-001, 1.54024899e-001,
          2.65919060e-001, 1.43457064e-002, 0., 0., 0. ]
      - [ 1.39376238e-001, 3.19570035e-001, 1.75790027e-001, 0., 0., 0.,
          0., 0., 0., 0., 1.24623001e-001, 1.26754791e-001, 0.,
          8.47670995e-003, 0., 0., 1.31936610e-001, 0., 0.,
          4.85979617e-002, 1.31672174e-001, 1.39807910e-001,
          9.05456170e-002, 1.39516160e-001, 9.70676988e-002,
          1.36686891e-001, 1.47239134e-001, 5.09985574e-002,
          1.84072688e-001, 1.41238764e-001, 1.83979511e-001,
          2.40402654e-001, 0., 0., 0., 1.43168777e-001, 5.36165759e-002,
          2.16707736e-001, 2.93410480e-001, 1.42341927e-001, 0., 0.,
          1.06588984e-002, 1.32324398e-001, 1.77844018e-001,
          8.56763273e-002, 0., 0., 6.09216020e-002, 1.18256249e-001,
          1.09869093e-001, 1.95935473e-001, 7.90118203e-002, 0.,
          6.02886453e-002, 1.98759750e-001, 1.23916760e-001,
          1.65213913e-001, 2.25507915e-001, 1.88380927e-001,
          5.65438233e-002, 8.39501321e-002, 1.79494813e-001,
          1.06905267e-001 ]
      - [ 1.53065547e-001, 1.76350743e-001, 2.46345565e-001,
          1.47887528e-001, 0., 0., 0., 0., 9.08945799e-002,
          1.66724741e-001, 1.57462686e-001, 8.55198428e-002,
          7.93974474e-002, 6.09878972e-002, 2.61031520e-002,
          1.19976372e-001, 1.43898293e-001, 1.86161380e-002,
          3.75170745e-002, 0., 9.84880328e-002, 1.77334383e-001,
          1.22011453e-001, 1.60447598e-001, 1.17618978e-001, 0.,
          3.97364423e-002, 8.09999332e-002, 1.96596637e-001,
          1.56197608e-001, 1.84472591e-001, 1.84043169e-001, 0.,
          2.61401236e-002, 0., 0., 1.75653398e-001, 3.03571731e-001,
          1.54846832e-001, 1.17909424e-001, 0., 4.54945527e-002,
          1.31118268e-001, 1.21925361e-001, 1.10305525e-001,
          1.43055141e-001, 1.96303442e-001, 4.61449064e-002,
          1.74468607e-001, 5.51122986e-002, 5.14864847e-002,
          1.18882783e-001, 1.29348814e-001, 7.69214407e-002,
          3.99732627e-002, 1.69887275e-001, 1.11982621e-001,
          1.41324475e-001, 1.99965626e-001, 1.30820930e-001,
          1.42201275e-001, 5.26697673e-002, 6.88357800e-002,
          1.50907472e-001 ]
      - [ 5.98476753e-002, 2.59549558e-001, 2.61690170e-001, 0., 0., 0.,
          0., 0., 0., 1.32554501e-001, 1.12022199e-001, 1.25399932e-001,
          0., 1.46875933e-001, 0., 4.21082750e-002, 1.71563551e-001,
          1.33802667e-001, 1.04529373e-001, 1.35279924e-001, 0., 0.,
          5.32542951e-002, 1.45595700e-001, 1.26635432e-001,
          1.95755512e-001, 6.96980432e-002, 4.99840342e-002,
          1.35830879e-001, 1.33645818e-001, 1.51612550e-001,
          1.65766925e-001, 0., 0., 0., 1.45959213e-001, 1.25932172e-001,
          1.32532164e-001, 3.14028144e-001, 1.25488505e-001, 0., 0.,
          4.03598212e-002, 0., 2.13475078e-001, 1.54570907e-001,
          2.93946229e-002, 0., 1.06545560e-001, 9.16741788e-002,
          1.52908206e-001, 1.11909866e-001, 1.15771286e-001,
          1.08473636e-002, 2.97823083e-002, 2.05064133e-001,
          1.98953837e-001, 1.52497157e-001, 1.83856338e-001,
          1.75375089e-001, 4.08872217e-002, 6.98929206e-002,
          1.26521468e-001, 1.97901055e-001 ]
      - [ 1.64988086e-001, 2.51977742e-001, 2.30299622e-001,
          7.45624602e-002, 0., 0., 0., 0., 0., 1.99394763e-001,
          1.19729862e-001, 1.22068055e-001, 0., 0., 0., 2.76775919e-002,
          1.89067289e-001, 4.90598194e-003, 0., 1.26433328e-001,
          1.81949332e-001, 0., 1.14276245e-001, 1.09350972e-001,
          1.50620416e-001, 8.62323716e-002, 2.82443836e-002,
          1.78932101e-001, 1.28744468e-001, 2.03721493e-001,
          1.30662963e-001, 1.51268899e-001, 0., 0., 1.43156294e-002,
          1.26308322e-001, 1.92174017e-001, 1.58759966e-001,
          2.16381162e-001, 1.03793435e-001, 5.50980456e-002,
          1.28057882e-001, 1.29676372e-001, 8.41339901e-002,
          1.22404315e-001, 1.49911851e-001, 1.15801498e-001, 0.,
          4.10735868e-002, 1.67729910e-002, 1.56254664e-001,
          2.39603341e-001, 0., 0., 1.30772606e-001, 1.23193264e-001,
          1.56782523e-001, 9.00555179e-002, 1.71517357e-001,
          2.49675110e-001, 1.28165558e-001, 4.11215723e-002,
          1.10682264e-001, 9.54491720e-002 ]
      - [ 8.75823200e-002, 2.93704510e-001, 2.38537937e-001, 0.,
          9.29584075e-003, 0., 0., 0., 0., 8.39046761e-002,
          9.78590026e-002, 2.00869232e-001, 0., 0., 2.77002584e-002, 0.,
          1.16947077e-001, 1.34070581e-002, 0., 1.63096458e-001,
          1.85087681e-001, 8.29697177e-002, 7.35157505e-002, 0.,
          1.30498141e-001, 1.56236470e-001, 3.82137336e-002, 0.,
          2.53939271e-001, 1.17915325e-001, 1.64255708e-001,
          2.11826816e-001, 0., 0., 0., 0., 1.29993975e-001,
          2.74605036e-001, 1.53572440e-001, 1.68268785e-001,
          7.83603638e-002, 0., 4.59593534e-002, 1.87408745e-001,
          1.23663671e-001, 1.59118831e-001, 8.13431144e-002, 0.,
          1.07240528e-001, 1.51585490e-001, 8.16837400e-002,
          1.99935153e-001, 1.27598271e-001, 3.61035503e-002,
          7.00742677e-002, 1.37345612e-001, 1.15709610e-001,
          2.04249427e-001, 1.59575537e-001, 2.50222147e-001,
          5.82184130e-003, 0., 2.77356599e-002, 9.96403247e-002 ]
      - [ 1.72717839e-001, 2.88654894e-001, 1.32339865e-001,
          1.89507037e-001, 0., 0., 0., 0., 5.61671844e-003,
          6.46683499e-002, 0., 8.39895289e-003, 0., 0., 0., 0.,
          1.54982969e-001, 0., 0., 2.96333022e-002, 1.32900119e-001, 0.,
          1.03564478e-001, 1.64306387e-001, 0., 1.50241047e-001,
          1.78861052e-001, 0., 9.89883542e-002, 1.94994912e-001,
          2.29436487e-001, 2.35382989e-001, 0., 0., 0., 0.,
          2.02956095e-001, 1.99023619e-001, 1.63755223e-001,
          2.35251293e-001, 4.97532450e-002, 6.89110458e-002,
          1.60874948e-001, 0., 5.21484688e-002, 7.09793717e-002,
          9.44630578e-002, 7.10294172e-002, 1.63281977e-001,
          2.29099557e-001, 9.40596759e-002, 8.38768184e-002, 0., 0.,
          3.75612592e-003, 1.36230096e-001, 2.97785103e-001,
          2.06072524e-001, 2.15224758e-001, 1.16870850e-001, 0., 0., 0.,
          1.26115605e-001 ]
      - [ 1.73646212e-001, 1.77864656e-001, 2.58094281e-001,
          8.06259289e-002, 0., 2.44270880e-002, 0., 5.09348176e-002,
          9.03156176e-002, 1.26213744e-001, 9.05541033e-002,
          1.12906612e-001, 1.14980973e-001, 0., 5.87940961e-002,
          9.11686942e-002, 2.05738068e-001, 5.10101020e-002,
          5.63732646e-002, 1.34715021e-001, 1.34875283e-001,
          8.53764415e-002, 1.10111609e-001, 1.48414403e-001,
          1.47689134e-001, 3.72308083e-002, 0., 1.35389179e-001,
          1.91028833e-001, 1.29770637e-001, 1.80623204e-001,
          1.50126860e-001, 0., 0., 0., 9.56036821e-002, 8.34144875e-002,
          2.73127645e-001, 1.94682181e-001, 1.54524922e-001,
          1.33111238e-001, 0., 0., 4.01515588e-002, 9.25575793e-002,
          2.33933702e-001, 7.64732659e-002, 0., 0., 5.65154850e-002,
          1.38236955e-001, 2.38435328e-001, 3.63538191e-002,
          2.37218644e-002, 3.56777534e-002, 1.61282137e-001,
          1.26950100e-001, 1.41180173e-001, 2.38570884e-001,
          2.06801072e-001, 7.45030399e-003, 6.09461330e-002,
          1.18624464e-001, 1.14576280e-001 ]
      - [ 2.01090693e-001, 1.97465196e-001, 1.18618563e-001,
          2.12820694e-001, 0., 0., 0., 0., 1.01205662e-001,
          1.51392728e-001, 1.72171533e-001, 0., 3.29185762e-002, 0., 0.,
          1.36934310e-001, 2.26908058e-001, 3.49138156e-002, 0., 0.,
          2.05555290e-001, 6.76116571e-002, 9.71820429e-002, 0.,
          2.29391903e-001, 4.46028709e-002, 0., 1.69144109e-001,
          1.85085490e-001, 1.04099512e-001, 1.50265783e-001,
          1.23678923e-001, 1.56023994e-001, 0., 0., 0., 1.76551744e-001,
          1.82541177e-001, 1.98198780e-001, 1.87787801e-001,
          3.40059660e-002, 0., 1.36885062e-001, 1.24689937e-001,
          8.11443329e-002, 7.73192272e-002, 1.34730965e-001,
          3.38142775e-002, 2.11698681e-001, 1.02494583e-001,
          9.95859802e-002, 1.39488935e-001, 1.14540987e-001, 0.,
          2.27453280e-002, 1.60389692e-001, 2.08551884e-001,
          1.59673229e-001, 1.00896977e-001, 2.40537703e-001, 0., 0.,
          5.93809178e-003, 1.07698828e-001 ]
      - [ 8.10987130e-002, 2.96904534e-001, 1.12003982e-001,
          1.20313041e-001, 1.30223662e-001, 2.60913242e-002, 0., 0.,
          5.54244295e-002, 9.00506005e-002, 0., 0., 1.14110984e-001,
          1.44549131e-001, 7.42431134e-002, 9.33290944e-002,
          2.19582766e-001, 7.25052580e-002, 0., 0., 7.48349577e-002,
          9.56831649e-002, 8.45424235e-002, 1.22188829e-001,
          1.78510621e-001, 1.22303732e-001, 0., 0., 1.65116072e-001,
          1.55391738e-001, 1.75653979e-001, 1.84962764e-001,
          8.64892378e-002, 0., 0., 0., 4.70200963e-002, 2.45696589e-001,
          2.32114881e-001, 2.05557317e-001, 0., 1.51710227e-001, 0.,
          1.21267483e-001, 5.25894016e-002, 0., 7.90080279e-002,
          1.61461473e-001, 1.55740559e-001, 1.49692208e-001,
          1.62405983e-001, 1.25672698e-001, 0., 0., 2.66663972e-002,
          1.85945198e-001, 1.59406364e-001, 2.60439903e-001,
          1.64565042e-001, 2.12046921e-001, 0., 3.90331857e-002, 0.,
          1.33303389e-001 ]
      - [ 2.81338811e-001, 1.89378336e-001, 1.44604817e-001,
          1.28079340e-001, 0., 0., 0., 0., 1.32913768e-001,
          9.33998004e-002, 0., 6.74653202e-002, 0., 0., 3.76430526e-002,
          9.90842506e-002, 1.81869805e-001, 1.46905323e-002,
          4.52424996e-002, 1.09326214e-001, 0., 4.94136885e-002, 0.,
          1.11892700e-001, 1.11457907e-001, 0., 0., 0., 1.89186767e-001,
          1.41730458e-001, 1.72527075e-001, 2.25829720e-001,
          1.34656012e-001, 9.25066024e-002, 0., 3.40101235e-002,
          1.55361012e-001, 2.23314315e-001, 2.15360537e-001,
          2.09843442e-001, 5.46117574e-002, 1.28215164e-001,
          1.64712444e-001, 8.43415782e-002, 7.15012774e-002,
          1.07712746e-001, 4.66689728e-002, 8.39875862e-002,
          1.93158135e-001, 1.31641328e-001, 1.25363544e-001,
          9.28046927e-002, 9.29837152e-002, 1.02474034e-001, 0.,
          1.03293844e-001, 3.10441226e-001, 1.54465348e-001,
          2.32563838e-001, 1.93028763e-001, 3.50573994e-002, 0.,
          2.64874157e-002, 0. ]
      - [ 1.92061841e-001, 1.75053626e-001, 1.23157486e-001,
          2.04284921e-001, 9.25339311e-002, 6.24360554e-002,
          7.71516338e-002, 6.89598843e-002, 5.84620088e-002,
          5.31354025e-002, 4.07836325e-002, 9.79100317e-002,
          2.30072215e-002, 1.22934006e-001, 2.32144296e-002,
          1.21084616e-001, 0., 0., 0., 0., 1.32258579e-001,
          1.29175901e-001, 1.51228860e-001, 1.22834675e-001,
          1.15763322e-001, 3.19830999e-002, 0., 3.17313857e-002,
          1.61614373e-001, 2.14334339e-001, 2.51016080e-001,
          1.94947094e-001, 0., 0., 0., 1.25004545e-001, 2.16677338e-001,
          1.96549758e-001, 1.41233489e-001, 1.74236253e-001,
          1.50095955e-001, 1.24265254e-001, 0., 1.23761177e-001,
          7.62365684e-002, 1.37336314e-001, 1.19485870e-001,
          1.13051645e-001, 1.13134205e-001, 1.61653683e-001,
          1.29815221e-001, 1.79740965e-001, 0., 0., 4.59815934e-002,
          1.16011307e-001, 1.99980557e-001, 1.45821527e-001,
          2.47756794e-001, 2.18376368e-001, 0., 0., 0., 1.13599487e-001 ]
      - [ 1.32535279e-001, 2.69812405e-001, 2.03361899e-001,
          5.29873967e-002, 0., 0., 0., 0., 8.12049657e-002,
          1.13453887e-001, 8.14490318e-002, 0., 1.86793599e-002, 0.,
          5.09850346e-002, 8.64780322e-002, 1.80724442e-001,
          1.34151950e-002, 0., 9.79078561e-002, 9.34249535e-002,
          3.97722274e-002, 9.93836001e-002, 1.14685677e-001,
          1.72116667e-001, 5.10904938e-002, 0., 0., 1.57282069e-001,
          1.78122669e-001, 2.00404808e-001, 1.98308229e-001, 0., 0.,
          5.67813814e-002, 0., 1.49966821e-001, 2.69402653e-001,
          1.66781440e-001, 1.57627791e-001, 0., 1.98919818e-001,
          1.24495953e-001, 8.03550705e-002, 1.04160488e-001,
          8.97297412e-002, 0., 1.69442654e-001, 1.45656377e-001,
          1.99674144e-001, 1.47140697e-001, 1.42504945e-001,
          8.89000669e-002, 8.03497732e-002, 0., 1.07239299e-001,
          2.42665663e-001, 1.84937388e-001, 1.95454925e-001,
          2.53590226e-001, 1.31829455e-002, 0., 0., 1.49088847e-002 ]
      - [ 1.87219217e-001, 2.77766526e-001, 1.14318252e-001, 0.,
          1.40532508e-001, 8.30990151e-002, 0., 7.49379769e-002,
          1.65859118e-001, 2.30709836e-001, 0., 0., 0., 0., 0.,
          6.68796292e-003, 1.20279808e-002, 1.11380201e-002,
          4.07610573e-002, 1.25843570e-001, 1.16308197e-001, 0.,
          9.69965979e-002, 1.77112013e-001, 1.57900050e-001,
          4.24144231e-002, 0., 0., 1.82764605e-001, 1.46839038e-001,
          2.25377113e-001, 2.11228564e-001, 5.86281084e-002, 0.,
          8.54458362e-002, 1.26011983e-001, 1.17650658e-001,
          1.11688584e-001, 2.57107556e-001, 1.65876865e-001, 0.,
          5.21853678e-002, 5.51874712e-002, 6.76544681e-002, 0.,
          1.66044921e-001, 1.64730847e-001, 1.57216758e-001,
          1.14068955e-001, 1.48372307e-001, 2.56694466e-001,
          6.79685995e-002, 0., 0., 0., 1.22993670e-001, 1.24527760e-001,
          2.43981332e-001, 2.18906045e-001, 1.80422455e-001, 0., 0., 0.,
          0. ]
      - [ 8.42840597e-002, 2.56124616e-001, 2.05349460e-001,
          1.92949191e-001, 0., 0., 0., 0., 0., 1.21890791e-001,
          1.16439387e-001, 1.34750843e-001, 1.85939521e-001,
          4.72475849e-002, 0., 0., 1.23137094e-001, 0., 0.,
          1.76442340e-001, 1.83188930e-001, 8.70928615e-002,
          6.33505508e-002, 3.06407847e-002, 1.14639051e-001,
          1.27975434e-001, 1.07431933e-002, 1.77237913e-001,
          1.69017553e-001, 1.90034881e-001, 1.30714044e-001,
          1.63690820e-001, 0., 0., 0., 0., 1.79477558e-001,
          2.60891616e-001, 1.67726696e-001, 1.44416675e-001, 0.,
          4.70234342e-002, 1.12610549e-001, 1.48218602e-001,
          1.44067049e-001, 1.40647203e-001, 9.24047083e-002,
          6.70894757e-002, 1.24306455e-001, 1.20988414e-001,
          1.59865528e-001, 2.09018454e-001, 3.02693192e-002, 0., 0.,
          1.78096116e-001, 8.90230462e-002, 1.14744931e-001,
          1.84716105e-001, 2.74807602e-001, 9.49341431e-003, 0.,
          5.04887849e-003, 0. ]
      - [ 1.76755130e-001, 2.51461625e-001, 2.14688733e-001, 0., 0., 0.,
          0., 0., 9.17240307e-002, 1.90394029e-001, 1.29811749e-001, 0.,
          0., 0., 0., 3.51021364e-002, 2.19760582e-001, 3.12817506e-002,
          0., 3.46033424e-002, 1.80980608e-001, 0., 9.39084291e-002,
          1.33727655e-001, 2.13049889e-001, 7.14646652e-002, 0., 0.,
          1.82984650e-001, 1.88021541e-001, 1.69141322e-001,
          1.26198187e-001, 0., 0., 1.16794474e-001, 8.70659426e-002,
          1.33449465e-001, 1.88611522e-001, 2.12303087e-001,
          8.16262290e-002, 1.84318140e-001, 0., 7.11127147e-002,
          1.37385786e-001, 0., 1.51289284e-001, 1.65417403e-001, 0.,
          1.18487485e-001, 1.48331687e-001, 2.15875730e-001,
          1.28673926e-001, 0., 0., 9.41634700e-002, 1.55729830e-001,
          1.17054440e-001, 2.06485033e-001, 1.90226436e-001,
          2.24047855e-001, 0., 0., 2.33670417e-002, 1.13178745e-001 ]
      - [ 2.14755595e-001, 1.66489676e-001, 2.11379841e-001,
          1.47356600e-001, 1.25917241e-001, 0., 2.77438015e-002, 0.,
          6.83020875e-002, 2.04261422e-001, 7.24884197e-002,
          1.22515395e-001, 1.23155192e-001, 0., 0., 0., 0., 0., 0., 0.,
          2.26811707e-001, 8.83276016e-002, 6.87180758e-002,
          1.15957327e-001, 1.27168596e-001, 0., 0., 1.37066260e-001,
          1.86122522e-001, 1.78055957e-001, 1.78397015e-001,
          2.00640455e-001, 1.16979614e-001, 0., 2.49654260e-002, 0.,
          2.36990616e-001, 2.24388480e-001, 1.47657111e-001,
          1.13281831e-001, 1.17747560e-001, 0., 0., 2.56563686e-002,
          2.40208626e-001, 1.34984195e-001, 7.94680342e-002, 0., 0.,
          1.70203373e-001, 1.45920008e-001, 2.14180514e-001,
          1.09729106e-002, 0., 0., 5.02897166e-002, 1.53375164e-001,
          1.56637117e-001, 2.37978101e-001, 2.33894587e-001,
          1.09729106e-002, 0., 0., 0. ]
      - [ 2.82453358e-001, 2.45780453e-001, 1.62953287e-001,
          1.70151219e-001, 0., 0., 0., 9.96119976e-002, 1.24348834e-001,
          3.62529680e-002, 1.03548288e-001, 3.28990705e-002,
          7.76551738e-002, 0., 0., 2.24515740e-002, 1.43249929e-001,
          7.65488809e-003, 0., 0., 0., 6.94236457e-002, 1.52536914e-001,
          8.59334990e-002, 0., 0., 0., 1.42503858e-001, 1.32519767e-001,
          1.82938904e-001, 2.58448422e-001, 1.96379110e-001, 0., 0., 0.,
          7.97230937e-003, 1.92515507e-001, 1.87029511e-001,
          2.29295269e-001, 2.70361096e-001, 0., 0., 0., 0.,
          1.22058667e-001, 1.24355949e-001, 1.46216303e-001, 0.,
          9.53802019e-002, 8.09541047e-002, 9.21219140e-002,
          8.92021433e-002, 5.18963151e-002, 1.39787197e-001,
          5.91062978e-002, 1.46802530e-001, 2.78982282e-001,
          1.45771801e-001, 1.49791956e-001, 2.34878764e-001,
          4.48315870e-003, 0., 0., 1.44649193e-001 ]
      - [ 1.76785812e-001, 1.43177256e-001, 1.88228965e-001,
          1.69647351e-001, 1.71132594e-001, 6.15404136e-002, 0., 0.,
          1.14220589e-001, 5.73472902e-002, 1.54828548e-001,
          1.97281793e-001, 0., 0., 0., 0., 7.07013682e-002,
          3.60760535e-003, 0., 0., 1.78583458e-001, 1.25266567e-001,
          2.03114867e-001, 0., 0., 0., 0., 0., 2.19517246e-001,
          1.89750448e-001, 1.70066759e-001, 2.09169060e-001, 0., 0., 0.,
          4.56797183e-002, 3.01848292e-001, 1.33579314e-001,
          1.65880814e-001, 1.27454773e-001, 0., 0., 0., 0.,
          2.69372970e-001, 8.98937955e-002, 9.17916894e-002,
          6.83909729e-002, 8.93952101e-002, 1.08444966e-001,
          1.85735375e-001, 1.14418350e-001, 1.81422666e-001, 0.,
          1.02038486e-002, 3.05181164e-002, 1.84096366e-001,
          1.20540194e-001, 2.33104527e-001, 2.44229198e-001,
          2.84579005e-002, 0., 1.86655596e-002, 8.72467533e-002 ]
      - [ 0., 3.40815902e-001, 1.55361444e-001, 0., 0., 0., 0., 0.,
          5.44464812e-002, 2.09793180e-001, 1.17091656e-001,
          6.09197095e-002, 2.06454583e-002, 0., 0., 0., 1.71586603e-001,
          0., 0., 0., 1.86740831e-001, 9.60606039e-002, 1.11466691e-001,
          9.21056643e-002, 1.72250658e-001, 3.45359407e-002, 0., 0.,
          2.17827201e-001, 1.62321642e-001, 1.42390922e-001,
          1.72254771e-001, 0., 0., 7.87972137e-002, 1.38971955e-001,
          1.15358569e-001, 1.15640402e-001, 2.73411959e-001,
          1.94017172e-001, 9.66661647e-002, 0., 0., 1.21804826e-001,
          8.49837661e-002, 1.68864176e-001, 1.85118511e-001, 0., 0.,
          1.06825456e-001, 1.73261657e-001, 2.18140185e-001, 0., 0.,
          5.21345660e-002, 2.01057345e-001, 1.16026141e-001,
          1.02532506e-001, 1.94426700e-001, 2.30196789e-001,
          1.25731647e-001, 2.08519381e-002, 6.67762235e-002,
          1.39321148e-001 ]
      - [ 2.20612407e-001, 1.66716024e-001, 1.26694739e-001,
          1.39440417e-001, 1.23067319e-001, 0., 0., 0., 1.24979526e-001,
          1.89731732e-001, 1.18225358e-001, 6.54853135e-002, 0., 0.,
          4.08488289e-002, 1.84571579e-001, 1.73851952e-001,
          3.53264175e-002, 0., 0., 4.10686247e-002, 9.95448008e-002,
          1.51344374e-001, 2.11507455e-001, 8.90823901e-002, 0., 0., 0.,
          8.27495977e-002, 1.70678318e-001, 2.05887079e-001,
          2.01808289e-001, 8.85920450e-002, 0., 0., 1.74023241e-001,
          1.51775464e-001, 1.18213095e-001, 1.74407542e-001,
          1.75363287e-001, 1.70109615e-001, 3.73308286e-002,
          1.50116608e-001, 1.36004299e-001, 9.97725353e-002, 0.,
          1.08304687e-001, 1.68303221e-001, 2.02363193e-001,
          1.81877300e-001, 1.00395672e-001, 1.16559967e-001,
          7.75137469e-002, 0., 5.24168648e-002, 7.97674358e-002,
          2.53181189e-001, 2.00341150e-001, 1.69645458e-001,
          1.61304474e-001, 0., 0., 0., 0. ]
      - [ 1.27237335e-001, 3.36356312e-001, 1.23632096e-001,
          1.27244502e-001, 0., 0., 0., 0., 3.41298133e-002,
          3.14036250e-001, 5.09671308e-002, 0., 2.13625003e-002, 0., 0.,
          0., 1.70629904e-001, 3.92765366e-002, 0., 1.19421512e-001,
          1.66519210e-001, 1.23322845e-001, 7.96876848e-002,
          1.15572453e-001, 1.23947322e-001, 1.35371134e-001, 0.,
          1.15049966e-001, 2.08346605e-001, 1.49411827e-001,
          1.87987313e-001, 1.21892571e-001, 8.64428282e-002, 0.,
          7.27063790e-002, 5.06861657e-002, 8.79938379e-002,
          1.59926832e-001, 2.32493654e-001, 1.48803949e-001, 0.,
          9.03542265e-002, 1.32589996e-001, 0., 0., 0., 1.98544875e-001,
          1.39250755e-001, 1.10313423e-001, 9.86196473e-002,
          1.24303110e-001, 2.27724895e-001, 5.26685417e-002, 0., 0., 0.,
          1.98975623e-001, 9.53510329e-002, 2.15167508e-001,
          2.31783152e-001, 4.12763581e-002, 0., 0., 1.18996687e-001 ]
      - [ 1.41155332e-001, 1.47506699e-001, 1.24368675e-001,
          1.29756212e-001, 2.02822134e-001, 8.18633288e-002,
          1.02730475e-001, 1.21615924e-001, 7.25874901e-002,
          6.53397338e-003, 0., 0., 1.95274547e-001, 1.23473376e-001,
          9.90718380e-002, 0., 0., 0., 0., 0., 1.33243039e-001,
          1.33296132e-001, 1.70840099e-001, 1.24360390e-001,
          1.29186660e-001, 0., 0., 0., 1.33924559e-001, 2.60274619e-001,
          1.53732702e-001, 2.18075946e-001, 0., 0., 0., 0., 0.,
          2.63872951e-001, 2.10622624e-001, 1.67305768e-001,
          1.01885498e-001, 0., 0., 0., 1.15685210e-001, 1.47251427e-001,
          2.32986152e-001, 1.16648361e-001, 2.15371475e-001,
          9.84311700e-002, 8.11987743e-002, 1.62943348e-001,
          1.44956008e-001, 0., 0., 7.98136517e-002, 2.04528898e-001,
          2.04553753e-001, 1.68379694e-001, 2.05452338e-001,
          6.66229352e-002, 0., 0., 0. ]
      - [ 1.63073644e-001, 2.09335923e-001, 1.17615618e-001,
          1.64239362e-001, 1.68790355e-001, 0., 6.59703463e-002,
          8.79558921e-002, 9.20312703e-002, 1.75823182e-001,
          6.70733675e-002, 8.04584995e-002, 1.65256247e-001, 0.,
          7.75911659e-002, 7.40067586e-002, 1.29460633e-001, 0., 0.,
          1.26876846e-001, 1.83081374e-001, 8.51850212e-002,
          7.14637861e-002, 8.73445943e-002, 1.49877310e-001,
          1.00215264e-001, 0., 1.67218000e-001, 1.70309618e-001,
          1.86956376e-001, 8.14633071e-002, 2.00923771e-001, 0., 0., 0.,
          0., 1.97023109e-001, 2.63034344e-001, 1.51016980e-001,
          1.24687262e-001, 0., 0., 0., 0., 1.58664703e-001,
          1.96229726e-001, 1.79666266e-001, 0., 1.24863401e-001,
          3.84471714e-002, 1.78376675e-001, 2.32108355e-001,
          2.08234191e-002, 0., 0., 8.85692388e-002, 1.48792669e-001,
          1.12706229e-001, 2.33729780e-001, 2.40769714e-001,
          2.08234191e-002, 0., 0., 0. ]
      - [ 1.71784267e-001, 1.68173626e-001, 1.86340854e-001,
          1.71772897e-001, 0., 0., 0., 0., 2.29578540e-001,
          1.47803992e-001, 4.70827147e-002, 1.18904792e-001, 0., 0., 0.,
          1.76458061e-001, 1.98849484e-001, 4.19663489e-002, 0.,
          1.24985322e-001, 1.34569809e-001, 1.00510955e-001,
          1.03368968e-001, 1.39436975e-001, 1.67880669e-001,
          3.47719863e-002, 0., 1.78635702e-001, 1.45738259e-001,
          1.36654168e-001, 1.48421109e-001, 1.69524521e-001, 0., 0., 0.,
          0., 1.21540889e-001, 2.11867169e-001, 2.30083048e-001,
          1.81226477e-001, 1.02354269e-002, 0., 0., 0., 6.65919855e-002,
          1.20624729e-001, 1.99451521e-001, 1.65201128e-001,
          8.47413018e-002, 1.00528412e-001, 8.81253034e-002,
          2.11534038e-001, 0., 0., 0., 1.74358487e-001, 1.15393080e-001,
          1.83517247e-001, 1.84531420e-001, 2.01171011e-001,
          3.34134512e-002, 3.76987383e-002, 1.39044330e-001,
          1.16169587e-001 ]
      - [ 2.13151738e-001, 1.83779269e-001, 1.13179676e-001,
          1.75284877e-001, 9.92771611e-002, 0., 0., 0., 1.95647359e-001,
          1.64775535e-001, 9.18725282e-002, 1.12759382e-001,
          8.03928673e-002, 0., 3.84071446e-003, 6.80784956e-002,
          1.11830652e-001, 0., 0., 6.34010434e-002, 1.71583712e-001,
          9.51895043e-002, 1.21361256e-001, 2.27389172e-001, 0.,
          9.40779038e-003, 0., 1.60344854e-001, 1.68617219e-001,
          1.34801775e-001, 1.44299194e-001, 2.30216175e-001,
          3.83580811e-002, 0., 6.54388145e-002, 9.25651342e-002,
          1.20605275e-001, 1.36557415e-001, 3.20309401e-001, 0., 0.,
          1.97976287e-002, 0., 0., 9.04517695e-002, 1.53051108e-001,
          2.54722089e-001, 0., 5.88554367e-002, 1.13894105e-001,
          9.21842977e-002, 2.10503921e-001, 0., 0., 4.65748049e-002,
          1.63190514e-001, 1.07150830e-001, 1.60458848e-001,
          1.74477175e-001, 2.22678065e-001, 4.40871418e-002, 0.,
          9.63559672e-002, 1.68798253e-001 ]
      - [ 1.23940714e-001, 1.98281497e-001, 2.05341369e-001,
          1.80183247e-001, 3.21014933e-002, 0., 0., 3.77845615e-002, 0.,
          0., 1.97096318e-001, 1.01626888e-001, 0., 1.39397150e-002, 0.,
          1.31285533e-001, 2.15896532e-001, 3.14314961e-002, 0., 0., 0.,
          2.26587187e-002, 1.60289675e-001, 1.97179884e-001,
          1.88285217e-001, 1.26527876e-001, 1.05915762e-001,
          1.24949135e-001, 1.23990290e-001, 9.29203779e-002,
          1.35741636e-001, 2.15366736e-001, 0., 0., 0., 1.25540301e-001,
          1.73072621e-001, 1.81048945e-001, 2.38468841e-001,
          1.37360215e-001, 4.02395204e-002, 7.39251822e-002,
          1.24505885e-001, 1.57301381e-001, 5.92943840e-002,
          1.27741337e-001, 1.63327307e-001, 1.79277975e-002,
          1.13790944e-001, 1.21901192e-001, 1.54903367e-001,
          5.16636297e-003, 0., 0., 6.19630292e-002, 2.35851660e-001,
          1.37066379e-001, 1.75176874e-001, 9.30554718e-002,
          1.37713760e-001, 1.20481782e-001, 7.58608133e-002,
          2.56226342e-002, 2.53230214e-001 ]
      - [ 1.38510168e-001, 1.84621468e-001, 1.74455702e-001,
          2.66815871e-001, 0., 0., 0., 0., 0., 7.00058043e-002,
          1.15240231e-001, 1.20804705e-001, 0., 1.58960596e-001,
          3.55140492e-002, 0., 1.31027266e-001, 0., 0., 4.47692610e-002,
          2.21905887e-001, 1.04242109e-001, 1.28410026e-001, 0.,
          9.18551385e-002, 8.62022042e-002, 5.11399396e-002,
          5.52118048e-002, 2.26318300e-001, 2.79807836e-001,
          1.39359802e-001, 1.32841602e-001, 7.32031604e-003, 0., 0.,
          1.89681724e-001, 1.19918592e-001, 2.29081154e-001,
          2.21123531e-001, 8.59058648e-002, 0., 0., 1.02299504e-001,
          1.43165365e-001, 1.17149130e-001, 9.26541016e-002,
          7.78739005e-002, 0., 4.40759435e-002, 1.34968027e-001,
          1.65727198e-001, 1.22390330e-001, 1.26745835e-001, 0., 0.,
          1.33734509e-001, 1.31865472e-001, 1.39699161e-001,
          2.87815511e-001, 1.81693107e-001, 1.36121154e-001, 0., 0.,
          1.24815091e-001 ]
      - [ 2.78094411e-001, 1.82293147e-001, 1.32939845e-001, 0.,
          1.32587314e-001, 1.22414276e-001, 7.01904595e-002, 0.,
          2.17498183e-001, 1.12960912e-001, 8.52758437e-002,
          1.09416440e-001, 1.24435917e-001, 0., 0., 0., 1.53306365e-001,
          3.54389884e-002, 2.81081721e-002, 1.20179355e-001,
          1.22554913e-001, 1.25086442e-001, 8.39949474e-002,
          1.59012288e-001, 1.65448397e-001, 6.80678897e-003, 0.,
          1.35940537e-001, 1.62266359e-001, 1.28116250e-001,
          1.62523866e-001, 2.01057196e-001, 0., 0., 3.21083479e-002, 0.,
          1.69538066e-001, 2.56886959e-001, 1.15697756e-001,
          1.47712752e-001, 8.80201682e-002, 0., 0., 0., 1.65225536e-001,
          1.82860047e-001, 1.24327749e-001, 1.22606955e-001,
          1.18204862e-001, 1.81121439e-001, 1.94956556e-001,
          1.33515686e-001, 0., 0., 0., 0., 1.81349501e-001,
