%YAML:1.0
my_svm: !!opencv-ml-svm
   svm_type: C_SVC
   kernel: { type:LINEAR }
   C: 3.1250000000000000e+002
   term_criteria: { epsilon:1.1920928955078125e-007, iterations:1000 }
   var_all: 512
   var_count: 512
   class_count: 5
   class_labels: !!opencv-matrix
      rows: 1
      cols: 5
      dt: i
      data: [ 0, 1, 2, 3, 4 ]
   sv_total: 10
   support_vectors:
      - [ 1.66105042e+001, 1.64913101e+001, 5.54930782e+000,
          -7.49062347e+000, -4.15572357e+000, -3.23872113e+000,
          6.34639442e-001, 7.02730000e-001, 1.16559744e+001,
          1.26802702e+001, 2.49536777e+000, -8.11168861e+000,
          -3.20344496e+000, -2.56206775e+000, 5.34916461e-001,
          -1.76802742e+000, 1.22676659e+001, 1.18662281e+001,
          1.54219484e+000, -9.62447357e+000, -4.52706575e+000,
          -2.90073466e+000, 4.92012948e-001, -1.77758598e+000,
          1.24291992e+001, 1.17103891e+001, 2.31310511e+000,
          -6.84019470e+000, -2.26081014e+000, -1.19358158e+000,
          1.14011776e+000, -1.34303951e+000, 1.19043903e+001,
          9.68576241e+000, -1.29617006e-001, -8.27601910e+000,
          -3.54889321e+000, -2.54063082e+000, 1.36873531e+000,
          -3.77418436e-002, 1.29188223e+001, 1.14820375e+001,
          1.42256141e+000, -7.93257475e+000, -3.50053334e+000,
          -2.11929178e+000, 2.04805470e+000, 1.13691986e+000,
          1.21651793e+001, 9.96503162e+000, -5.23776889e-001,
          -9.59542274e+000, -4.02017975e+000, -2.90227818e+000,
          3.28740329e-001, -1.28948116e+000, 1.07142515e+001,
          8.46972656e+000, -1.05177665e+000, -8.84445286e+000,
          -3.74599171e+000, -3.00042391e+000, 4.12632167e-001,
          -4.58406836e-001, 1.28700638e+001, 1.25510235e+001,
          3.47262430e+000, -7.71678448e+000, -4.67017126e+000,
          -3.15797305e+000, 6.47700369e-001, -1.10528398e+000,
          1.01420479e+001, 1.01395445e+001, 6.60163760e-001,
          -8.32917213e+000, -4.51097059e+000, -3.19898558e+000,
          4.88652706e-001, -2.24277496e+000, 1.05520964e+001,
          1.00211535e+001, 4.28958714e-001, -7.85634995e+000,
          -2.97491860e+000, -2.52408242e+000, 7.90777981e-001,
          -2.39252090e+000, 1.03707991e+001, 1.02212105e+001,
          1.01524985e+000, -7.58564186e+000, -2.52557182e+000,
          -1.82926381e+000, 1.51803112e+000, -1.31449509e+000,
          1.07712193e+001, 8.95114899e+000, -6.69934213e-001,
          -9.21754837e+000, -4.23420715e+000, -3.09027100e+000,
          4.32132810e-001, -1.60420310e+000, 1.05784540e+001,
          8.56575394e+000, -1.03780955e-001, -8.42138386e+000,
          -3.31238699e+000, -3.23146462e+000, 3.25961560e-002,
          -8.48293304e-001, 1.15251760e+001, 9.19524097e+000,
          -7.51861632e-001, -8.57309055e+000, -3.84570670e+000,
          -2.56778598e+000, 9.45296586e-001, -1.71135366e-001,
          8.68136406e+000, 8.06011963e+000, -8.03946674e-001,
          -8.55986500e+000, -3.95905256e+000, -3.26324558e+000,
          -1.47921532e-001, -3.48997688e+000, 1.17380276e+001,
          1.28453159e+001, 2.10728765e+000, -8.30103207e+000,
          -3.07625723e+000, -2.05506158e+000, 5.83936632e-001,
          -9.64708328e-001, 9.06230736e+000, 8.82056236e+000,
          6.83731914e-001, -8.07702923e+000, -3.40803480e+000,
          -2.61640072e+000, 4.74003166e-001, -3.21548843e+000,
          1.07741060e+001, 1.18753786e+001, 2.15157580e+000,
          -6.97234440e+000, -1.40510619e+000, -1.99571431e+000,
          8.08213413e-001, -2.43650174e+000, 6.50562811e+000,
          7.62084103e+000, -3.99386138e-001, -8.16575718e+000,
          -2.82457590e+000, -2.16817474e+000, 7.24371552e-001,
          -4.06937361e+000, 8.87594604e+000, 1.06091166e+001,
          1.44343174e+000, -8.31039524e+000, -3.39648414e+000,
          -2.40976310e+000, 1.01189661e+000, -1.77529168e+000,
          1.08545618e+001, 8.10546970e+000, -1.97178853e+000,
          -1.05186939e+001, -4.14054394e+000, -3.07291436e+000,
          2.77182698e-001, -1.59758925e+000, 1.02432919e+001,
          1.03031130e+001, 1.07529783e+000, -8.14389324e+000,
          -4.11896038e+000, -3.54294872e+000, -6.03273749e-001,
          -2.49510574e+000, 1.26157579e+001, 8.94380188e+000,
          -1.01508284e+000, -9.41959667e+000, -4.33196354e+000,
          -3.14804816e+000, 8.37882996e-001, 3.99837166e-001,
          1.00521173e+001, 8.95462322e+000, -3.95026095e-002,
          -9.63800335e+000, -4.77595854e+000, -3.34939694e+000,
          -4.32969481e-002, -3.10841775e+000, 1.08189793e+001,
          1.07610331e+001, 1.77535784e+000, -7.34302044e+000,
          -3.04762125e+000, -2.14951038e+000, 6.09151602e-001,
          -1.47078872e+000, 1.21957979e+001, 1.08390789e+001,
          1.43346083e+000, -7.30495071e+000, -3.04552007e+000,
          -1.97979653e+000, 1.05763316e+000, -1.05300641e+000,
          1.10039577e+001, 1.05354958e+001, 5.32050669e-001,
          -8.66944122e+000, -3.87495303e+000, -3.25895405e+000,
          3.06433290e-001, -2.52354360e+000, 7.48116684e+000,
          7.52593088e+000, -9.25747275e-001, -8.25884247e+000,
          -3.81269908e+000, -3.36732244e+000, -6.58435166e-001,
          -4.80210400e+000, 9.58742714e+000, 9.16128635e+000,
          8.08435082e-002, -8.20893574e+000, -3.67596745e+000,
          -3.90839410e+000, -1.01849854e+000, -3.64518237e+000,
          1.10299501e+001, 1.06715899e+001, 1.47770143e+000,
          -7.72034883e+000, -3.64306521e+000, -2.62485766e+000,
          9.51905549e-001, -1.74983358e+000, 1.12870302e+001,
          9.51981640e+000, -1.30506825e+000, -8.58785725e+000,
          -3.70592761e+000, -2.46107817e+000, 8.10782462e-002,
          -9.04539466e-001, 9.49235344e+000, 7.75365782e+000,
          -8.06772053e-001, -1.03468494e+001, -4.26954794e+000,
          -3.31011724e+000, -3.60271603e-001, -2.17384410e+000,
          1.07113848e+001, 9.15795612e+000, -6.43613815e-001,
          -9.82807922e+000, -4.51875734e+000, -3.10687184e+000,
          8.76068890e-001, -8.03069413e-001, 8.62927532e+000,
          9.10551262e+000, 5.98076463e-001, -9.15168095e+000,
          -4.17918634e+000, -3.28729224e+000, -6.82849437e-002,
          -3.69553661e+000, 8.62708378e+000, 8.63378239e+000,
          -2.34957933e-001, -9.57427597e+000, -4.64550114e+000,
          -2.81138420e+000, 7.48161256e-001, -2.59514427e+000,
          7.57904291e+000, 7.37056446e+000, -1.87205708e+000,
          -9.00315380e+000, -4.31818008e+000, -2.61730528e+000,
          -1.33922949e-001, -2.71660757e+000, 8.83609104e+000,
          8.10030556e+000, -1.32594419e+000, -8.96022415e+000,
          -3.88608217e+000, -2.67938089e+000, 1.05767734e-002,
          -3.13398433e+000, 9.46259689e+000, 8.10568523e+000,
          -2.65962124e+000, -9.61750412e+000, -3.90223622e+000,
          -2.80873680e+000, -1.86833307e-001, -3.04681134e+000,
          9.20083237e+000, 9.89424896e+000, 6.65493071e-001,
          -8.29625893e+000, -3.49292159e+000, -2.05589843e+000,
          7.62156963e-001, -3.02762437e+000, 8.87495708e+000,
          8.50008297e+000, -2.12162900e+000, -1.09458761e+001,
          -6.49854231e+000, -4.08034086e+000, -1.35360706e+000,
          -2.91225290e+000, 8.88400745e+000, 6.41979170e+000,
          -2.90780973e+000, -1.03308058e+001, -5.22351980e+000,
          -3.34105968e+000, 5.60171127e-001, -2.78053713e+000,
          1.03728561e+001, 9.07252789e+000, 3.09139043e-001,
          -8.84838676e+000, -4.44028378e+000, -3.99773335e+000,
          -3.44895899e-001, -2.53200960e+000, 8.28386593e+000,
          7.59844398e+000, -2.24795413e+000, -9.89023113e+000,
          -4.39760971e+000, -2.91449165e+000, 1.92781389e-002,
          -3.44639850e+000, 8.57007980e+000, 8.37734795e+000,
          -1.58796930e+000, -8.76683617e+000, -4.61487150e+000,
          -3.66022754e+000, -7.92378962e-001, -4.13866615e+000,
          9.92800808e+000, 8.00533104e+000, -5.01534700e-001,
          -7.74384975e+000, -3.41608500e+000, -3.06552744e+000,
          -7.55488992e-001, -2.70333886e+000, 7.96852875e+000,
          8.27285004e+000, -3.05282474e+000, -9.49886131e+000,
          -4.13314104e+000, -3.14121866e+000, 1.36741459e-001,
          -3.81485510e+000, 6.59811115e+000, 6.45726776e+000,
          -2.19000363e+000, -7.52080917e+000, -2.71280980e+000,
          -1.50498569e+000, 6.70453370e-001, -3.96822405e+000,
          6.66151190e+000, 6.99067926e+000, -1.42146063e+000,
          -8.98700142e+000, -4.64603996e+000, -3.49935532e+000,
          -9.69014287e-001, -3.93622851e+000, 8.54193115e+000,
          7.38629198e+000, -1.42830014e+000, -9.47456551e+000,
          -5.73710060e+000, -4.38985109e+000, -1.02819335e+000,
          -3.04607773e+000, 9.29752350e+000, 7.55357552e+000,
          -7.27519155e-001, -9.28363895e+000, -3.89112234e+000,
          -2.53510070e+000, 3.87886107e-001, -7.81930983e-001,
          6.20144367e+000, 6.01904440e+000, -2.20706248e+000,
          -9.30792141e+000, -3.82462287e+000, -3.06742191e+000,
          -8.78120184e-001, -4.07288170e+000, 6.64096212e+000,
          5.79599857e+000, -3.41129279e+000, -9.58000660e+000,
          -3.98446965e+000, -2.95301747e+000, 2.42316395e-001,
          -3.16214418e+000, 8.78187466e+000, 6.57874537e+000,
          -2.37354779e+000, -9.36491585e+000, -4.18980503e+000,
          -3.48045397e+000, -2.74522770e-002, -2.88079119e+000,
          9.53642368e+000, 9.91547298e+000, -5.17875075e-001,
          -7.77639055e+000, -2.06180620e+000, -1.77656937e+000,
          1.49906039e+000, -8.79986584e-001, 5.43441677e+000,
          5.64931774e+000, -1.68312156e+000, -7.36312199e+000,
          -2.40731239e+000, -2.05203366e+000, 5.15565157e-001,
          -3.66226983e+000, 5.96148109e+000, 4.08496666e+000,
          -2.54165101e+000, -9.89189053e+000, -6.24222755e+000,
          -4.61891842e+000, -1.68886960e+000, -5.02331448e+000,
          9.94107342e+000, 7.19403601e+000, -4.92435485e-001,
          -8.75422573e+000, -4.62337685e+000, -2.77235031e+000,
          1.03122152e-001, -2.26541257e+000, 7.60142565e+000,
          6.29290104e+000, -3.33641577e+000, -1.09392204e+001,
          -6.81934595e+000, -5.06245184e+000, -1.45698333e+000,
          -4.81649065e+000, 7.97930336e+000, 5.47104406e+000,
          -2.15256786e+000, -8.16896343e+000, -2.87878013e+000,
          -1.75836575e+000, 5.71557619e-002, -3.58764672e+000,
          4.31184053e+000, 4.09088182e+000, -4.14468384e+000,
          -1.07225857e+001, -4.49799728e+000, -4.59466219e+000,
          -1.21008480e+000, -5.97535896e+000, 8.36055374e+000,
          4.14389992e+000, -3.20903277e+000, -8.23184299e+000,
          -3.06906724e+000, -2.25510907e+000, 3.84242922e-001,
          -2.10306334e+000, 5.72078514e+000, 6.25756311e+000,
          -1.62726068e+000, -8.51752758e+000, -4.41503239e+000,
          -3.28196406e+000, -8.73801053e-001, -4.01285076e+000,
          6.00710773e+000, 5.58340740e+000, -5.96921325e-001,
          -7.11216450e+000, -2.77430248e+000, -1.84760010e+000,
          2.96103269e-001, -2.71632695e+000 ]
      - [ 2.62778640e+000, 3.62388921e+000, 9.74653244e-001,
          -1.81796300e+000, -2.82077146e+000, -2.31082797e-001,
          3.81737411e-001, 1.38761437e+000, 2.87093067e+000,
          3.67729783e+000, 8.68624985e-001, -2.32777619e+000,
          -3.51761484e+000, -3.00372541e-001, 3.60827953e-001,
          1.44614863e+000, 2.87999129e+000, 3.52198076e+000,
          7.27016091e-001, -2.00565028e+000, -3.48426604e+000,
          -3.91665071e-001, 3.10584098e-001, 1.35113692e+000,
          3.05343485e+000, 3.12712932e+000, 1.83295652e-001,
          -2.63179326e+000, -3.69275832e+000, -2.98973829e-001,
          3.06446165e-001, 1.53458381e+000, 2.36027837e+000,
          2.88918996e+000, 1.94253102e-001, -2.40054679e+000,
          -3.52521396e+000, -5.43217182e-001, 2.67174602e-001,
          1.30663073e+000, 2.62998223e+000, 2.86585045e+000,
          3.54264490e-002, -2.80055428e+000, -3.37829924e+000,
          -4.62406039e-001, 2.42389426e-001, 1.40767813e+000,
          2.88865829e+000, 3.09119606e+000, 9.33389291e-002,
          -2.41590452e+000, -3.52083206e+000, -5.64261138e-001,
          2.68436164e-001, 1.47414315e+000, 2.79141164e+000,
          2.97258258e+000, 3.43454629e-001, -2.21259832e+000,
          -3.11201024e+000, -3.22510183e-001, 2.42295906e-001,
          1.50225759e+000, 2.75680923e+000, 3.58089685e+000,
          7.86335409e-001, -2.36138463e+000, -3.24176145e+000,
          -3.08790028e-001, 3.80971670e-001, 1.35613942e+000,
          3.02342510e+000, 3.39762402e+000, 6.65829241e-001,
          -3.06541109e+000, -4.10105038e+000, -4.11611587e-001,
          4.45692152e-001, 1.53235793e+000, 2.90566921e+000,
          3.10358214e+000, 3.44136149e-001, -3.14248896e+000,
          -3.88640690e+000, -6.23103023e-001, 3.00552994e-001,
          1.42685020e+000, 2.92065024e+000, 2.93415141e+000,
          3.04721206e-001, -2.80090404e+000, -3.64598656e+000,
          -4.59507465e-001, 3.51668179e-001, 1.51291287e+000,
          2.74697351e+000, 2.84368706e+000, 1.77264586e-001,
          -2.56986928e+000, -3.61950612e+000, -5.87676823e-001,
          2.26672605e-001, 1.46149158e+000, 2.59996080e+000,
          2.78787351e+000, 1.96570709e-001, -2.38423514e+000,
          -3.18019724e+000, -4.21303421e-001, 6.96724802e-002,
          1.15807676e+000, 3.09846568e+000, 3.09200382e+000,
          2.16614138e-002, -2.33996105e+000, -3.43009973e+000,
          -6.41794205e-001, 3.27876121e-001, 1.50028872e+000,
          2.77102518e+000, 2.66805363e+000, 6.81587085e-002,
          -2.00491548e+000, -3.29565001e+000, -5.29127955e-001,
          2.76127458e-001, 1.35811901e+000, 2.59083200e+000,
          3.24912882e+000, 3.67575824e-001, -2.06553078e+000,
          -3.08725953e+000, -5.40634274e-001, 1.95356056e-001,
          1.18014812e+000, 2.70905185e+000, 3.02885556e+000,
          2.15174690e-001, -2.47289252e+000, -3.56513715e+000,
          -4.36266452e-001, 3.20564002e-001, 1.36559582e+000,
          2.72103000e+000, 3.06402850e+000, 2.06157103e-001,
          -2.25335145e+000, -3.51693535e+000, -6.82932556e-001,
          8.88915733e-002, 1.35891354e+000, 2.80925727e+000,
          2.85563374e+000, 1.23271897e-001, -2.07264066e+000,
          -3.36521554e+000, -4.24533039e-001, 4.31045979e-001,
          1.42561221e+000, 2.31153274e+000, 2.78519940e+000,
          1.23841025e-001, -2.26360345e+000, -3.23629093e+000,
          -6.08542919e-001, -3.79460007e-002, 1.07590044e+000,
          2.40429831e+000, 2.89321327e+000, 4.11230654e-001,
          -1.91701531e+000, -2.99022126e+000, -3.94214272e-001,
          1.51023626e-001, 1.12462640e+000, 2.41930413e+000,
          2.99155450e+000, 2.69347668e-001, -2.17762804e+000,
          -3.62894964e+000, -5.34181476e-001, 1.67601347e-001,
          1.15566707e+000, 2.61448479e+000, 2.61796784e+000,
          -1.50796726e-001, -2.31469631e+000, -3.68018031e+000,
          -4.76607621e-001, 2.66580641e-001, 1.43605959e+000,
          2.37156177e+000, 2.81969404e+000, 1.26895845e-001,
          -2.47526002e+000, -3.62657356e+000, -5.41642785e-001,
          1.81558147e-001, 1.16116309e+000, 3.13260531e+000,
          3.36787987e+000, 5.07584512e-001, -2.80827928e+000,
          -4.47331333e+000, -7.09333003e-001, 2.23440081e-001,
          1.42353702e+000, 2.85522485e+000, 2.80981159e+000,
          1.73051924e-001, -2.31175518e+000, -3.29837680e+000,
          -5.78399718e-001, 9.06991288e-002, 1.44240510e+000,
          2.60353255e+000, 3.16647077e+000, 6.36896119e-002,
          -2.83226943e+000, -4.03742170e+000, -6.94029570e-001,
          3.06905746e-001, 1.25684690e+000, 2.63763714e+000,
          2.89156508e+000, 7.45757669e-002, -2.72988105e+000,
          -3.73761296e+000, -7.16091990e-001, 8.54354799e-002,
          1.51150930e+000, 2.20734596e+000, 2.94627595e+000,
          6.20847158e-002, -2.78189301e+000, -3.80213499e+000,
          -6.69122636e-001, 7.22254589e-002, 1.05902326e+000,
          2.73921084e+000, 3.04060531e+000, 2.59777427e-001,
          -2.86589074e+000, -4.29896545e+000, -8.28941584e-001,
          2.76462078e-001, 1.38735390e+000, 2.48105717e+000,
          2.80014420e+000, 6.47117198e-002, -2.36075616e+000,
          -3.41753054e+000, -5.12992918e-001, 7.53199607e-002,
          1.34832096e+000, 2.24602580e+000, 3.08370757e+000,
          8.14868435e-002, -3.31856871e+000, -4.56995106e+000,
          -6.27368033e-001, 1.38188705e-001, 1.18073654e+000,
          3.04443932e+000, 3.30671573e+000, -2.22194586e-002,
          -3.61013031e+000, -4.92312098e+000, -6.30848527e-001,
          4.19096321e-001, 1.54986966e+000, 2.73111391e+000,
          2.98212576e+000, 2.49733791e-001, -2.98480988e+000,
          -4.23574209e+000, -8.25478196e-001, 2.40336090e-001,
          1.34455395e+000, 2.99334240e+000, 2.99537897e+000,
          2.27964491e-001, -2.94923401e+000, -4.27095222e+000,
          -6.30961657e-001, 3.80542487e-001, 1.52808857e+000,
          2.59751463e+000, 2.81230044e+000, 4.78975266e-001,
          -2.68488836e+000, -3.65330195e+000, -6.33564532e-001,
          5.69548719e-002, 1.39470840e+000, 2.31169724e+000,
          3.00777936e+000, 6.63738191e-001, -2.24679565e+000,
          -3.47359657e+000, -3.73164237e-001, 1.75304741e-001,
          1.17537999e+000, 2.56053853e+000, 3.08356547e+000,
          4.13532972e-001, -2.06731439e+000, -3.33522820e+000,
          -6.15594268e-001, 2.79592723e-001, 1.38528943e+000,
          2.20758319e+000, 2.90974188e+000, 5.66703737e-001,
          -2.01754355e+000, -3.48532319e+000, -3.81407470e-001,
          1.26146778e-001, 1.20088887e+000, 1.91697478e+000,
          2.95943046e+000, 2.26936787e-001, -3.07267714e+000,
          -4.08046341e+000, -7.82059491e-001, -7.08203688e-002,
          8.93228710e-001, 2.50151372e+000, 3.07375884e+000,
          8.50256607e-002, -3.51541615e+000, -4.49217224e+000,
          -7.70563602e-001, 3.25548142e-001, 1.45774972e+000,
          2.16793394e+000, 2.80751038e+000, 1.30035311e-001,
          -2.69819403e+000, -3.69637561e+000, -8.11994135e-001,
          -4.94514816e-002, 1.20763183e+000, 2.79409909e+000,
          3.04455447e+000, 1.42141178e-001, -3.20800948e+000,
          -4.00118542e+000, -5.99397004e-001, 4.35869157e-001,
          1.55769134e+000, 2.41358495e+000, 3.20032191e+000,
          2.23612294e-001, -2.88618374e+000, -4.54569149e+000,
          -9.17788208e-001, 1.49520263e-002, 1.29733193e+000,
          2.06175160e+000, 2.86659288e+000, 4.11231071e-001,
          -2.70578980e+000, -4.06556416e+000, -4.23593670e-001,
          2.00264052e-001, 1.19295561e+000, 2.45732284e+000,
          3.39302230e+000, 4.35207069e-001, -3.11987925e+000,
          -4.52243376e+000, -7.84967124e-001, 2.45642960e-001,
          1.28913212e+000, 1.99953341e+000, 2.95726061e+000,
          2.56549835e-001, -2.68336177e+000, -3.61692262e+000,
          -4.56185788e-001, 1.59571022e-001, 1.06040621e+000,
          2.14791584e+000, 2.79199362e+000, -3.02914083e-001,
          -3.45739365e+000, -4.24393129e+000, -8.45714808e-001,
          -1.14945449e-001, 9.78183031e-001, 2.43560839e+000,
          2.40726614e+000, -1.70297474e-001, -3.46355724e+000,
          -4.93071938e+000, -7.80369282e-001, 1.05954669e-001,
          1.20254624e+000, 2.24903226e+000, 2.72597122e+000,
          -1.30459040e-001, -3.16938710e+000, -4.23131990e+000,
          -7.19206154e-001, -7.53124654e-002, 1.23003411e+000,
          2.47755790e+000, 2.55098939e+000, 4.07197662e-002,
          -3.03273559e+000, -4.18198109e+000, -4.87187445e-001,
          2.67354995e-001, 1.35059011e+000, 2.18842268e+000,
          2.83865166e+000, 8.04286525e-002, -2.91223288e+000,
          -3.86909652e+000, -5.92622280e-001, 2.81501142e-003,
          1.02123010e+000, 2.04841709e+000, 2.49962330e+000,
          3.16203207e-001, -2.43569279e+000, -3.50634432e+000,
          -4.43274230e-001, 1.80352286e-001, 1.20482016e+000,
          2.34100342e+000, 3.08910012e+000, 6.94952071e-001,
          -3.05747414e+000, -4.52520800e+000, -7.52338231e-001,
          2.07503557e-001, 1.27419055e+000, 1.89795327e+000,
          2.69780946e+000, 5.76259017e-001, -2.55806923e+000,
          -4.07656717e+000, -5.04108489e-001, 7.64179230e-002,
          1.01025319e+000, 2.13572311e+000, 2.23261762e+000,
          -3.16081941e-001, -3.11479449e+000, -4.32563639e+000,
          -1.01510465e+000, -2.06552550e-001, 7.83522487e-001,
          2.69383383e+000, 2.43060923e+000, -2.30291307e-001,
          -3.53343129e+000, -5.24227238e+000, -7.50729144e-001,
          3.03919405e-001, 1.23392391e+000, 1.90261734e+000,
          2.50954771e+000, -3.76975626e-001, -2.86538124e+000,
          -3.66897988e+000, -9.87639904e-001, -1.54472083e-001,
          6.70239449e-001, 2.69125533e+000, 2.45902753e+000,
          4.91975062e-002, -3.25505280e+000, -4.62699556e+000,
          -6.89316034e-001, 7.21195415e-002, 1.36585855e+000,
          2.04781222e+000, 2.50759149e+000, 1.13280810e-001,
          -3.35967684e+000, -4.73386288e+000, -9.21710134e-001,
          5.19161634e-002, 8.77749503e-001, 2.45337009e+000,
          2.47281408e+000, 2.55833007e-002, -2.82764268e+000,
          -4.09986258e+000, -7.35687613e-001, 1.29973829e-001,
          1.14779782e+000, 2.43385077e+000, 2.82877016e+000,
          8.55630115e-002, -2.81188440e+000, -4.59002495e+000,
          -7.61753380e-001, 1.58057585e-001, 9.94395673e-001,
          2.24233365e+000, 2.64543915e+000, 3.01358700e-001,
          -2.58924651e+000, -3.94084096e+000, -5.24215341e-001,
          2.39873230e-001, 1.11685109e+000 ]
      - [ 3.38521361e+000, 3.53175569e+000, 1.16669774e+000,
          -2.67629957e+000, -2.45006156e+000, -9.85180140e-001,
          2.42310241e-001, 9.25342798e-001, 3.16630912e+000,
          3.58847213e+000, 1.44855416e+000, -2.92007494e+000,
          -3.12587571e+000, -1.00955772e+000, 2.73885757e-001,
          1.08150518e+000, 3.05057144e+000, 3.30010414e+000,
          9.37913656e-001, -2.85747600e+000, -2.70844698e+000,
          -9.16099429e-001, 1.09872058e-001, 5.93193233e-001,
          3.59185171e+000, 3.49176073e+000, 8.05665910e-001,
          -3.52891040e+000, -3.32524872e+000, -8.70566130e-001,
          2.67732143e-001, 1.18328321e+000, 2.83098578e+000,
          2.93519926e+000, 5.18222749e-001, -3.56339169e+000,
          -3.41869998e+000, -1.49028718e+000, -1.45908445e-001,
          9.88549948e-001, 3.07340288e+000, 3.01575851e+000,
          6.31119490e-001, -3.40946293e+000, -2.92721176e+000,
          -1.10296810e+000, 1.63167641e-001, 8.63290370e-001,
          2.86583829e+000, 3.10319042e+000, 5.30613363e-001,
          -3.22467875e+000, -2.77110004e+000, -1.14031172e+000,
          2.71713082e-002, 8.42769265e-001, 2.85190964e+000,
          2.93454885e+000, 6.96727812e-001, -2.91671801e+000,
          -2.43487453e+000, -1.11466622e+000, -8.98230448e-002,
          6.92525506e-001, 3.41115165e+000, 3.47489405e+000,
          9.89783585e-001, -3.49619961e+000, -2.87089038e+000,
          -9.89552379e-001, 5.48315346e-001, 1.05066466e+000,
          3.45555162e+000, 3.21349311e+000, 7.66276300e-001,
          -3.82033610e+000, -3.85283804e+000, -1.19933248e+000,
          2.24667639e-001, 1.12767041e+000, 3.71245384e+000,
          3.11427903e+000, 6.80752337e-001, -3.34411168e+000,
          -3.06378531e+000, -9.99665976e-001, 5.40874660e-001,
          1.38802361e+000, 3.41629839e+000, 3.05435658e+000,
          7.20940232e-001, -3.47739530e+000, -2.94889522e+000,
          -9.88516450e-001, 2.72899777e-001, 1.25115919e+000,
          3.35795188e+000, 2.87134576e+000, 4.75052088e-001,
          -3.88446140e+000, -3.38691854e+000, -1.12660146e+000,
          3.29168826e-001, 1.29092455e+000, 3.13958240e+000,
          2.95118737e+000, 2.64750600e-001, -3.63992190e+000,
          -3.01376462e+000, -9.76559818e-001, 1.76111553e-002,
          8.06594908e-001, 3.42367029e+000, 3.20592737e+000,
          7.48079240e-001, -2.94429421e+000, -2.68785834e+000,
          -9.26735282e-001, 4.19767529e-001, 1.25285566e+000,
          3.21019459e+000, 3.06451464e+000, 8.76765549e-001,
          -2.85911083e+000, -2.68112731e+000, -1.00152826e+000,
          1.95502922e-001, 9.61649597e-001, 3.46637464e+000,
          3.58727026e+000, 1.17870235e+000, -3.32707977e+000,
          -3.07833076e+000, -1.03909457e+000, 4.38254803e-001,
          1.18176830e+000, 3.67097712e+000, 3.34400916e+000,
          9.00607884e-001, -4.10864210e+000, -3.57940054e+000,
          -5.86128294e-001, 6.40351772e-001, 1.48579550e+000,
          3.27155423e+000, 3.36055708e+000, 3.83274227e-001,
          -4.44757843e+000, -4.28018713e+000, -1.41816938e+000,
          9.14605856e-002, 1.03298044e+000, 3.45024037e+000,
          2.77558565e+000, 1.36427388e-001, -4.21253729e+000,
          -4.35837078e+000, -1.09066594e+000, 1.97394654e-001,
          1.00945008e+000, 3.02300620e+000, 3.18212891e+000,
          5.58741152e-001, -4.20561123e+000, -3.83330512e+000,
          -1.27124536e+000, -4.12779599e-002, 8.55584383e-001,
          3.20206332e+000, 2.81650782e+000, 2.43596122e-001,
          -3.80464554e+000, -3.47166157e+000, -1.06749201e+000,
          1.72912821e-001, 9.72738743e-001, 3.18144846e+000,
          3.23737860e+000, 5.95429540e-001, -4.39044094e+000,
          -4.12797689e+000, -1.22873902e+000, 1.04757100e-001,
          1.00739801e+000, 3.00560522e+000, 2.61183310e+000,
          -1.37857020e-001, -4.32247543e+000, -3.81989169e+000,
          -1.40117311e+000, -7.58565888e-002, 7.76716828e-001,
          3.10412550e+000, 2.92320132e+000, 3.54861528e-001,
          -3.22674417e+000, -3.00455499e+000, -1.15234780e+000,
          7.12483823e-002, 6.83667183e-001, 3.21400833e+000,
          3.44682527e+000, 9.80430961e-001, -3.30298138e+000,
          -2.68323755e+000, -9.46225643e-001, 3.08787733e-001,
          9.70235169e-001, 3.30134320e+000, 2.51013780e+000,
          3.70055914e-001, -3.16182780e+000, -2.78145838e+000,
          -1.07992733e+000, -3.07969078e-002, 9.16310966e-001,
          3.34793162e+000, 3.45845437e+000, 1.00791228e+000,
          -2.77014828e+000, -2.85729885e+000, -9.91201222e-001,
          5.70520341e-001, 1.24992156e+000, 3.37638068e+000,
          3.11673164e+000, 4.87441748e-001, -3.16305089e+000,
          -2.66124630e+000, -7.16445386e-001, 5.69331050e-001,
          1.60720932e+000, 2.40874195e+000, 2.66514111e+000,
          3.05162817e-001, -4.01153946e+000, -3.67970276e+000,
          -1.37119901e+000, -1.49405137e-001, 4.08946991e-001,
          3.36380839e+000, 3.14634776e+000, 7.68578887e-001,
          -3.69813609e+000, -3.45737267e+000, -1.10474765e+000,
          4.60612923e-001, 1.27273667e+000, 2.73755717e+000,
          2.83675957e+000, 5.30258894e-001, -3.48132348e+000,
          -3.55461407e+000, -1.37049425e+000, -1.44803360e-001,
          6.62314653e-001, 3.11029124e+000, 3.20996165e+000,
          6.16408348e-001, -2.78776312e+000, -2.12637591e+000,
          -6.88542485e-001, 2.88291216e-001, 9.40825999e-001,
          3.54485536e+000, 3.52693987e+000, 9.32950497e-001,
          -2.75413036e+000, -2.76909900e+000, -7.68335819e-001,
          4.40781593e-001, 1.31373739e+000, 3.12403297e+000,
          2.99548864e+000, 5.63829660e-001, -2.87893367e+000,
          -2.62292314e+000, -9.34877992e-001, 3.98954451e-001,
          1.01703405e+000, 3.39191723e+000, 3.20453835e+000,
          7.11750627e-001, -2.94387317e+000, -2.76558566e+000,
          -1.03004682e+000, 4.64569479e-001, 1.27467811e+000,
          2.85153723e+000, 2.92999101e+000, 5.28328180e-001,
          -3.06997514e+000, -2.48385167e+000, -8.58133078e-001,
          1.51798129e-001, 8.74583960e-001, 2.92823935e+000,
          3.17783833e+000, 8.88206780e-001, -2.99716783e+000,
          -2.56240082e+000, -7.78019309e-001, 2.32607886e-001,
          1.10786808e+000, 3.46335340e+000, 3.37071395e+000,
          1.05675852e+000, -2.97003484e+000, -2.66585469e+000,
          -6.71954453e-001, 6.47886753e-001, 1.42927551e+000,
          2.85755849e+000, 3.13889098e+000, 9.23436761e-001,
          -3.39495420e+000, -3.15078950e+000, -9.64000046e-001,
          1.76952988e-001, 9.14578319e-001, 3.23520350e+000,
          3.22076678e+000, 5.07469475e-001, -3.91513777e+000,
          -3.51274371e+000, -9.82644439e-001, 2.90362448e-001,
          1.16454875e+000, 3.20350599e+000, 3.18717027e+000,
          4.67525691e-001, -4.16465378e+000, -3.71876454e+000,
          -1.14284396e+000, 2.69940943e-001, 1.14324331e+000,
          3.08225799e+000, 2.88546085e+000, 4.55957949e-001,
          -4.55641317e+000, -4.32367563e+000, -1.10699093e+000,
          3.03066790e-001, 1.24009228e+000, 2.97501707e+000,
          2.97018719e+000, 5.24886429e-001, -4.13084078e+000,
          -3.75130296e+000, -1.06883276e+000, 2.35323817e-001,
          1.00273263e+000, 3.25230312e+000, 3.21527600e+000,
          3.69386375e-001, -4.05503511e+000, -3.97698903e+000,
          -1.19929647e+000, 2.40678579e-001, 1.19645953e+000,
          2.79276109e+000, 3.07219982e+000, 6.65469408e-001,
          -4.05968285e+000, -3.76641393e+000, -1.16979492e+000,
          2.56123036e-001, 9.74791706e-001, 3.23573661e+000,
          3.49279690e+000, 6.98106110e-001, -3.92596698e+000,
          -3.50161123e+000, -1.10626006e+000, 5.60362577e-001,
          1.31690121e+000, 2.47463918e+000, 2.88234711e+000,
          5.18653870e-001, -3.80940485e+000, -3.56194115e+000,
          -1.12712264e+000, 3.53140198e-002, 4.27190930e-001,
          2.60539675e+000, 2.74928212e+000, 2.04269752e-001,
          -3.32459807e+000, -2.61510348e+000, -1.00564957e+000,
          1.03616476e-001, 7.23158062e-001, 3.22312689e+000,
          2.77730203e+000, 4.73184645e-001, -3.59849024e+000,
          -3.37706256e+000, -1.01934111e+000, 1.98192731e-001,
          9.15126801e-001, 2.69103122e+000, 2.73160410e+000,
          1.22277863e-001, -4.23363495e+000, -4.17955589e+000,
          -1.58421075e+000, -2.83344895e-001, 5.50234079e-001,
          3.28509879e+000, 2.74188828e+000, 5.34552515e-001,
          -3.67541265e+000, -3.42536020e+000, -1.25645840e+000,
          1.38163015e-001, 1.15033901e+000, 3.01364946e+000,
          3.01778841e+000, 5.90291381e-001, -3.50950027e+000,
          -2.86165714e+000, -8.39853168e-001, 3.14629227e-001,
          1.06797540e+000, 2.15492964e+000, 2.38176990e+000,
          5.46304941e-001, -3.40722299e+000, -3.53923702e+000,
          -1.35803723e+000, -3.18494797e-001, 1.88068226e-001,
          2.89872193e+000, 2.96818328e+000, 6.79486394e-001,
          -4.22587156e+000, -3.68009758e+000, -1.15385926e+000,
          2.27198839e-001, 1.19388521e+000, 2.18508673e+000,
          2.62078667e+000, 6.71849728e-001, -3.37833524e+000,
          -3.19085836e+000, -1.19000304e+000, -3.08362171e-002,
          3.65556061e-001, 2.47595263e+000, 2.19535136e+000,
          -2.38109708e-001, -3.35737348e+000, -2.89146495e+000,
          -1.27558744e+000, -2.22215638e-001, 3.06541622e-001,
          3.12036538e+000, 2.33411789e+000, 2.84325355e-003,
          -4.11383629e+000, -4.03924656e+000, -1.24004185e+000,
          6.44164011e-002, 7.12608278e-001, 2.76722860e+000,
          2.68979120e+000, 1.04359306e-001, -3.19133472e+000,
          -3.00874901e+000, -1.24780989e+000, -2.51177162e-001,
          3.81723344e-001, 3.32271624e+000, 2.44345713e+000,
          2.26012915e-001, -3.27929020e+000, -2.75913525e+000,
          -9.68110502e-001, 2.57158577e-001, 1.08733475e+000,
          2.69312382e+000, 2.55673647e+000, 6.84161484e-002,
          -3.76960206e+000, -2.58040237e+000, -1.00167656e+000,
          3.57464515e-002, 6.35167658e-001, 2.96184063e+000,
          2.17209864e+000, 2.33329758e-001, -3.60014057e+000,
          -3.12840486e+000, -1.09532547e+000, 1.08289011e-001,
          9.33750391e-001, 3.10762525e+000, 2.93591022e+000,
          6.51272476e-001, -2.91145897e+000, -2.85568666e+000,
          -1.05811727e+000, 1.95336074e-001, 9.30484056e-001,
          2.32454491e+000, 2.49385190e+000, 3.59757781e-001,
          -3.28645563e+000, -3.04869056e+000, -1.12172258e+000,
          -2.12606844e-002, 3.72224510e-001 ]
      - [ 9.49410725e+000, 8.26487541e+000, -4.71686792e+000,
          -3.03974295e+000, -3.89035916e+000, -1.09991348e+000,
          -6.64406359e-001, 4.84478283e+000, 6.63363123e+000,
          8.81863403e+000, -3.09701061e+000, -2.98133755e+000,
          -4.98366261e+000, -2.35843992e+000, -1.01993322e+000,
          4.04530096e+000, 8.73883629e+000, 8.06843185e+000,
          -5.59443474e+000, -3.60713887e+000, -4.82853508e+000,
          -2.24284196e+000, -2.20794392e+000, 2.77739954e+000,
          7.21027946e+000, 5.33461332e+000, -4.63679171e+000,
          -3.38946891e+000, -4.66420507e+000, -1.30132782e+000,
          -9.95323241e-001, 3.88000798e+000, 7.03684664e+000,
          6.64636946e+000, -6.29663706e+000, -2.57348013e+000,
          -4.17776966e+000, -1.46278954e+000, -2.24685028e-001,
          4.33927441e+000, 7.95015574e+000, 6.92510128e+000,
          -6.49420691e+000, -3.48305345e+000, -3.79386234e+000,
          -1.25100029e+000, -8.93455327e-001, 4.38641167e+000,
          8.03087997e+000, 6.41206884e+000, -5.54476404e+000,
          -3.50975299e+000, -4.94164896e+000, -2.39866757e+000,
          -1.58165991e+000, 4.07963657e+000, 6.68699694e+000,
          6.33159399e+000, -7.85540771e+000, -4.11485624e+000,
          -5.11105680e+000, -2.94364858e+000, -2.90221095e+000,
          2.28289342e+000, 8.79265308e+000, 7.42172337e+000,
          -3.54792404e+000, -1.85374880e+000, -4.12036657e+000,
          -1.72316420e+000, 3.98161411e-001, 5.21337891e+000,
          8.48581123e+000, 7.54534388e+000, -6.41415930e+000,
          -2.72158122e+000, -4.13816547e+000, -1.93802679e+000,
          -1.25724661e+000, 3.43972135e+000, 8.93052006e+000,
          6.13450050e+000, -4.02996397e+000, -2.57694983e+000,
          -4.63313961e+000, -2.56124520e+000, -1.41159177e+000,
          4.02951336e+000, 7.45192003e+000, 7.05973434e+000,
          -5.66582155e+000, -2.91144848e+000, -4.19020605e+000,
          -1.97702575e+000, -1.29786336e+000, 3.65862656e+000,
          7.72629690e+000, 5.06825113e+000, -8.91845226e+000,
          -3.64010787e+000, -3.84616685e+000, -1.48000395e+000,
          -7.76336968e-001, 4.19617510e+000, 7.60004616e+000,
          5.70237541e+000, -5.18633223e+000, -3.11092687e+000,
          -4.07251644e+000, -2.00334048e+000, -8.70965660e-001,
          4.02744532e+000, 7.52713299e+000, 5.03760433e+000,
          -8.68950558e+000, -3.99888182e+000, -4.51788330e+000,
          -2.36349821e+000, -1.92475176e+000, 3.04671144e+000,
          7.85187531e+000, 4.88013124e+000, -7.13583136e+000,
          -3.45823908e+000, -5.01694489e+000, -2.24331880e+000,
          -1.14151537e+000, 3.72748184e+000, 9.46668053e+000,
          7.26152372e+000, -5.55445337e+000, -3.18931365e+000,
          -4.83287621e+000, -1.90865970e+000, -8.35593641e-001,
          4.18737507e+000, 8.44917107e+000, 9.66538429e+000,
          -2.61855650e+000, -1.92204332e+000, -3.61130476e+000,
          -1.44949400e+000, -1.19244719e+000, 3.96393704e+000,
          6.83846807e+000, 5.75762844e+000, -6.75801945e+000,
          -3.58373356e+000, -4.80368233e+000, -2.13463807e+000,
          -6.90255046e-001, 4.25538397e+000, 7.57882738e+000,
          4.33769560e+000, -8.75087929e+000, -2.69913936e+000,
          -3.82121444e+000, -1.79862785e+000, -9.10713971e-001,
          4.22688103e+000, 7.14514303e+000, 7.52631855e+000,
          -4.58394003e+000, -3.93223763e+000, -4.72963953e+000,
          -1.79546285e+000, -7.85905778e-001, 3.28397822e+000,
          8.78426743e+000, 5.68969154e+000, -8.02831078e+000,
          -3.01922536e+000, -4.22318268e+000, -1.43479931e+000,
          -9.18275267e-002, 4.45217562e+000, 6.42058277e+000,
          7.80896711e+000, -3.49728155e+000, -2.75429177e+000,
          -4.17687845e+000, -1.41179669e+000, -1.57730007e+000,
          3.47374463e+000, 7.26380777e+000, 4.60998774e+000,
          -7.79969978e+000, -4.34588528e+000, -4.68828344e+000,
          -1.18160784e+000, 1.67072237e-001, 4.89877033e+000,
          9.02998638e+000, 6.90026522e+000, -5.29574060e+000,
          -2.87144446e+000, -4.81492424e+000, -2.50279188e+000,
          -1.31962132e+000, 4.13910627e+000, 7.55033684e+000,
          7.72762489e+000, -3.56466269e+000, -3.49074101e+000,
          -5.43142557e+000, -2.38897347e+000, -1.36219728e+000,
          3.58342791e+000, 7.92308617e+000, 3.58517718e+000,
          -8.62667656e+000, -3.94811463e+000, -4.47046518e+000,
          -1.08669960e+000, -4.17437524e-001, 4.47365332e+000,
          7.99947548e+000, 7.61994600e+000, -6.09489489e+000,
          -2.76709843e+000, -4.23811340e+000, -1.55762708e+000,
          -1.63328812e-001, 4.18224812e+000, 7.21669245e+000,
          6.62963820e+000, -4.23695230e+000, -2.65434217e+000,
          -4.59981251e+000, -1.45402658e+000, -2.64963776e-001,
          4.08960772e+000, 7.81902981e+000, 6.56051350e+000,
          -6.05991030e+000, -3.64465094e+000, -5.24619293e+000,
          -2.55372596e+000, -2.20369625e+000, 3.48451090e+000,
          7.79802322e+000, 6.90886116e+000, -4.70769501e+000,
          -3.31576586e+000, -4.42607689e+000, -2.06499839e+000,
          -1.80189282e-001, 4.55709743e+000, 7.88351536e+000,
          3.36310267e+000, -8.42980289e+000, -3.96087575e+000,
          -4.19916916e+000, -9.21664536e-001, -6.17546678e-001,
          4.44656086e+000, 7.89747524e+000, 5.09349728e+000,
          -5.69778156e+000, -3.17058086e+000, -4.67341805e+000,
          -2.69770908e+000, -1.74607086e+000, 3.09598899e+000,
          8.95791531e+000, 8.33053970e+000, -4.28854227e+000,
          -2.96174455e+000, -4.82018614e+000, -1.99945426e+000,
          -9.26792175e-002, 4.70527124e+000, 7.51956987e+000,
          6.16398621e+000, -8.40027428e+000, -3.72500610e+000,
          -4.50800323e+000, -2.37202573e+000, -1.55548644e+000,
          3.65199280e+000, 7.25557232e+000, 3.10130167e+000,
          -9.73570728e+000, -4.49356461e+000, -4.66704130e+000,
          -1.22206998e+000, -1.94048826e-002, 4.37125301e+000,
          6.45615530e+000, 7.06290579e+000, -9.69280243e+000,
          -4.21479750e+000, -4.36527777e+000, -1.75877225e+000,
          -1.07178807e+000, 3.70955038e+000, 7.07562256e+000,
          5.96532202e+000, -4.85264111e+000, -2.95745277e+000,
          -4.25907898e+000, -2.30945325e+000, -1.78939402e+000,
          3.84361696e+000, 6.86097193e+000, 6.29494286e+000,
          -4.58172655e+000, -2.56782103e+000, -4.76330996e+000,
          -2.17124891e+000, -1.07185519e+000, 3.64029169e+000,
          7.69898939e+000, 7.50783539e+000, -7.52363729e+000,
          -3.83679843e+000, -4.64306068e+000, -1.57626653e+000,
          -1.37067854e+000, 4.20431948e+000, 8.37918472e+000,
          7.28348446e+000, -6.28585434e+000, -3.75709844e+000,
          -5.12030697e+000, -2.04274201e+000, -9.90923584e-001,
          4.64149427e+000, 7.29134941e+000, 6.27259588e+000,
          -5.54024744e+000, -3.87962914e+000, -5.48759651e+000,
          -2.10049009e+000, -7.20590234e-001, 3.74792433e+000,
          7.45407295e+000, 3.42343354e+000, -6.72702265e+000,
          -3.69229650e+000, -4.89421606e+000, -2.61320949e+000,
          -2.02697229e+000, 3.48346233e+000, 8.44297600e+000,
          7.85161734e+000, -4.53314352e+000, -2.75004292e+000,
          -3.99855137e+000, -1.44588828e+000, 1.04475923e-001,
          4.52921104e+000, 6.89214134e+000, 5.69239140e+000,
          -7.10296392e+000, -3.70463324e+000, -5.32028913e+000,
          -2.66860104e+000, -9.35097456e-001, 4.39701891e+000,
          7.13399792e+000, 6.71705866e+000, -6.99454927e+000,
          -3.67219162e+000, -4.44724083e+000, -1.38712323e+000,
          -5.35112023e-001, 4.77149487e+000, 6.28138447e+000,
          6.26184034e+000, -6.41339064e+000, -4.34207773e+000,
          -5.09142303e+000, -2.09844661e+000, -1.23549569e+000,
          3.64325690e+000, 7.08635092e+000, 5.26660442e+000,
          -7.18203926e+000, -3.32259774e+000, -5.10562801e+000,
          -2.01449585e+000, -1.82682633e+000, 3.04110861e+000,
          7.30043077e+000, 5.01893520e+000, -6.79820299e+000,
          -2.86333060e+000, -4.18637419e+000, -2.33180213e+000,
          -6.50551260e-001, 4.77030039e+000, 7.59692955e+000,
          5.78331232e+000, -1.03473301e+001, -4.01146603e+000,
          -5.18290281e+000, -2.55453610e+000, -1.55813193e+000,
          3.32974458e+000, 8.36929131e+000, 7.40034056e+000,
          -3.98051214e+000, -3.31578636e+000, -4.45368242e+000,
          -1.88613415e+000, -8.54067564e-001, 4.64289188e+000,
          7.05508089e+000, 6.14920998e+000, -6.72494364e+000,
          -4.41074276e+000, -6.31054735e+000, -2.62405348e+000,
          -2.25604677e+000, 2.92267513e+000, 6.80124187e+000,
          5.23377180e+000, -8.41813755e+000, -3.50668383e+000,
          -3.99657178e+000, -1.04718351e+000, -3.17344010e-001,
          3.75443006e+000, 7.56628370e+000, 4.22980547e+000,
          -6.70771503e+000, -3.39704108e+000, -4.95783186e+000,
          -2.06085992e+000, -4.97348547e-001, 4.43229198e+000,
          6.97668219e+000, 6.35031128e+000, -9.54446983e+000,
          -4.24015617e+000, -4.56393576e+000, -2.09519911e+000,
          -1.19499481e+000, 3.39180017e+000, 6.88690424e+000,
          4.98194647e+000, -6.04658508e+000, -4.09740067e+000,
          -4.60234261e+000, -1.72895408e+000, -1.33806431e+000,
          2.98176765e+000, 7.29517651e+000, 2.77505398e+000,
          -9.84360886e+000, -4.76884460e+000, -5.70877123e+000,
          -2.12843299e+000, -1.29033887e+000, 2.99147701e+000,
          8.30768967e+000, 6.74013805e+000, -4.96248579e+000,
          -3.99169993e+000, -4.62561226e+000, -1.97613347e+000,
          -9.68643069e-001, 3.67098308e+000, 7.54036283e+000,
          4.33434248e+000, -8.71177387e+000, -3.63919950e+000,
          -3.94962597e+000, -1.72904348e+000, -7.20007658e-001,
          3.92543674e+000, 8.25896549e+000, 3.34776855e+000,
          -1.11315479e+001, -3.96031046e+000, -4.67986822e+000,
          -1.79243314e+000, -1.24207401e+000, 4.47290182e+000,
          6.32506514e+000, 5.74376345e+000, -7.60593510e+000,
          -4.90578461e+000, -5.29916859e+000, -2.39190364e+000,
          -1.04238355e+000, 3.41287613e+000, 7.13329363e+000,
          2.52098036e+000, -9.40333939e+000, -5.00424576e+000,
          -5.05754900e+000, -1.93203545e+000, -1.13094234e+000,
          3.66109014e+000, 7.34897137e+000, 8.04890156e+000,
          -3.79374552e+000, -3.28395772e+000, -5.46812057e+000,
          -2.33491898e+000, -1.65488672e+000, 2.87161374e+000,
          6.32309866e+000, 3.09476781e+000, -7.63251925e+000,
          -4.22477102e+000, -4.87727880e+000, -1.26036215e+000,
          -2.41229072e-001, 3.99171853e+000 ]
      - [ 2.27846193e+000, 3.02455688e+000, 5.02990596e-002,
          -1.98949218e+000, -4.46743345e+000, 3.00807029e-001,
          6.07960999e-001, 3.09905696e+000, 2.24920344e+000,
          3.05978298e+000, 6.76785037e-002, -2.79142809e+000,
          -5.80151081e+000, 6.06877327e-001, 8.44331205e-001,
          3.15457058e+000, 2.45571613e+000, 3.57145381e+000,
          8.60926688e-001, -2.46001673e+000, -6.23049927e+000,
          -9.13034305e-002, 4.62199658e-001, 3.01233101e+000,
          3.01939988e+000, 3.32828760e+000, 2.03177989e-001,
          -2.51504016e+000, -5.71974897e+000, -2.13045537e-001,
          6.09874845e-001, 3.56323743e+000, 2.13522005e+000,
          2.86328506e+000, 1.19695216e-001, -2.13647270e+000,
          -5.37323809e+000, -2.82924056e-001, 4.97538447e-001,
          3.01864696e+000, 2.54846382e+000, 2.96936178e+000,
          -5.65156758e-001, -4.27371597e+000, -6.81443644e+000,
          -4.07611430e-001, 2.47710839e-001, 2.70677638e+000,
          2.92074323e+000, 3.31141210e+000, -2.74143249e-001,
          -3.07005000e+000, -6.04992485e+000, -2.42267132e-001,
          9.05656576e-001, 3.82345915e+000, 2.14647913e+000,
          2.90956426e+000, 2.42800862e-002, -2.74295831e+000,
          -5.72758198e+000, 2.35948358e-002, 5.77615261e-001,
          2.83355498e+000, 2.63536930e+000, 3.00829124e+000,
          -1.45461589e-001, -2.51038337e+000, -5.39916372e+000,
          1.81732088e-001, 7.63274252e-001, 3.23601174e+000,
          2.15253973e+000, 3.07930803e+000, 6.26075327e-001,
          -2.99271226e+000, -6.11820078e+000, 5.30431122e-002,
          5.80789864e-001, 2.86973906e+000, 2.30867529e+000,
          3.04266334e+000, 2.87340939e-001, -2.84118080e+000,
          -5.67215776e+000, 3.83560121e-001, 5.37748754e-001,
          3.17989016e+000, 2.58456516e+000, 3.38472247e+000,
          2.13895753e-001, -3.38482332e+000, -6.54186630e+000,
          -5.61805546e-001, 1.81178436e-001, 3.36382127e+000,
          2.36967826e+000, 2.92775440e+000, -2.90245060e-002,
          -2.62423015e+000, -5.79284191e+000, -3.93610716e-001,
          3.36176306e-001, 3.24106026e+000, 2.74915791e+000,
          2.76772785e+000, -6.23603225e-001, -3.95605421e+000,
          -6.12983847e+000, -2.23251313e-001, 5.98100066e-001,
          3.48577356e+000, 2.43625093e+000, 2.57727838e+000,
          -1.62306607e-001, -2.58016014e+000, -5.12225819e+000,
          7.93824531e-003, 6.94845498e-001, 3.58604264e+000,
          2.40968037e+000, 2.69276690e+000, -2.84529954e-001,
          -2.81245971e+000, -6.14444637e+000, -5.86450279e-001,
          3.66520077e-001, 3.10113311e+000, 1.89450502e+000,
          2.75747275e+000, 1.35207146e-001, -2.21825123e+000,
          -5.41587210e+000, -3.52535620e-002, 1.91004589e-001,
          2.91828322e+000, 1.88051891e+000, 2.77560925e+000,
          7.13137239e-002, -2.93176103e+000, -6.83483839e+000,
          -7.03146979e-002, 5.34664989e-001, 2.73285556e+000,
          2.12500787e+000, 2.49504304e+000, -4.96610701e-001,
          -3.07302999e+000, -6.30689859e+000, -9.22466069e-002,
          1.76801115e-001, 2.84842348e+000, 2.24500680e+000,
          2.69284034e+000, -3.65638703e-001, -2.66840839e+000,
          -5.91644812e+000, -1.53036758e-001, 6.82548344e-001,
          3.51695371e+000, 1.53046954e+000, 2.35639429e+000,
          -1.65693298e-001, -2.15447021e+000, -5.40922737e+000,
          -5.61804958e-002, 1.30698502e-001, 2.45794606e+000,
          2.66873121e+000, 3.47457719e+000, 8.63073230e-001,
          -1.73177516e+000, -5.25842094e+000, 8.83466303e-002,
          6.01374984e-001, 3.21702409e+000, 2.24453330e+000,
          2.91163087e+000, -1.24925435e-001, -2.84437037e+000,
          -6.22060204e+000, -1.83534682e-001, 6.31303966e-001,
          2.98578119e+000, 2.15798020e+000, 3.26238561e+000,
          4.12647218e-001, -2.54023743e+000, -5.97574234e+000,
          -3.70377958e-001, 2.79220581e-001, 2.95808077e+000,
          2.60780215e+000, 3.73504162e+000, 8.76491725e-001,
          -3.12278843e+000, -6.86773539e+000, -5.43902397e-001,
          1.49639994e-001, 3.01494956e+000, 2.47006369e+000,
          3.57221293e+000, 3.81090581e-001, -3.77748561e+000,
          -7.96940279e+000, -4.87332612e-001, 5.68572938e-001,
          3.25122523e+000, 2.67925835e+000, 3.42573357e+000,
          4.20279562e-001, -3.17733121e+000, -6.37584019e+000,
          -5.19037604e-001, 3.01672012e-001, 3.46840668e+000,
          2.35404897e+000, 3.00008774e+000, 4.64222580e-001,
          -3.43348718e+000, -7.31677818e+000, -1.75806105e-001,
          7.77898848e-001, 3.45710111e+000, 2.40429902e+000,
          3.25573373e+000, 1.31624639e+000, -1.67604232e+000,
          -4.89558840e+000, 1.05412684e-001, 5.10916352e-001,
          2.83473468e+000, 2.15776873e+000, 3.23797059e+000,
          1.51875652e-002, -2.94720221e+000, -5.63786125e+000,
          2.66639322e-001, 1.16799545e+000, 3.41500592e+000,
          2.70178652e+000, 3.68264318e+000, 4.08320278e-001,
          -3.81160331e+000, -7.79068899e+000, -9.09078419e-001,
          2.89792597e-001, 2.74862099e+000, 2.41540885e+000,
          3.35019851e+000, 2.59817898e-001, -2.66712713e+000,
          -5.77953482e+000, 1.04767978e-001, 5.50554693e-001,
          3.28084302e+000, 1.76237059e+000, 3.20434976e+000,
          3.18188965e-001, -3.35279131e+000, -7.26868486e+000,
          -3.86662513e-001, 2.69899637e-001, 2.57363057e+000,
          2.32105708e+000, 3.55363417e+000, 8.23656857e-001,
          -3.61180019e+000, -7.45280933e+000, -5.66412628e-001,
          5.10810971e-001, 3.01205349e+000, 2.33279681e+000,
          3.61946559e+000, 1.21420610e+000, -2.89601231e+000,
          -6.51163244e+000, -2.46208441e-002, 7.95843601e-001,
          2.86208820e+000, 2.29173517e+000, 3.14012241e+000,
          3.80983144e-001, -3.20551634e+000, -6.74677038e+000,
          -1.14434855e-002, 9.85671639e-001, 4.03607893e+000,
          2.70922780e+000, 3.16497922e+000, 1.21254838e+000,
          -2.57762551e+000, -6.03242302e+000, 2.15228051e-001,
          9.07519162e-001, 4.27065897e+000, 1.68740964e+000,
          2.99068522e+000, 5.47784865e-001, -1.97733760e+000,
          -5.62917089e+000, 3.50151598e-001, 7.45157957e-001,
          2.72862387e+000, 2.77099037e+000, 3.43498063e+000,
          6.49665073e-002, -4.02392197e+000, -6.58658218e+000,
          -2.84114212e-001, 6.46934032e-001, 3.17666078e+000,
          2.56868577e+000, 3.49837255e+000, 2.95521587e-001,
          -2.24685502e+000, -5.39147997e+000, 1.35259897e-001,
          8.51168215e-001, 3.58447433e+000, 1.11946619e+000,
          3.05833888e+000, 8.92627418e-001, -2.93975735e+000,
          -6.67560196e+000, -8.23795617e-001, -1.17229126e-001,
          2.18013716e+000, 1.96741974e+000, 3.25235939e+000,
          5.60261786e-001, -4.02799892e+000, -8.30173492e+000,
          -1.00977087e+000, 1.11239426e-001, 2.62414622e+000,
          1.58187532e+000, 2.83137393e+000, 6.40468359e-001,
          -2.39236593e+000, -5.61062193e+000, 5.10084704e-002,
          8.69137228e-001, 2.72281623e+000, 2.75840211e+000,
          3.24173856e+000, 3.25109333e-001, -3.76235509e+000,
          -6.99887228e+000, -1.13397226e-001, 8.36253047e-001,
          3.78230000e+000, 2.54317713e+000, 3.07077336e+000,
          -7.93164223e-003, -3.85294318e+000, -6.33047295e+000,
          9.45586786e-002, 9.32216585e-001, 4.02281761e+000,
          2.10206842e+000, 3.01372480e+000, 2.73926437e-001,
          -3.70708776e+000, -7.03183365e+000, 7.44204149e-002,
          9.65385616e-001, 3.95815110e+000, 3.09713531e+000,
          3.95390797e+000, 6.79632485e-001, -3.32649851e+000,
          -6.91832304e+000, -9.63758007e-002, 1.01536226e+000,
          4.01883078e+000, 2.31215453e+000, 3.09873366e+000,
          -2.93862164e-001, -3.61654639e+000, -6.51385832e+000,
          -2.88888991e-001, 4.72676754e-001, 3.38807201e+000,
          2.29147911e+000, 3.83004427e+000, 7.63336003e-001,
          -3.61786509e+000, -7.06426430e+000, -5.03721476e-001,
          1.75249800e-001, 2.70514870e+000, 2.11474752e+000,
          3.47980618e+000, 7.58549213e-001, -4.33938980e+000,
          -8.87820339e+000, -1.03019965e+000, -9.83752757e-002,
          2.64984536e+000, 1.48566818e+000, 2.62545156e+000,
          1.90998659e-001, -3.31533933e+000, -7.23736286e+000,
          -3.51806760e-001, 4.21288610e-001, 3.02050877e+000,
          2.42434359e+000, 2.89573169e+000, 2.15569139e-001,
          -3.37405467e+000, -6.82625055e+000, 1.84039712e-001,
          1.11629021e+000, 3.74416018e+000, 1.86263621e+000,
          2.78271079e+000, -1.18965901e-001, -3.31590343e+000,
          -5.76146507e+000, 1.86845094e-001, 8.33896220e-001,
          3.22819614e+000, 1.98322225e+000, 3.32372761e+000,
          7.36237288e-001, -2.63381362e+000, -5.34543037e+000,
          3.66331726e-001, 1.04381299e+000, 3.21668339e+000,
          2.61243081e+000, 4.43494129e+000, 1.75665450e+000,
          -2.67585301e+000, -6.55655098e+000, -8.87727290e-002,
          6.75092101e-001, 3.23989916e+000, 2.23099613e+000,
          3.65692759e+000, 7.06958175e-001, -3.31673622e+000,
          -6.45246315e+000, -2.53138632e-001, 5.51750422e-001,
          2.95186067e+000, 1.93154371e+000, 3.15666461e+000,
          8.88015509e-001, -3.61928558e+000, -7.40466309e+000,
          -8.95347178e-001, -5.50855231e-003, 2.17854929e+000,
          2.29478455e+000, 3.72664070e+000, 8.67114604e-001,
          -4.63042927e+000, -9.28603554e+000, -9.23720777e-001,
          3.15449238e-001, 2.75820541e+000, 1.15538001e+000,
          2.89289904e+000, 4.29667979e-001, -3.64443541e+000,
          -6.83035803e+000, -7.98923612e-001, 3.42437148e-001,
          2.13296127e+000, 2.24387383e+000, 3.52502203e+000,
          8.35678756e-001, -3.30691266e+000, -6.92030811e+000,
          -2.28899941e-002, 8.30164194e-001, 3.21076012e+000,
          1.88057923e+000, 2.56710148e+000, 5.45157492e-001,
          -3.98765373e+000, -8.07263756e+000, -8.97572190e-002,
          1.23535395e+000, 3.74529099e+000, 2.74521089e+000,
          3.47360015e+000, 9.87491846e-001, -2.84320474e+000,
          -6.37852907e+000, 5.61372340e-001, 1.64794087e+000,
          4.02210712e+000, 3.04013729e+000, 4.15850353e+000,
          1.39973116e+000, -2.53098321e+000, -6.69777489e+000,
          1.32037103e-001, 1.00861752e+000, 3.15936565e+000,
          2.42003846e+000, 3.81392384e+000, 9.52567577e-001,
          -2.33341384e+000, -5.73886776e+000, 6.53120801e-002,
          7.81302512e-001, 3.05744314e+000 ]
      - [ 3.52175856e+000, 3.31131220e+000, 8.93149555e-001,
          -4.21749020e+000, -4.48813295e+000, -1.11381793e+000,
          4.66424406e-001, 2.70982552e+000, 3.33218527e+000,
          3.10016537e+000, 1.40690517e+000, -4.32463217e+000,
          -5.66346931e+000, -6.66000426e-001, 5.90493739e-001,
          3.20357180e+000, 2.81893539e+000, 3.03382277e+000,
          1.30640173e+000, -4.02080631e+000, -4.40643263e+000,
          -1.40945649e+000, -5.10305107e-001, 2.14832449e+000,
          4.15924549e+000, 3.59505725e+000, 1.13144481e+000,
          -5.41785192e+000, -5.86749268e+000, -1.62731612e+000,
          4.79545802e-001, 3.64678264e+000, 3.71686506e+000,
          2.94659615e+000, 7.35850334e-001, -5.55505657e+000,
          -6.96042204e+000, -2.30068994e+000, 1.19146585e-001,
          3.05473280e+000, 4.12676811e+000, 3.17146134e+000,
          2.05201283e-001, -6.00121212e+000, -6.47144699e+000,
          -1.97941434e+000, 7.28789996e-003, 2.56653619e+000,
          3.43321395e+000, 3.38009477e+000, 6.49230182e-001,
          -4.99095917e+000, -5.13284111e+000, -1.46789718e+000,
          6.69761837e-001, 3.13200617e+000, 2.85673213e+000,
          2.88304734e+000, 4.79574949e-001, -4.70794106e+000,
          -5.22701359e+000, -1.79864597e+000, -4.64954861e-002,
          1.85817420e+000, 3.91019845e+000, 3.15622830e+000,
          3.30648512e-001, -5.45834446e+000, -5.50670481e+000,
          -8.28963876e-001, 1.12846005e+000, 3.18041015e+000,
          3.32180429e+000, 3.15490270e+000, 1.59871042e+000,
          -5.52282619e+000, -6.92761326e+000, -1.28739071e+000,
          5.81478834e-001, 2.90130877e+000, 4.01354551e+000,
          3.50286794e+000, 1.11964190e+000, -4.42188978e+000,
          -4.63174772e+000, -1.84738278e-001, 1.11274743e+000,
          3.58520055e+000, 3.92869973e+000, 3.53501463e+000,
          1.12096882e+000, -5.87752295e+000, -6.49696445e+000,
          -1.71200633e+000, 1.84236586e-001, 3.53659463e+000,
          3.14850593e+000, 2.93004823e+000, 7.51957893e-001,
          -5.68130922e+000, -6.23710918e+000, -1.57780731e+000,
          4.22224015e-001, 3.11360645e+000, 4.41303444e+000,
          3.42360353e+000, -7.03561902e-002, -6.29228687e+000,
          -5.66436720e+000, -1.50890350e+000, 6.89523637e-001,
          3.75028825e+000, 3.19065547e+000, 2.66146731e+000,
          6.00971282e-001, -4.57038116e+000, -5.01262426e+000,
          -8.86482179e-001, 8.74608994e-001, 3.59970927e+000,
          4.18763590e+000, 3.40333605e+000, 1.14463580e+000,
          -5.29031086e+000, -6.63428307e+000, -1.84559667e+000,
          4.30104554e-001, 3.22914028e+000, 3.40981579e+000,
          3.61035395e+000, 1.78908432e+000, -5.00441647e+000,
          -5.92965460e+000, -9.91855979e-001, 5.80466032e-001,
          3.04667830e+000, 3.67626095e+000, 3.61654496e+000,
          1.54339969e+000, -6.13165951e+000, -6.94120789e+000,
          -9.67820168e-001, 7.88428903e-001, 3.34917808e+000,
          3.49289322e+000, 2.93024492e+000, -8.60701799e-002,
          -7.16821384e+000, -7.51646423e+000, -1.38640225e+000,
          5.23038566e-001, 2.94728279e+000, 3.84559703e+000,
          3.00478530e+000, 3.47507030e-001, -7.25582170e+000,
          -8.00536919e+000, -1.66168630e+000, 5.66496849e-001,
          3.62496924e+000, 2.48702526e+000, 2.46296144e+000,
          6.57599807e-001, -6.46904707e+000, -7.01153564e+000,
          -1.62687731e+000, 7.32899979e-002, 1.90204740e+000,
          4.70485783e+000, 4.26082659e+000, 1.61746716e+000,
          -5.63697338e+000, -6.46357679e+000, -1.21661258e+000,
          7.94542313e-001, 3.44443107e+000, 3.30677462e+000,
          3.09065557e+000, 5.97114801e-001, -6.74620390e+000,
          -7.18219709e+000, -1.67923677e+000, 4.69814628e-001,
          2.98243880e+000, 3.66379023e+000, 3.72139931e+000,
          8.79485369e-001, -5.94001579e+000, -6.86629152e+000,
          -2.46474314e+000, -3.55624467e-001, 2.54393387e+000,
          4.23519421e+000, 4.55421352e+000, 2.08641243e+000,
          -4.84076786e+000, -5.86301184e+000, -1.48432863e+000,
          3.18220943e-001, 2.68018317e+000, 3.21953821e+000,
          3.97877479e+000, 1.62457442e+000, -5.60693932e+000,
          -5.82452536e+000, -1.56578183e+000, 5.32690644e-001,
          2.98411274e+000, 3.02253747e+000, 2.81577611e+000,
          5.90991437e-001, -5.53540802e+000, -5.75253582e+000,
          -1.84842396e+000, -2.50747591e-001, 2.15696120e+000,
          4.12000370e+000, 3.59961104e+000, 2.24272656e+000,
          -4.40776205e+000, -5.67225313e+000, -6.94332540e-001,
          1.50753498e+000, 4.23136950e+000, 4.46262503e+000,
          4.09441280e+000, 2.69044995e+000, -2.93896413e+000,
          -4.09829283e+000, -3.80696595e-001, 1.51921248e+000,
          3.71000314e+000, 3.56816936e+000, 3.45719934e+000,
          1.06729853e+000, -5.36382723e+000, -5.89931536e+000,
          -1.07386935e+000, 9.95461345e-001, 2.82393336e+000,
          3.85497928e+000, 4.03329611e+000, 1.77407420e+000,
          -5.31445694e+000, -6.71938801e+000, -1.63828230e+000,
          8.47061455e-001, 3.04338288e+000, 3.66790056e+000,
          4.07469082e+000, 1.27710462e+000, -4.98622417e+000,
          -6.55202532e+000, -1.60015190e+000, 2.46413976e-001,
          2.89631867e+000, 4.20097256e+000, 4.12105846e+000,
          1.78244615e+000, -4.90779352e+000, -4.95512390e+000,
          -7.22541213e-001, 9.26498950e-001, 3.03281784e+000,
          3.95150685e+000, 4.48983192e+000, 2.81570792e+000,
          -3.50917053e+000, -4.99174786e+000, -1.14378917e+000,
          6.83991969e-001, 3.02016211e+000, 3.28245425e+000,
          3.75592232e+000, 2.32492304e+000, -3.42794275e+000,
          -4.19469357e+000, -9.00930285e-001, 9.79032040e-001,
          2.66166043e+000, 3.54734468e+000, 3.52604103e+000,
          1.70676577e+000, -4.74447441e+000, -5.37008858e+000,
          -1.23077500e+000, 1.19635642e+000, 4.43335915e+000,
          3.90667200e+000, 3.52069926e+000, 1.86570692e+000,
          -4.05095434e+000, -4.72244596e+000, -7.16551840e-001,
          1.27918863e+000, 4.03566980e+000, 3.30447388e+000,
          3.66332316e+000, 1.60744333e+000, -3.67318821e+000,
          -4.89520788e+000, -8.23258996e-001, 9.51088905e-001,
          2.93830657e+000, 4.68306017e+000, 4.08073711e+000,
          1.54807746e+000, -5.42027664e+000, -5.78007555e+000,
          -7.58901298e-001, 1.52841222e+000, 3.50443029e+000,
          4.91570663e+000, 4.51012707e+000, 1.21545660e+000,
          -5.43584251e+000, -6.23318005e+000, -1.03107488e+000,
          1.33199763e+000, 3.93018985e+000, 3.19657874e+000,
          3.81682229e+000, 1.72040808e+000, -5.74639082e+000,
          -7.00039291e+000, -1.75745809e+000, 1.85986981e-001,
          2.46530366e+000, 3.69198513e+000, 4.33675861e+000,
          2.07099104e+000, -5.61322451e+000, -7.50996876e+000,
          -1.87167478e+000, 2.39004180e-001, 2.56169081e+000,
          3.61290431e+000, 3.51856446e+000, 1.71377277e+000,
          -6.22140789e+000, -7.03307819e+000, -8.78586948e-001,
          1.57042778e+000, 3.39265943e+000, 3.81552052e+000,
          3.28972292e+000, 1.43705297e+000, -6.58825588e+000,
          -7.09224796e+000, -1.07576692e+000, 9.46748316e-001,
          3.71657729e+000, 4.34825993e+000, 3.58055115e+000,
          6.12507522e-001, -6.56076145e+000, -6.06223440e+000,
          -7.44328558e-001, 1.23180962e+000, 4.37061548e+000,
          3.75450563e+000, 3.80739141e+000, 1.13526142e+000,
          -5.86743212e+000, -6.31395054e+000, -1.22729802e+000,
          1.43782437e+000, 4.41944790e+000, 4.74539614e+000,
          4.50594187e+000, 1.68154860e+000, -5.29961729e+000,
          -6.17157841e+000, -1.25787246e+000, 1.39618993e+000,
          4.19885111e+000, 3.84105706e+000, 3.85033727e+000,
          1.02898443e+000, -5.74818039e+000, -6.78451157e+000,
          -1.75470495e+000, 4.06421304e-001, 2.86243844e+000,
          3.70628643e+000, 4.52420425e+000, 2.29607391e+000,
          -4.74852276e+000, -5.65394592e+000, -1.02103198e+000,
          5.57172477e-001, 2.76724648e+000, 4.01839352e+000,
          4.36853552e+000, 1.81617677e+000, -5.21678257e+000,
          -6.36942434e+000, -1.60630536e+000, 2.28051823e-002,
          2.45018268e+000, 2.13340950e+000, 2.28065324e+000,
          9.69491363e-001, -5.38314247e+000, -6.18929482e+000,
          -1.42119992e+000, 3.63013327e-001, 2.31689882e+000,
          3.75739837e+000, 3.05006409e+000, 9.67125237e-001,
          -4.95283842e+000, -5.69647646e+000, -1.01009321e+000,
          1.45059752e+000, 4.17019606e+000, 3.57173896e+000,
          3.30339956e+000, 8.54618609e-001, -5.82992983e+000,
          -5.09747934e+000, -6.48828447e-001, 1.30810881e+000,
          3.54254436e+000, 2.55467343e+000, 3.55476046e+000,
          1.71516562e+000, -4.86073828e+000, -5.20721722e+000,
          -1.41637111e+000, 6.04135811e-001, 2.52438521e+000,
          4.30387974e+000, 4.64316511e+000, 1.98113561e+000,
          -6.12221336e+000, -7.07288980e+000, -1.50777340e+000,
          9.14460540e-001, 3.53970146e+000, 3.87064624e+000,
          4.21139050e+000, 1.30137932e+000, -5.88954639e+000,
          -6.34231949e+000, -1.64110887e+000, 5.12491286e-001,
          2.37297201e+000, 3.08706713e+000, 3.23169208e+000,
          8.86399925e-001, -6.06418991e+000, -5.66802168e+000,
          -1.72403014e+000, 8.21616426e-002, 2.03100491e+000,
          3.75094748e+000, 4.06470776e+000, 1.59568024e+000,
          -6.33020592e+000, -7.96643496e+000, -2.46457005e+000,
          -4.45645839e-001, 2.25516415e+000, 3.49410176e+000,
          3.34171128e+000, 1.17947555e+000, -5.04589701e+000,
          -5.88249159e+000, -1.27065504e+000, 4.85729635e-001,
          2.65540671e+000, 3.69293976e+000, 3.91562414e+000,
          1.75575542e+000, -3.65359926e+000, -4.15786219e+000,
          -6.60157979e-001, 1.14688838e+000, 3.38357615e+000,
          2.72373867e+000, 2.73866487e+000, 1.07872760e+000,
          -5.69739151e+000, -5.30847025e+000, -5.87473631e-001,
          1.08133566e+000, 3.34064841e+000, 3.82639909e+000,
          3.41278863e+000, 1.97074699e+000, -3.80619359e+000,
          -4.10020447e+000, -2.02143893e-001, 1.81776357e+000,
          4.41850185e+000, 4.73806334e+000, 4.67986012e+000,
          2.75432444e+000, -3.76662326e+000, -5.16573477e+000,
          -6.84793711e-001, 1.31992209e+000, 3.90951085e+000,
          3.76509428e+000, 4.50433397e+000, 1.76749480e+000,
          -4.60512352e+000, -5.30800438e+000, -1.36890173e+000,
          2.60954916e-001, 2.51562166e+000 ]
      - [ -5.52813232e-001, -2.52578592e+000, -1.61227360e+001,
          2.54379082e+000, -4.50011730e+000, 4.16084647e-001,
          -2.46217108e+000, 1.00895243e+001, -1.05273716e-001,
          -1.56273997e+000, -1.09338980e+001, 4.25522518e+000,
          -6.14693737e+000, -1.05554473e+000, -2.90405130e+000,
          1.19246130e+001, 2.32510257e+000, -6.53520107e-001,
          -1.20601473e+001, 6.09494305e+000, -3.53814006e+000,
          -1.35514379e+000, -5.69320536e+000, 9.35117054e+000,
          7.62556851e-001, -5.22890854e+000, -1.75546608e+001,
          3.51046562e+000, -3.88951898e+000, 9.32453156e-001,
          -2.09732866e+000, 1.09684429e+001, 2.73894072e-001,
          -2.45473051e+000, -1.43120613e+001, 5.49910975e+000,
          -3.76814127e+000, 8.64596248e-001, -1.49054015e+000,
          1.00280323e+001, 1.62045145e+000, -2.84256339e-001,
          -1.37713966e+001, 3.31592679e+000, -3.56166387e+000,
          1.42857879e-001, -2.76960754e+000, 9.94471931e+000,
          6.34378791e-001, -1.38238335e+000, -1.03697634e+001,
          5.27296448e+000, -5.77917194e+000, -2.11301923e+000,
          -3.34051037e+000, 1.11379709e+001, 8.53382111e-001,
          -1.85886168e+000, -1.36692963e+001, 3.73565054e+000,
          -5.20384979e+000, -1.38925707e+000, -5.73525047e+000,
          7.55019808e+000, 2.67877483e+000, -1.69234169e+000,
          -1.08299580e+001, 5.23306513e+000, -3.55445766e+000,
          4.37861621e-001, -1.22275844e-001, 1.26001587e+001,
          3.00316262e+000, 3.95960879e+000, -8.63939190e+000,
          5.45632696e+000, -6.32646513e+000, -2.42533946e+000,
          -5.04893303e+000, 9.43729591e+000, 2.50955224e+000,
          1.04687119e+000, -9.05210495e+000, 5.66819620e+000,
          -5.47982645e+000, -9.18920279e-001, -4.45164108e+000,
          1.06766281e+001, -2.76856780e-001, -7.39592373e-001,
          -1.13686495e+001, 3.51319098e+000, -4.61631823e+000,
          4.12806183e-001, -2.76597548e+000, 1.10804396e+001,
          1.15166426e+000, -5.43913269e+000, -2.11738091e+001,
          3.89317894e+000, -3.18789029e+000, 7.39750385e-001,
          -8.23296428e-001, 1.08651724e+001, 2.10476160e+000,
          -1.18376505e+000, -1.02744751e+001, 4.20935965e+000,
          -4.11292839e+000, -3.51231918e-002, -1.60158086e+000,
          1.06898851e+001, 9.33808208e-001, 7.83884943e-001,
          -1.11314678e+001, 4.37129641e+000, -4.77641869e+000,
          -2.33931422e+000, -4.07440329e+000, 8.89309216e+000,
          4.47123432e+000, 7.96444714e-001, -1.18991547e+001,
          4.11634922e+000, -5.25011778e+000, -2.29381338e-001,
          -1.55516624e+000, 1.23418751e+001, 3.34865594e+000,
          1.57654583e+000, -9.70289040e+000, 5.31964493e+000,
          -5.99615192e+000, -9.19784784e-001, -2.50565600e+000,
          1.08181686e+001, 2.22446346e+000, 4.56920433e+000,
          -7.60477304e+000, 4.78892279e+000, -6.21545553e+000,
          -1.66141963e+000, -4.14255810e+000, 1.00300856e+001,
          5.10833919e-001, -1.72152269e+000, -1.18298702e+001,
          4.43649721e+000, -5.84692240e+000, -1.31042492e+000,
          -4.83000755e+000, 1.03136435e+001, 1.65549099e+000,
          -4.12884235e+000, -1.73935604e+001, 3.64457560e+000,
          -5.47554398e+000, -1.23240602e+000, -3.46729469e+000,
          1.15829077e+001, 1.22228229e+000, -9.88357887e-002,
          -1.19137526e+001, 5.54727697e+000, -3.42559218e+000,
          9.99740303e-001, -1.61578047e+000, 1.01517992e+001,
          2.06934237e+000, 1.07129073e+000, -1.10104933e+001,
          6.94339371e+000, -4.06800699e+000, 9.91476849e-002,
          -1.54176855e+000, 1.05056610e+001, 1.08558133e-001,
          1.92945838e+000, -9.74203014e+000, 4.60129118e+000,
          -4.87107563e+000, -9.73604340e-003, -2.58328605e+000,
          1.01799316e+001, 8.90036821e-001, 1.01825094e+000,
          -1.04610243e+001, 5.50849438e+000, -4.29535675e+000,
          1.38647079e-001, -2.86361217e+000, 1.01644220e+001,
          3.09219933e+000, -1.32983935e+000, -1.22779846e+001,
          5.41656160e+000, -5.33447742e+000, -1.15587056e+000,
          -2.52188158e+000, 1.10402956e+001, 2.38263059e+000,
          2.57781363e+000, -9.60114002e+000, 4.61195612e+000,
          -6.95384312e+000, -1.74931741e+000, -2.97678161e+000,
          1.05206585e+001, 1.19327128e+000, -2.37189198e+000,
          -1.36253643e+001, 3.44471073e+000, -5.35207558e+000,
          2.39072278e-001, -2.51974034e+000, 1.13420191e+001,
          1.39667320e+000, -7.03404903e-001, -1.45998631e+001,
          5.25383139e+000, -4.04180145e+000, 1.54137325e+000,
          -1.09937251e+000, 1.18749065e+001, 9.39997911e-001,
          -1.57029223e+000, -1.52299938e+001, 6.13035393e+000,
          -3.13644958e+000, 1.44024551e+000, -1.20332122e+000,
          1.08893957e+001, 2.14841247e+000, -3.60002041e+000,
          -1.60681076e+001, 3.88908315e+000, -5.07086420e+000,
          -3.53433430e-001, -1.72806692e+000, 1.30631371e+001,
          9.33755219e-001, 1.34503257e+000, -9.88067245e+000,
          4.31706619e+000, -4.85544300e+000, -1.31773162e+000,
          -3.00608897e+000, 1.02853355e+001, 2.30406809e+000,
          -1.59241080e+000, -1.29474144e+001, 3.10013771e+000,
          -5.57219410e+000, 4.79848713e-001, -1.57057154e+000,
          1.06943064e+001, 4.17326641e+000, 3.87141275e+000,
          -8.82417870e+000, 5.47338343e+000, -5.15672922e+000,
          -8.11865628e-001, -2.20819688e+000, 9.74955559e+000,
          2.37652326e+000, 3.69413400e+000, -5.39010239e+000,
          8.52248192e+000, -4.57918358e+000, -1.43218648e+000,
          -3.30317807e+000, 9.46710300e+000, 3.27647305e+000,
          1.44233298e+000, -1.10510445e+001, 7.61730623e+000,
          -1.70595324e+000, 9.69144046e-001, -1.45918393e+000,
          1.27727251e+001, 6.62022293e-001, -9.09092712e+000,
          -1.88558121e+001, 4.83600092e+000, -2.64973450e+000,
          2.26127553e+000, 6.82189018e-002, 1.42810259e+001,
          2.29777265e+000, -2.85313463e+000, -1.76476955e+001,
          3.61120796e+000, -2.61739898e+000, 2.07257390e+000,
          8.47370028e-001, 1.41631956e+001, 2.41303921e+000,
          2.06577039e+000, -9.09165001e+000, 6.53679657e+000,
          -2.68894625e+000, 6.53294683e-001, -1.31089318e+000,
          1.23917980e+001, 2.94178581e+000, 1.85468781e+000,
          -5.81637239e+000, 6.98763323e+000, -3.90093660e+000,
          -2.18602791e-001, -2.00819731e+000, 1.14258165e+001,
          4.28527975e+000, 2.90594053e+000, -1.23569736e+001,
          4.63197660e+000, -4.06090117e+000, 3.36074650e-001,
          -1.91507411e+000, 1.34075775e+001, 2.66392326e+000,
          1.67497635e+000, -1.29891405e+001, 4.08948994e+000,
          -5.67915249e+000, -1.34507990e+000, -3.00750852e+000,
          1.02796364e+001, 9.21693265e-001, 1.79403865e+000,
          -7.11756992e+000, 4.96161366e+000, -6.73283148e+000,
          -1.98654175e+000, -3.26200962e+000, 9.50612736e+000,
          1.16156316e+000, -3.40268612e+000, -1.22733040e+001,
          5.72128057e+000, -3.14404202e+000, 1.70443296e-001,
          -3.75760269e+000, 1.00792341e+001, 4.42468309e+000,
          1.60380530e+000, -1.45314436e+001, 4.23128128e+000,
          -4.28031015e+000, 9.39029336e-001, 5.42131066e-001,
          1.27567186e+001, 2.24398708e+000, -1.47174346e+000,
          -1.42816324e+001, 3.59016609e+000, -3.66389513e+000,
          7.94327796e-001, -1.78394169e-001, 1.40834217e+001,
          4.30296481e-001, -1.44627082e+000, -1.42450485e+001,
          3.51117730e+000, -3.39010882e+000, 1.20755458e+000,
          1.20619416e-001, 1.36212254e+001, 2.07561421e+000,
          -5.39416373e-001, -9.20963669e+000, 4.79641390e+000,
          -4.71357822e+000, -3.24935853e-001, -2.05909395e+000,
          1.27015848e+001, 4.00134134e+000, -2.86520384e-002,
          -1.30313187e+001, 4.02404499e+000, -5.42804813e+000,
          -1.55770683e+000, -4.07438850e+000, 9.72448921e+000,
          5.02862024e+000, 2.54283524e+000, -7.16915512e+000,
          5.35428572e+000, -3.42488408e+000, 4.16364849e-001,
          -4.18712735e-001, 1.29672613e+001, 4.79390812e+000,
          7.03870153e+000, -1.13662529e+001, 4.97137213e+000,
          -5.64466000e+000, -1.48654461e+000, -3.26642251e+000,
          9.28373432e+000, 2.84712696e+000, 2.38616037e+000,
          -6.93137169e+000, 5.43289614e+000, -5.23633671e+000,
          -1.60793376e+000, -3.65307570e+000, 1.03333006e+001,
          2.02573419e+000, 1.61171448e+000, -8.45685863e+000,
          5.14660168e+000, -4.40516424e+000, 1.00833225e+000,
          -1.19996595e+000, 1.15109482e+001, 7.38852262e-001,
          -3.35797429e+000, -1.66914577e+001, 4.16430473e+000,
          -1.54792774e+000, 2.48399138e+000, 5.85321598e-002,
          1.10981264e+001, 2.33294106e+000, 1.22495815e-001,
          -7.49343967e+000, 6.56003857e+000, -3.10301471e+000,
          1.03023934e+000, 6.21399939e-001, 1.31402035e+001,
          2.07227135e+000, 5.18881941e+000, -1.08863306e+001,
          5.81056452e+000, -4.86985111e+000, -6.90377116e-001,
          -3.29788089e+000, 8.65677071e+000, 3.21842766e+000,
          4.96539783e+000, -8.21188831e+000, 4.28705263e+000,
          -5.36289883e+000, -1.18939424e+000, -4.18591356e+000,
          8.54787827e+000, 4.95097971e+000, -5.31912267e-001,
          -1.57333527e+001, 3.19180417e+000, -5.14946938e+000,
          -1.34045869e-001, -1.91907251e+000, 1.11418352e+001,
          2.79776621e+000, 5.50324106e+000, -6.65858221e+000,
          4.87365150e+000, -5.94518852e+000, -1.79631376e+000,
          -4.05551338e+000, 9.27027988e+000, 2.51656771e+000,
          1.21350968e+000, -1.04171391e+001, 5.71050644e+000,
          -2.67371607e+000, 6.34658813e-001, -2.31409812e+000,
          1.11566143e+001, 3.38322139e+000, -6.95489764e-001,
          -1.71454334e+001, 4.86851740e+000, -3.77994013e+000,
          2.25376621e-001, -2.77218461e+000, 1.12436132e+001,
          4.55122137e+000, 5.68289709e+000, -9.44295025e+000,
          5.30844879e+000, -3.65923309e+000, 1.57416368e+000,
          1.70237124e-001, 1.36130924e+001, 4.95487022e+000,
          6.79280937e-001, -1.37327747e+001, 3.67525220e+000,
          -2.61225128e+000, 2.00792599e+000, 4.67927963e-001,
          1.36844187e+001, 4.06927538e+000, 7.00880718e+000,
          -4.00280142e+000, 6.90131569e+000, -3.73315358e+000,
          3.39505017e-001, -2.57444453e+000, 1.08516817e+001,
          5.30997133e+000, 2.11882234e+000, -1.10441856e+001,
          4.36772537e+000, -4.70405388e+000, -2.50339955e-002,
          -2.83020592e+000, 1.08022881e+001 ]
      - [ 2.11112022e+000, -5.93027639e+000, 1.20223606e+000,
          -9.77460480e+000, 1.04105358e+001, -9.40648079e+000,
          -2.71723413e+000, -7.51270580e+000, 2.63054895e+000,
          -4.25259209e+000, 2.87283802e+000, -8.46966267e+000,
          1.37980957e+001, -7.23896980e+000, -1.67566526e+000,
          -6.47946548e+000, 3.15526366e+000, -5.14012623e+000,
          2.73399329e+000, -4.29886770e+000, 1.95967598e+001,
          -5.26797342e+000, -1.96365666e+000, -5.54073143e+000,
          1.54116678e+000, -6.04467106e+000, 1.83819592e+000,
          -6.69945288e+000, 1.37052565e+001, -7.08950472e+000,
          -1.85578895e+000, -7.05285549e+000, 3.22931957e+000,
          -4.76897240e+000, 2.49386072e+000, -9.52736187e+000,
          1.31716413e+001, -7.09152079e+000, -1.60981798e+000,
          -6.10634184e+000, 3.44409347e+000, -4.44136620e+000,
          3.13123798e+000, -2.83608174e+000, 1.73680820e+001,
          -5.75926638e+000, -1.25955653e+000, -6.13547516e+000,
          2.71813726e+000, -4.58677197e+000, 3.16091418e+000,
          -7.42318535e+000, 1.56584044e+001, -6.72199345e+000,
          -1.46474779e+000, -6.11097908e+000, 2.54776025e+000,
          -4.33169556e+000, 2.31503391e+000, -6.51397467e+000,
          1.62318573e+001, -6.66002178e+000, -1.20143640e+000,
          -6.04446840e+000, 3.70986319e+000, -4.95938826e+000,
          1.99850845e+000, -8.53186989e+000, 1.74289722e+001,
          -6.19053698e+000, -1.39411438e+000, -5.97652245e+000,
          2.28467131e+000, -5.09943342e+000, 1.63604963e+000,
          -8.86075306e+000, 1.36443901e+001, -7.82908058e+000,
          -2.29744196e+000, -7.02001190e+000, 2.63672757e+000,
          -4.39578772e+000, 3.32823610e+000, -1.49244440e+000,
          1.99405327e+001, -6.17745638e+000, -1.35990667e+000,
          -5.34829903e+000, 1.92369163e+000, -5.22821617e+000,
          3.07521391e+000, -5.71697664e+000, 1.54615383e+001,
          -6.10604620e+000, -1.59431708e+000, -6.98341084e+000,
          1.74477136e+000, -5.14467764e+000, 2.91290498e+000,
          -8.23148918e+000, 1.28684959e+001, -7.97027731e+000,
          -3.02271247e+000, -6.62915516e+000, 3.67049527e+000,
          -4.50384235e+000, 1.14438629e+000, -6.45872593e+000,
          1.76922932e+001, -7.50917864e+000, -9.88015831e-001,
          -5.26139450e+000, 2.14829922e+000, -5.66282558e+000,
          9.56795514e-001, -6.53335142e+000, 1.66101799e+001,
          -6.94663095e+000, -2.28303576e+000, -7.07468605e+000,
          2.02049732e+000, -4.83304787e+000, 1.27415907e+000,
          -8.10535431e+000, 1.50666389e+001, -7.03274345e+000,
          -2.18279696e+000, -6.93210173e+000, 3.24592876e+000,
          -4.81698322e+000, 1.99869978e+000, -9.42422390e+000,
          1.43195620e+001, -6.70679092e+000, -1.07529676e+000,
          -5.97479153e+000, 2.87714195e+000, -4.03830338e+000,
          3.63640428e+000, -2.34678984e+000, 2.22247620e+001,
          -4.94336653e+000, -8.93317997e-001, -6.22205019e+000,
          3.86489177e+000, -3.73216391e+000, 2.77556396e+000,
          -5.09951973e+000, 1.60923138e+001, -5.54773140e+000,
          -2.63557404e-001, -4.71785402e+000, 3.31941009e+000,
          -4.56068611e+000, 2.86952996e+000, -8.48262882e+000,
          1.37640047e+001, -6.10826921e+000, -1.81787086e+000,
          -6.49427223e+000, 2.76689744e+000, -4.87211943e+000,
          2.47581959e+000, -7.40947723e+000, 1.65766754e+001,
          -5.84294033e+000, -1.26936126e+000, -6.86202478e+000,
          4.78005934e+000, -3.78649712e+000, 2.97645521e+000,
          -8.75078106e+000, 1.58342190e+001, -5.07953215e+000,
          1.75822243e-001, -4.06277370e+000, 4.58217144e+000,
          -4.67628288e+000, 3.01332784e+000, -7.89953423e+000,
          1.63431282e+001, -5.21648121e+000, -5.33296824e-001,
          -5.15818691e+000, 2.76393652e+000, -5.10492086e+000,
          2.56753778e+000, -8.99301434e+000, 1.47036142e+001,
          -6.92842245e+000, -1.30689454e+000, -5.95527411e+000,
          4.39347935e+000, -4.38447571e+000, 2.08086753e+000,
          -4.44717360e+000, 1.99956245e+001, -4.15511179e+000,
          -2.29180735e-002, -4.19695282e+000, 3.35427952e+000,
          -4.74764156e+000, 2.26652861e+000, -4.54956150e+000,
          1.68730087e+001, -6.21092844e+000, -1.71503246e+000,
          -6.39901781e+000, 3.72253418e+000, -4.76803064e+000,
          2.86459398e+000, -5.57230425e+000, 1.38161116e+001,
          -6.88177538e+000, -2.21766853e+000, -6.14231634e+000,
          2.93114758e+000, -4.52480316e+000, 2.57244921e+000,
          -5.90591335e+000, 1.76614037e+001, -4.74356747e+000,
          -5.72128177e-001, -5.68251991e+000, 4.72400856e+000,
          -3.74742198e+000, 3.46438766e+000, -3.70925665e+000,
          2.02776051e+001, -4.70636749e+000, 1.36874706e-001,
          -4.55348921e+000, 3.33083034e+000, -5.20553017e+000,
          1.92511928e+000, -3.46266150e+000, 2.02763672e+001,
          -6.48102140e+000, -1.14307368e+000, -6.22943258e+000,
          2.64324999e+000, -6.31541014e+000, 3.01769406e-001,
          -6.21666718e+000, 1.88689938e+001, -5.54432726e+000,
          -9.61902380e-001, -6.73063612e+000, 2.55483699e+000,
          -4.79832745e+000, 1.30974877e+000, -7.58757687e+000,
          1.68644676e+001, -6.67868376e+000, -1.85370409e+000,
          -6.27188063e+000, 5.35435963e+000, -3.19708419e+000,
          4.52182674e+000, -2.38052225e+000, 2.25367813e+001,
          -4.50481272e+000, -2.48748988e-001, -4.85706234e+000,
          3.64300370e+000, -4.55480099e+000, 3.30890274e+000,
          -2.21192503e+000, 1.86533546e+001, -7.34100437e+000,
          -2.65108514e+000, -7.06675816e+000, 2.79730034e+000,
          -4.34086514e+000, 4.24159622e+000, 2.96869189e-001,
          2.09665051e+001, -5.65307570e+000, -1.75557292e+000,
          -6.06935072e+000, 2.66905785e+000, -4.79549456e+000,
          3.55580759e+000, -7.27611160e+000, 1.67186489e+001,
          -5.78153563e+000, -1.49853826e+000, -6.83892441e+000,
          2.99206138e+000, -4.75188065e+000, 2.39774084e+000,
          -3.08307076e+000, 2.11820908e+001, -6.11615276e+000,
          -1.11390567e+000, -6.31219244e+000, 3.53952980e+000,
          -4.24999046e+000, 2.52218366e+000, -2.16053987e+000,
          2.09351978e+001, -5.79110765e+000, -8.46662223e-001,
          -5.54605818e+000, 2.03560662e+000, -5.79171562e+000,
          1.11264646e+000, -6.64541531e+000, 1.56664104e+001,
          -6.35375643e+000, -2.25049257e+000, -7.61988831e+000,
          3.94777822e+000, -4.33663273e+000, 2.04081273e+000,
          -7.43384600e+000, 1.63137512e+001, -5.37036753e+000,
          -2.11628973e-001, -5.13522243e+000, 4.55899048e+000,
          -3.97539282e+000, 3.24758959e+000, -3.19489241e+000,
          1.77004566e+001, -6.61672497e+000, -1.40060890e+000,
          -5.36396122e+000, 4.10732222e+000, -3.66387796e+000,
          2.82451129e+000, -3.14426708e+000, 1.86660957e+001,
          -5.41061544e+000, -1.24492729e+000, -5.32829952e+000,
          4.04186296e+000, -4.04928446e+000, 3.36201358e+000,
          -1.50907373e+000, 2.06951103e+001, -4.96094036e+000,
          -2.79155493e-001, -4.55036402e+000, 8.10328066e-001,
          -6.41592073e+000, 1.48989487e+000, -4.40264034e+000,
          1.96742496e+001, -5.67387390e+000, -2.47134042e+000,
          -7.82885647e+000, 1.95969617e+000, -5.44696569e+000,
          1.76172864e+000, -2.34209275e+000, 2.32623749e+001,
          -5.87299013e+000, -1.99064720e+000, -6.46117973e+000,
          3.14073420e+000, -4.72977066e+000, 1.29313350e+000,
          -3.49173832e+000, 2.30144634e+001, -5.23299503e+000,
          -1.24939156e+000, -5.93619776e+000, 2.44744444e+000,
          -4.94055891e+000, 1.55351031e+000, -6.29329586e+000,
          1.81144924e+001, -4.66002941e+000, -8.54826272e-001,
          -6.24626112e+000, 3.96956849e+000, -4.56443739e+000,
          2.00209546e+000, -8.16920853e+000, 1.67579517e+001,
          -4.67136192e+000, 8.09652269e-001, -4.73704004e+000,
          4.58012676e+000, -3.33022499e+000, 2.95715117e+000,
          -6.55015516e+000, 1.83283253e+001, -4.50930405e+000,
          -2.09949836e-001, -4.79949093e+000, 3.81319404e+000,
          -4.30144787e+000, 2.82123494e+000, -5.08997345e+000,
          1.95726223e+001, -6.17426252e+000, -2.05800748e+000,
          -6.57969856e+000, 3.81256247e+000, -4.15285778e+000,
          3.67710686e+000, -6.78726721e+000, 1.54444780e+001,
          -5.96776628e+000, -6.25974894e-001, -5.49629402e+000,
          3.26344872e+000, -4.61300278e+000, 2.36674070e+000,
          -6.40864944e+000, 1.67399654e+001, -4.97214174e+000,
          -6.07699752e-001, -5.66813660e+000, 4.78860998e+000,
          -4.17466640e+000, 3.46805930e+000, -6.25842047e+000,
          1.66862297e+001, -4.82391882e+000, -7.54806995e-001,
          -4.37376118e+000, 2.49252057e+000, -4.70948792e+000,
          2.07411814e+000, -4.18118334e+000, 2.17732964e+001,
          -5.28810596e+000, -1.40096831e+000, -6.33477688e+000,
          3.32208490e+000, -5.45772934e+000, 1.40797567e+000,
          -4.15123558e+000, 2.05432911e+001, -5.17936611e+000,
          -3.29454362e-001, -5.62605524e+000, 3.44715071e+000,
          -4.71353102e+000, 1.23173106e+000, -8.61747837e+000,
          1.69271736e+001, -6.61680555e+000, -1.40173340e+000,
          -5.82115030e+000, 3.34342217e+000, -4.96445894e+000,
          2.19062924e+000, -6.73242092e+000, 1.82688503e+001,
          -4.34016323e+000, -5.34808218e-001, -4.88689852e+000,
          3.80160475e+000, -4.08063078e+000, 3.53032970e+000,
          -3.04721427e+000, 2.07790413e+001, -4.92653465e+000,
          -1.41565919e+000, -5.92400122e+000, 4.71608353e+000,
          -3.62121892e+000, 3.74580312e+000, -1.68858743e+000,
          1.87461205e+001, -5.64741182e+000, -8.14360797e-001,
          -5.02736568e+000, 3.51065493e+000, -4.76373625e+000,
          2.14174080e+000, -4.01126099e+000, 2.09402504e+001,
          -4.60148430e+000, -6.61434650e-001, -5.09456015e+000,
          2.81766939e+000, -5.30096769e+000, 5.38021743e-001,
          -5.82236719e+000, 1.98359718e+001, -6.28797579e+000,
          -2.05234885e+000, -6.49889660e+000, 2.92637324e+000,
          -5.75079441e+000, 9.04850662e-001, -4.64908457e+000,
          2.19132652e+001, -5.96914244e+000, -1.66987586e+000,
          -5.32855129e+000, 2.80383658e+000, -5.45696020e+000,
          9.23891366e-001, -6.50402641e+000, 2.04339390e+001,
          -5.31162882e+000, -1.37301350e+000, -5.48697710e+000,
          3.61951518e+000, -4.52201414e+000, 1.42609727e+000,
          -6.22818136e+000, 1.93474216e+001, -5.88421297e+000,
          -1.48485279e+000, -5.07380772e+000 ]
      - [ -2.41138411e+000, -3.61357999e+000, -3.89152479e+000,
          2.10735846e+000, 3.04168820e+000, -1.41256285e+000,
          -2.30157948e+000, -1.70307374e+000, -2.66006303e+000,
          -3.87076426e+000, -1.91607881e+000, 4.23845959e+000,
          5.01152277e+000, -1.59405291e+000, -2.82561374e+000,
          -1.78371489e+000, -2.29928422e+000, -4.31104422e+000,
          -3.74104905e+000, 4.40419388e+000, 6.15769911e+000,
          -4.87525851e-001, -1.96843624e+000, -1.14488113e+000,
          -2.43552065e+000, -3.50017810e+000, -4.67996645e+000,
          3.25284219e+000, 5.26799631e+000, 2.42571011e-001,
          -1.28714240e+000, -1.32415438e+000, -2.51243615e+000,
          -4.61658716e+000, -2.23164320e+000, 3.79565835e+000,
          4.58337069e+000, 3.46845277e-002, -1.04761124e+000,
          -1.12275565e+000, -2.26573753e+000, -3.20597076e+000,
          -2.98380256e+000, 4.96820736e+000, 5.69595337e+000,
          -8.40371847e-001, -1.97306359e+000, -1.39996517e+000,
          -2.78307509e+000, -3.73140502e+000, -1.72841823e+000,
          4.26541233e+000, 4.59945869e+000, -1.08367372e+000,
          -2.47686815e+000, -1.84446192e+000, -2.93729067e+000,
          -4.14263010e+000, -3.96040630e+000, 3.30316591e+000,
          4.61277246e+000, -6.70675695e-001, -1.94748878e+000,
          -1.67758214e+000, -2.35379648e+000, -4.21198940e+000,
          -1.85116386e+000, 3.77830982e+000, 4.01236105e+000,
          -1.01944244e+000, -1.37597680e+000, -1.06794143e+000,
          -2.37951183e+000, -1.49966872e+000, -9.30615589e-002,
          5.44386482e+000, 4.92086315e+000, -1.08971429e+000,
          -2.56610370e+000, -2.14118528e+000, -2.32887650e+000,
          -3.20311308e+000, -2.84202623e+000, 4.55787945e+000,
          5.01298809e+000, -9.87820566e-001, -2.46310902e+000,
          -1.74239111e+000, -3.15725327e+000, -4.28008318e+000,
          -2.58010292e+000, 4.00384092e+000, 5.09455442e+000,
          6.33069575e-002, -1.50495458e+000, -1.41561604e+000,
          -2.51039624e+000, -4.21786642e+000, -3.32256436e+000,
          3.87301898e+000, 5.54716873e+000, 6.34236455e-001,
          -3.75158459e-001, -1.06207359e+000, -2.91995263e+000,
          -4.10795069e+000, -2.08979630e+000, 5.16650677e+000,
          5.58517218e+000, -6.97705984e-001, -1.45917821e+000,
          -1.54200947e+000, -2.78251076e+000, -2.36888003e+000,
          -9.15571392e-001, 4.05853462e+000, 4.39197159e+000,
          -9.77899551e-001, -1.99432158e+000, -2.13750958e+000,
          -2.79354525e+000, -3.07193637e+000, -2.72465396e+000,
          3.53252912e+000, 4.51089668e+000, -5.00511408e-001,
          -2.09981728e+000, -2.02846026e+000, -2.25070810e+000,
          -3.17885351e+000, -1.98578346e+000, 3.44851947e+000,
          4.22775316e+000, -4.30389822e-001, -1.29907215e+000,
          -1.22452509e+000, -2.38070917e+000, -2.62677145e+000,
          -1.76804543e+000, 4.41169882e+000, 5.54635763e+000,
          -1.29171646e+000, -2.92457271e+000, -1.82279420e+000,
          -2.35407305e+000, -2.58779073e+000, -2.86252403e+000,
          3.86528349e+000, 5.06732082e+000, -6.09080315e-001,
          -2.34819746e+000, -1.37684512e+000, -2.22069216e+000,
          -4.14078617e+000, -2.84722281e+000, 4.03610277e+000,
          5.10087919e+000, -2.77065128e-001, -1.38234782e+000,
          -1.09897137e+000, -2.03403068e+000, -3.55289841e+000,
          -3.72298408e+000, 3.76724577e+000, 5.36829472e+000,
          -1.76947713e-001, -1.00786459e+000, -9.88776147e-001,
          -2.08602285e+000, -2.83806419e+000, -2.70554638e+000,
          3.71292114e+000, 4.83552122e+000, -1.45230144e-001,
          -1.06185675e+000, -1.18041062e+000, -2.55685902e+000,
          -3.11413503e+000, -2.15738368e+000, 4.10463476e+000,
          5.57877731e+000, -6.24156654e-001, -2.39794779e+000,
          -1.83805394e+000, -2.05927420e+000, -2.03949571e+000,
          -2.36483908e+000, 4.30290318e+000, 4.98132086e+000,
          -4.10092086e-001, -1.94042993e+000, -1.76116920e+000,
          -2.08849931e+000, -4.09851503e+000, -1.56943393e+000,
          4.54583168e+000, 5.54219484e+000, -6.00324757e-002,
          -7.54454672e-001, -8.52967203e-001, -2.08742332e+000,
          -3.25113249e+000, -3.49128151e+000, 5.47610092e+000,
          7.60528183e+000, -7.21281022e-002, -1.53471231e+000,
          -9.88049030e-001, -1.93027425e+000, -2.63113046e+000,
          -2.33077455e+000, 5.05979300e+000, 6.13173056e+000,
          3.23541403e-001, -1.39604235e+000, -1.15143991e+000,
          -2.13642645e+000, -3.94597673e+000, -4.74334764e+000,
          4.66454506e+000, 6.94530725e+000, 5.49108684e-001,
          -1.18140101e+000, -1.21921909e+000, -2.61189580e+000,
          -5.38580704e+000, -4.85627508e+000, 4.32887936e+000,
          5.77106094e+000, 6.22623444e-001, -5.66959202e-001,
          -1.00614953e+000, -2.24314570e+000, -4.13713503e+000,
          -1.46071172e+000, 5.40582752e+000, 6.09483385e+000,
          -9.08044819e-003, -1.07108557e+000, -1.07760811e+000,
          -2.50009203e+000, -3.44472623e+000, -3.06859493e+000,
          5.40108538e+000, 6.57835293e+000, -2.77406424e-001,
          -1.95610857e+000, -1.39503467e+000, -1.92652857e+000,
          -2.78825498e+000, -2.15434361e+000, 4.48906326e+000,
          5.10861492e+000, -1.71091035e-001, -1.16879475e+000,
          -1.08589888e+000, -7.98664987e-001, -1.54518914e+000,
          -1.59318817e+000, 4.72312403e+000, 6.04408360e+000,
          -3.35383952e-001, -9.16527987e-001, -8.98136020e-001,
          -1.86327326e+000, -2.75186539e+000, -1.59110403e+000,
          6.57131195e+000, 7.09464264e+000, -4.02605593e-001,
          -2.26888943e+000, -1.43009257e+000, -1.53878033e+000,
          -2.58940244e+000, -2.55460477e+000, 5.64747143e+000,
          7.03108740e+000, 3.49629700e-001, -9.06630039e-001,
          -5.60469627e-001, -2.73575521e+000, -5.55255365e+000,
          -4.99544334e+000, 4.69246435e+000, 7.06132126e+000,
          6.90943420e-001, -1.04252911e+000, -9.96100903e-001,
          -2.37495136e+000, -5.43417311e+000, -5.00465536e+000,
          4.46670485e+000, 6.26023483e+000, 5.36435008e-001,
          -1.62920535e-001, -6.36310875e-001, -1.44342923e+000,
          -1.96758270e+000, -2.10065150e+000, 4.46754360e+000,
          5.67563438e+000, -3.14253539e-001, -1.05286777e+000,
          -6.23523414e-001, -1.94861162e+000, -3.13931274e+000,
          -1.45642149e+000, 5.68899727e+000, 6.00281668e+000,
          -2.83807516e-001, -1.93839300e+000, -1.66515696e+000,
          -1.56529474e+000, -2.40769815e+000, -2.73373294e+000,
          4.22004843e+000, 5.41579962e+000, 4.28715140e-001,
          -6.23739064e-001, -3.54796112e-001, -1.00154066e+000,
          -2.72144198e+000, -3.84922338e+000, 4.27842569e+000,
          5.38775349e+000, -1.13727832e-002, -8.61344814e-001,
          -2.85059184e-001, -2.39211082e+000, -3.75095940e+000,
          -2.02391076e+000, 5.79928493e+000, 7.19419098e+000,
          -4.05476123e-001, -1.86405873e+000, -1.43597281e+000,
          -1.37633419e+000, -3.22535706e+000, -2.40355086e+000,
          5.48148584e+000, 6.52558661e+000, 4.74278837e-001,
          -1.43272603e+000, -6.42676353e-001, -1.78113592e+000,
          -3.08582282e+000, -4.64028597e+000, 4.86454344e+000,
          6.49438047e+000, 1.05547205e-001, -1.01976562e+000,
          -1.27891517e+000, -2.51353335e+000, -4.10839462e+000,
          -1.75653887e+000, 5.31279755e+000, 6.24134064e+000,
          3.84484604e-002, -6.82592690e-001, -9.00902212e-001,
          -1.87575376e+000, -4.11339331e+000, -3.30412555e+000,
          4.95319891e+000, 6.73625803e+000, -3.64199430e-001,
          -1.60278988e+000, -9.54427361e-001, -2.69567323e+000,
          -3.60119009e+000, -2.24341464e+000, 5.27352762e+000,
          6.57367563e+000, -3.70889544e-001, -1.83224452e+000,
          -1.51434708e+000, -1.36059129e+000, -3.50739980e+000,
          -2.90416360e+000, 4.89567566e+000, 5.60388088e+000,
          -1.70939267e-001, -1.59719431e+000, -1.07456160e+000,
          -1.51644814e+000, -2.89045119e+000, -1.40714240e+000,
          5.23343801e+000, 6.34480095e+000, 3.90674412e-001,
          -8.08798850e-001, -3.42185259e-001, -1.32179463e+000,
          -6.71018183e-001, -2.21187159e-001, 6.74634361e+000,
          7.82078886e+000, -6.54283464e-002, -1.66127336e+000,
          -1.24050653e+000, -1.26016772e+000, -2.59634352e+000,
          -1.96457565e+000, 5.20492172e+000, 6.78875780e+000,
          -8.04075897e-002, -1.58411288e+000, -5.94762266e-001,
          -2.10779619e+000, -3.83004999e+000, -1.74983454e+000,
          5.67950296e+000, 7.68210745e+000, 8.25739384e-001,
          -8.18111777e-001, -8.77980769e-001, -1.94738090e+000,
          -3.65909362e+000, -3.56679893e+000, 5.16313171e+000,
          6.91802788e+000, 8.88958991e-001, -4.41956401e-001,
          -6.79411232e-001, -1.85744953e+000, -3.43225193e+000,
          -1.70870984e+000, 5.34405327e+000, 5.40410185e+000,
          -6.63456917e-001, -1.16534293e+000, -8.32848489e-001,
          -1.84528649e+000, -1.13986409e+000, -2.62146175e-001,
          5.77218437e+000, 6.45687342e+000, -4.14686985e-002,
          -1.44746041e+000, -1.28517878e+000, -9.26854074e-001,
          -2.00447464e+000, -2.71546817e+000, 4.80751848e+000,
          5.83321810e+000, -2.24327207e-001, -1.65119398e+000,
          -8.95967364e-001, -1.32762933e+000, -3.34755397e+000,
          -2.81324029e+000, 4.53304720e+000, 6.31077528e+000,
          3.44831705e-001, -6.92729175e-001, 2.12616716e-002,
          -1.38621938e+000, -2.55182695e+000, -1.65544796e+000,
          7.07659340e+000, 8.20305347e+000, -4.09256846e-001,
          -2.15719247e+000, -1.01038194e+000, -7.79209673e-001,
          -1.99907351e+000, -3.11019254e+000, 5.38846636e+000,
          6.95497561e+000, 7.74787784e-001, -1.34524953e+000,
          -4.53664452e-001, -2.47935963e+000, -4.37626219e+000,
          -3.37270665e+000, 5.52273607e+000, 7.61415195e+000,
          4.18042660e-001, -1.33482456e+000, -9.56196606e-001,
          -1.75553977e+000, -2.68743658e+000, -3.38608813e+000,
          6.12794542e+000, 8.47640324e+000, 8.92824292e-001,
          -3.11379701e-001, -2.52211332e-001, -2.30452776e+000,
          -3.47614336e+000, -3.11916399e+000, 4.95724058e+000,
          7.10918903e+000, 2.55774528e-001, -1.21518302e+000,
          -8.75907063e-001, -2.25171590e+000, -3.16468120e+000,
          -2.20719814e+000, 5.59926653e+000, 7.20528030e+000,
          6.48422539e-002, -1.98824465e+000, -1.18799853e+000,
          -1.40732718e+000, -2.37308955e+000, -3.45968890e+000,
          4.69317627e+000, 6.33474588e+000, 1.15861841e-001,
          -1.63802016e+000, -9.78068650e-001 ]
      - [ -3.01334167e+000, -3.29378104e+000, -4.79656315e+000,
          4.91582680e+000, 2.91624331e+000, 2.70498037e-001,
          -2.20834160e+000, -3.87910336e-001, -3.30032754e+000,
          -3.12155271e+000, -2.89433861e+000, 5.65642881e+000,
          3.20984077e+000, -8.80408525e-001, -3.17489552e+000,
          -1.19186127e+000, -2.62698197e+000, -3.43834424e+000,
          -4.02465725e+000, 6.05953074e+000, 3.92462420e+000,
          7.12197542e-001, -1.43552399e+000, -7.27217272e-002,
          -3.07050085e+000, -3.22263885e+000, -5.77667618e+000,
          5.95377064e+000, 4.44851637e+000, 1.56112468e+000,
          -1.26561522e+000, -3.02074283e-001, -4.04704762e+000,
          -4.79150581e+000, -3.12850690e+000, 6.92719030e+000,
          4.49940014e+000, 1.61365235e+000, -8.14604521e-001,
          -4.64277506e-001, -3.24920416e+000, -2.95263505e+000,
          -4.01380587e+000, 5.71728802e+000, 3.73342752e+000,
          4.78710949e-001, -2.08011246e+000, -4.06060189e-001,
          -2.71722627e+000, -2.84071827e+000, -2.67549539e+000,
          5.65568113e+000, 2.54410195e+000, -2.72853285e-001,
          -2.60614872e+000, -3.92950028e-001, -3.44441795e+000,
          -3.99822593e+000, -4.77490091e+000, 5.19471121e+000,
          3.32788301e+000, 1.06605780e+000, -1.39053130e+000,
          -3.35941195e-001, -3.15897322e+000, -3.99165773e+000,
          -3.01527882e+000, 6.87592459e+000, 3.55257797e+000,
          1.26985252e-001, -1.44915855e+000, 1.17238658e-002,
          -3.21197557e+000, -6.14767134e-001, -6.56470001e-001,
          7.53468084e+000, 4.13686323e+000, -1.33065403e-001,
          -2.91010714e+000, -1.51436496e+000, -3.52452421e+000,
          -2.93495178e+000, -3.60636640e+000, 6.33398533e+000,
          3.33931112e+000, -4.09142911e-001, -3.52379346e+000,
          -1.66615784e+000, -3.83131075e+000, -4.64849615e+000,
          -4.11348343e+000, 6.81492376e+000, 4.74355412e+000,
          1.66377020e+000, -1.15291822e+000, 1.61008276e-002,
          -3.29117584e+000, -3.94724154e+000, -4.76682615e+000,
          7.26042223e+000, 4.97792339e+000, 1.93147779e+000,
          -3.48139971e-001, -7.42454454e-002, -3.91710329e+000,
          -4.02801943e+000, -3.03178096e+000, 6.76235962e+000,
          3.70941138e+000, 9.07474905e-002, -1.78541374e+000,
          -9.38846886e-001, -3.53819323e+000, -1.51435852e+000,
          -1.28247297e+000, 6.24222040e+000, 3.12643409e+000,
          -3.48871410e-001, -2.63438439e+000, -1.66371560e+000,
          -3.74282575e+000, -2.91256142e+000, -4.10610771e+000,
          5.90504980e+000, 3.69198442e+000, 3.98412675e-001,
          -2.45378447e+000, -1.37564158e+000, -3.16832328e+000,
          -3.82629490e+000, -3.77045035e+000, 6.31435442e+000,
          3.84701610e+000, 6.35096073e-001, -1.41150570e+000,
          -2.81648606e-001, -4.24215364e+000, -2.98975372e+000,
          -2.87372136e+000, 7.47440386e+000, 4.31898689e+000,
          -8.07320356e-001, -3.73991060e+000, -1.83418846e+000,
          -3.21309614e+000, -2.59083724e+000, -3.65110350e+000,
          7.48086691e+000, 5.08373022e+000, 6.69835269e-001,
          -2.65670013e+000, -5.63174248e-001, -3.52844858e+000,
          -4.05487394e+000, -3.42219043e+000, 8.17952538e+000,
          5.97836637e+000, 9.63313520e-001, -1.32775271e+000,
          -1.63494319e-001, -3.17088771e+000, -3.91320658e+000,
          -5.16835880e+000, 7.64353657e+000, 6.06945324e+000,
          1.09877062e+000, -1.01222336e+000, -2.71722116e-002,
